{"hidden_layer": {"weights": [[0.09034428703166064, -0.27219203977610024, 0.07381722953770226, 0.14761608488505276, -0.1475679924524635, -0.0193390402003859, -0.22389229215634127, 0.21355496255229303, 0.003718797777307988, -0.07972851590746981, 0.10040536035843303, 0.04801979133517301, -0.1258306172717331, 0.023651069161174036, -0.015758889670502374, 0.051118849684637056, 0.16844090030788375, -0.01289952212502707, -0.04508108894922151, -0.08105080873229899, 0.2611042466539007, 0.0750951426123705, 0.004642170986586073, -0.31526162251710077, -0.1913770893208615, 0.04023361643563116, -0.19094271716587036, -0.3081650719870183, 0.11917444830210883, -0.22798972770476908, 0.2846135070010408, 0.22197445961148832, -0.2272077657073764, 0.21483083836036349, -0.041666220981847184, 0.3272877742657259, 0.20534349324128442, -0.10079884269066411, 0.3459424111929589, -0.05964254505403299, -0.03995945812237092, -0.14932134816688314, -0.27282109348526457, -0.09179091585301619, 0.3290088525532211, 0.28515009478213316, 0.07392933066386431, -0.013177342080756348, -0.17239502164827253, -0.022877327386902055, 0.14236434927590536, 0.21838172708012657, -0.10006439318763065, -0.049394662709199906, 0.20470936162144793, 0.24277578682915643, -0.2666411819935559, 0.19158857959928233, -0.030608915363397937, -0.14867790163558792, -0.1795583581584041, 0.25042931877068647, -0.1342785974222336, 0.22851135372264936, -0.20691613132623085, -0.37421645467948905, -0.3750711869650869, -0.4035643127426122, 0.159532709817107, 0.2111483475121624, 0.14643367261582813, 0.22707308798799622, 0.1459370093367666, -0.027389370413968658, -0.2246052285954703, -0.07793727179413298, 0.2418589534794994, 0.12157859349109926, 0.21170350120154566, -0.05879478417501806, 0.19178521853361694, 0.17066731831616722, -0.1186740241074365, -0.2278802656795489, -0.22674623287582935, 0.2042847810612911, -0.25829997491804124, 0.09537491808726473, 0.29248754563020574, -0.2658290987835612, 0.06125232250550716, -0.3140962693985388, -0.23091354338541736, -0.15832075414520155, -0.04581559298671644, -0.035831302556297975, -0.2679172142821783, 0.11838252641186958, 0.04330864193349484, 0.32269293468315297, 0.3276156716601551, 0.3756906875446376, 0.3291567263352, -0.24614118553376116, -0.0026989994461278865, 0.04529144775820053, -0.0272592496348191, 0.30902512829373796, 0.0012532062873277239, 0.3212191383013092, 0.18534667378151926, 0.18477510449657086, -0.1684283302352743, -0.24634454623818774, 0.02241161974047312, 0.25999123367977534, -0.14482543569027445, -0.2985038718708231, -0.01694725094895861, 0.05813571209244637, 0.13094030583227645, 0.18038217565208317, -0.0368577695159952, 0.10264033188761187, 0.08131737043527111, 0.06827601272441894, 0.5420138735880384, 0.20154707283345819, 0.48341866646161985, 0.139682177628734, 0.08036306750713959, -0.31398087102071354, 0.08459460555771092, -0.05819519647445322, 0.07512347777310018, 0.020922513563673032, 0.0012025983890425914, 0.13888112756192203, -0.1748804113836226, -0.19858888430519048, 0.06923019601657915, -0.2740467898556751, 0.19877398483672845, -0.1908496816662507, 0.12978074346961, 0.21590915452002804, -0.24600668708666887, -0.13197568339085886, -0.009977146725823402, 0.14724780324497808, 0.27489055837107135, 0.2618331944120041, -0.10215118365016321, -0.01668615663997311, 0.03816749975465292, 0.3181771800485751, -0.21093380112825452, -0.47294534578722963, -0.0831669005802074, -0.15832792755997413, -0.053808221616319936, -0.20565657009925942, -0.22152180709610303, 0.28345096097187356, -0.08180838366967602, 0.25263564199655963, -0.2962420697446593, -0.09868017736272183, 0.011532891067457252, -0.302467592727793, 0.22096421731733168, -0.0462771681465693, 0.2355753801442039, 0.24302555614862792, -0.22968833658913973, -0.11044679068183014, -0.10123747960013715, 0.17415678145896982, -0.14822267367308017, 0.03360521984262956, 0.1646276467143868, -0.13288703258437146, 0.4072773464897493, 0.30325723906509855, 0.004687712812707211, -0.13556380578815094, -0.5606416923902015, -0.0740633719160529, 0.15293365040100085, -0.0202066242483361, 0.15844214309752291, 0.1746315721889479, -0.014902841649454138, 0.09923858202766463, 0.05183640308872723, -0.021370446746535283, 0.05496072526730683, -0.31178660421110527, -0.006397594987459634, 0.08535721351110243, -0.227138202420545, -0.005811338673930775, -0.2526029440645291, -0.2683650469603532, 0.2954472930686182, -0.025999189713552025, 0.20889938810806408, -0.029396304233798378, -0.17051522433284363, 0.06969848512208017, -0.21809077238110824, -0.4823440970113742, -0.14130964818148997, -0.31055561534795134, 0.14436191882162658, -0.0004065355184123896, 0.358715356707727, -0.2986128713140055, 0.07248728525874991, -0.12049543844676505, -0.11116282647173878, 0.04071226443838665, -0.05871880003790892, 0.1287052181177473, -0.08027423549094785, -0.24523008245499467, -0.00291446298405037, -0.23990367166830892, 0.25919379577892065, 0.038943880220509666, -0.056696649537628555, -0.30162916065146833, 0.2523403930528136, -0.0012271162166740432, 0.004636658411568495, -0.29119605563668083, -0.025840031163550728, 0.19038890148690527, 0.14887457773643273, -0.32988044564137936, 0.007688086432410662, -0.10206035203993337, 0.14823610068406168, -0.0734255325054579, -0.19259970594904807, -0.5728303859300209, -0.11952726342349519, -0.06900799180558949, -0.32704169611899325, 0.07158871018258896, -0.054302778232191325, -0.22481221496460937, -0.12864595311574317, 0.20126314509162455, -0.26165810230906594, 0.1490968931365626, -0.30528057420233323, 0.05478038028675513, -0.28222710147916935, -0.05353675488539711, -0.1059291031003913, -0.16989113463956584, -0.2513504612083011, -0.41058989127713696, -0.029725542432445722, 0.439595277340407, -0.0509849706051598, -0.21498256144588024, -0.2893765045949632, -0.36801017335907416, -0.2630567638487394, -0.42369313001989617, 0.23607534921708445, -0.14579409012955438, -0.35990514541022367, -0.2454923343417905, -0.2550035691836666, -0.2641618380868889, 0.2892231684117392, 0.20211855851311455, 0.22771249704366808, 0.034078060030413956, -0.2014540819390847, 0.09522848371808028, -0.1163370733140064, 0.16187895386327458, -0.4386271174693363, -0.32183365265802577, 0.08386054085336268, -0.293837514419221, -0.3940997164488471, -0.08408700715317584, 0.1277398671628089, 0.37177892865503553, 0.4458018364114534, -0.24534670372620682, -0.5741522534991808, -0.1180414645899228, -0.13652067180458025, -0.5856902136088804, 0.1256501588432977, -0.3940082121534846, -0.49334702349529497, -0.32691955037361525, -0.33600027087583567, 0.24308566307551657, 0.43620017232302843, -0.09259789532094011, 0.327732701959213, 0.17143313099072413, -0.03776607990574993, 0.2313958075999514, 0.06588470060874488, 0.36835569918353245, -0.07836655356466254, 0.009806748602924216, 0.26490967375605357, -0.13563298806461477, 0.12884755980724513, -0.4725008105214949, 0.132209070913307, 0.12104267421663752, -0.03133928810440954, -0.4748327716807598, -0.5532848274262823, -0.23558452538819458, -0.23011092126955887, 0.07392970055108172, 0.46784083859138714, 0.29794598910828435, -0.1416391162578707, -0.4514805563484301, -0.4436238322635234, -0.08357453482680077, 0.42806844873991184, 0.5766528844703275, -0.06985277750513237, -0.0832676032899573, 0.020796916081164834, -0.42061944371740095, -0.1646237915379496, -0.18112673058079348, 0.3002171174183384, -0.015177882616056649, -0.09542923026648699, 0.5418768175711614, 0.031041135671309297, -0.15673037907898307, 0.03150515547641535, 0.22757413733144197, 0.12116124586655566, -0.5500516217148961, -0.7760441831779046, -0.2540207409211315, 0.07554265060205131, -0.03525353092378105, 0.49950497183049686, 0.04909055844885438, -0.2750784741740521, -0.4448053432096754, -0.4917878951625921, 0.11256299490783676, 0.2166858292886659, 0.12773104490429796, 0.07800260058288502, -0.18406453872982956, -0.28296324739080464, -0.04658745360558524, -0.3159786020330572, 0.16075232695646297, 0.23687949576417167, 0.07377255620218126, -0.014968283571633437, 0.27963921442411394, -0.07906998265261721, -0.0986309306133858, 0.36794887875886295, 0.16601015777917788, 0.1969292190706268, -0.5366219202909638, -0.9125438269893424, -0.2923535175201399, 0.35606032943098587, 0.509551038403893, 0.717763809000386, 0.46069033697842865, -0.18319795185520776, -0.30937583515577194, -0.265895505938089, 0.08134293681970152, 0.0705638311056673, 0.3588295236023557, -0.05435842435386906, -0.06121854416341765, -0.10088353171689397, -0.18373223567658145, -0.2017251654571454, -0.08672917240060223, 0.47282260608956367, -0.16075623097764374, 0.21998772113834492, -0.2808947718170548, 0.16327012569382343, -0.03548990816503059, 0.0889305760271649, 0.4320033061425761, 0.4276102180012801, -0.13826816678813517, -0.3912691092796516, -0.09064337917400585, 0.03527210445220344, 0.1720121823373833, 0.7404244594949686, 0.05786808179649356, -0.18017668765494538, -0.6745859396558257, -0.6080958997799923, 0.1873316731683766, 0.15496470293307202, 0.48638821821226486, 0.3142499408732964, 0.2309358562824941, -0.003013358347727595, -0.31454843233784535, -0.28192320514675356, 0.22320440207250694, 0.13007295843111108, 0.1634069058643369, -0.28692142668137377, 0.19313561296985532, 0.23847648607788227, -0.25455939650264475, 0.3644518134242828, 0.22384709120434412, 0.17034130972526237, -0.15879035621773085, -0.26968908813634024, -0.05075359367162317, 0.2169336718108675, 0.1696719965322441, 0.6810768298697097, 0.2147742745537942, 0.0439297939036978, -0.5044128331177566, -0.8467432731731265, -0.39878828038882225, 0.0007350045282265103, 0.38417718661122224, 0.3095935843798401, 0.17990566225883772, -0.047671553304536575, -0.23482919036512068, 0.10492465539553741, -0.09245961151599895, -0.288527221998626, 0.31866357147695695, 0.19188976732172777, 0.11569996592070973, 0.09797628861571206, 0.046552538637636996, 0.46756903480358303, 0.11924988792035102, -0.1744525039253654, -0.08994883522626594, 0.15333396302915386, -0.1397596913351418, -0.032202806515205726, 0.05870996157929991, 0.31075547109610246, -0.19624430920338448, 0.10815897683908246, -0.5900479650106171, -0.7321708942343246, 0.0006733652724208983, 0.1558406842268459, 0.3169285678923998, 0.3305352311247538, -0.07871136950613668, -0.20441792204747017, -0.3377006660062019, -0.2912423449676529, -0.24524876223027162, 0.19978595867405405, -0.02585887790972416, -0.32927007528600055, 0.039073166389114754, -0.2131379680418621, 0.4245530355369046, -0.08566518839754828, 0.436639076164002, -0.3418685310017054, -0.17557753741759932, -0.009092691950034992, -0.1268126740836049, -0.15866699547654758, 0.17893648226505707, 0.09186898267883402, 0.4056793460016929, 0.07649946045185738, -0.3782140003954301, -0.6703628518576141, 0.049451425258811216, 0.24481133879738132, -0.08642542955341759, -0.27397139330624165, 0.2197754811118368, -0.24157340016853876, -0.1103786872955292, -0.4505926168246216, -0.12605157664051114, -0.3948169975781164, -0.029271084399856696, 0.1273324709713659, -0.31941736032770596, 0.12396563894155294, 0.09758897263809084, -0.1153398726475254, 0.20552422632190023, 0.2196028607015693, 0.1516595015766926, -0.007946730194027184, 0.11884537866247319, 0.3343280493613641, -0.12647948379231144, -0.09204410621172117, -0.03287236776310185, 0.029741090268727236, -0.30244150019453037, -0.2854710132416607, -0.0006661049604371377, -0.03639567845674186, -0.28851330063046343, -0.191327465249995, -0.32406742651905707, 0.24220642885051527, -0.24035581349033652, -0.46116592273379825, 0.17324096142982418, -0.0016376979029827027, -0.1532962387133187, 0.12357329156072838, -0.05146980439834784, 0.06727775006930153, 0.17098394565760497, 0.4436515289658824, 0.007022138230734375, 0.18335190745441865, -0.23137296178195274, -0.05374577596457984, -0.02350565785926182, 0.08243929409767418, -0.13431332098599807, -0.20543149902556007, -0.13274654042544304, 0.075232679456143, -0.12191773849092655, -0.46617882053977405, -0.08775414572996457, 0.33829554550838153, -0.019818265446442218, -0.12036428258377649, 0.05336053546988134, -0.29970608640490853, -0.2438371611789478, 0.05393278962917848, -0.28663015604847536, -0.39987816500377305, 0.06856851781502017, -0.07424355242317472, -0.049339578237061206, 0.12331400671221203, 0.1390386914536447, -0.06573869573595852, 0.025134547166795706, -0.11192728050509747, -0.04042261239540187, 0.0832799127160731, 0.25691755518261955, 0.055659692533926976, -0.009255291745876788, -0.08023234062083243, -0.5487007562298022, -0.18962108957202206, -0.05458771886228951, -0.24926602314394386, 0.02655294536040043, 0.05854102053908202, 0.07180793346981285, 0.2512077326125841, 0.01753824419516795, 0.06155680875705124, -0.21618953455055703, 0.013483625796028008, -0.17736611098705152, -0.11853369853752875, 0.044760452203204945, -0.3432915139959197, -0.2398783362610575, 0.037984335354565024, 0.06223190437931371, 0.3923362707582279, 0.18316721264767177, 0.17559378936758477, 0.0014054074529374105, -0.1092562551395749, 0.5491131059103859, -0.1492377657122696, -0.1917963139287554, -0.357296635747071, -0.6813250920811733, -0.22137291874204246, 0.09285736527579704, -0.15392591131187214, 0.1478680708661252, -0.23147625763243163, -0.3292089797904265, 0.006950380260171751, 0.0009149721919060605, -0.03373433684863886, 0.3080070526244228, 0.20118061059155065, 0.11588407285242472, -0.2862969619024978, -0.22591410316129815, 0.0686961382111314, -0.2040084798116977, -0.02129352623189781, -0.12077743903368214, 0.24775407217721704, 0.1982960693704997, 0.1688593936308924, 0.03891480832672012, 0.2743979579641769, 0.40212351023070353, -0.04966601432894419, 0.13633067428302806, -0.09892214612037697, -0.16693833888579754, -0.03371660296461914, 0.33270710692239824, -0.12185349325524615, 0.1877645120988135, 0.23641587758939572, 0.035006494903846386, 0.07800736733244973, 0.001723362263716166, 0.2803917870945799, -0.033410035303998886, 0.26362201749247294, 0.018932144583086008, -0.28348467507293773, -0.3848976127510615, -0.016211836618527667, -0.36300028108407173, -0.11893820369855952, -0.06955558623950589, -0.007703981644920969, -0.09926927558736831, 0.04451622845951639, 0.39152540417154186, 0.007325857214364821, 0.13934418173712204, 0.35678509126125746, 0.28779527405948385, -0.08138892832436706, 0.16916872133827007, 0.1692017380709441, 0.2610255924726856, -0.32863325529578014, 0.32739689527573107, -0.15873959473013358, -0.010783390953759964, 0.311624737425782, -0.1919475509729659, -0.07946540405276581, 0.2880211598713782, -0.15411761049217082, 0.07500255070910711, 0.007350881518362085, -0.28580186671869723, -0.5444513632299914, -0.47029737022129225, -0.5136617663959029, 0.22372692905887406, 0.33890117843453166, -0.17595221171231024, 0.26791812257165676, 0.3514408133910181, 0.25125852257938147, 0.31745514028036614, 0.07403528887436672, 0.23324009198226753, -0.144710007655559, 0.08254951773081268, -0.31907859850290843, -0.06724394499064387, -0.06932150596150927, -0.2589471559295753, -0.2088596766849906, 0.26851610322537356, 0.026578941621360597, 0.27700252769730005, 0.016854763482978985, -0.22147117541685965, -0.1289644642512021, 0.1407292729362956, -0.08336376012022756, 0.21874863105836534, 0.053714041850225505, 0.1729104629753692, -0.0471168963490095, -0.1173837649574759, -0.3097509598814339, 0.26555712907437656, -0.21943501555013292, 0.20584999228104217, -0.08432282372516649, 0.019685167189080324, -0.09431949302264755, 0.16816557494184467, 0.2014255014486609, -0.22723230022521504, -0.30876590534602355, -0.28487519022333374, -0.09144075353836426, -0.07027329249847503, 0.20045093910116318, 0.1156497853231283, -0.20770338595289736, -0.057775463472004074, -0.11975101055593385, 0.3267507897148052, -0.09946269915364345, 0.16270101326391795, 0.01257809131912091, -0.1835716069751532, 0.27293262782732697, -0.05573912003562792, -0.26510452881002955, 0.18681920777211503, 0.2921686636305315, -0.24336051907787165, 0.13891552486204345, 0.09111357090252309, 0.2720258865687265, 0.2640083447731526, 0.29357815360026773, 0.22234554447275967, 0.080404478489559, -0.2739134802707189, 0.10780936065091756, -0.29568252818201074, 0.09588073140315034, -0.19390893007338028, -0.1138579275022518, 0.26559056555861305, -0.03900825127532698, -0.21558739196652354, 0.280615467549969, -0.08269138431677692, -0.018746786591151032, 0.12060368911811331, -0.16507170040583832, 0.28673483355167806, 0.10619420979099858, -0.22314016375798756, -0.26417503127453146, -0.2983322550470395, -0.28270238404967973, 0.24152498462339622, 0.21928575505247372, -0.1316106148087629, -0.19137980347778116, 0.32516541059198345, -0.2656958874279381, -0.29091663616309016, -0.2610999361764672, -0.221809416871393, -0.10925782450366234, 0.11120648033275049, 0.30020906917228407, 0.18876912345919028, 0.0666660061479622, 0.24665570669981107], [-0.07367023214533758, -0.1842169539389271, 0.23086784445542155, -0.2621919758630791, -0.12445258654561452, -0.13969821569266047, -0.1828429563043671, -0.25191440535402404, -0.08388434721490533, 0.05986548072321241, 0.11031251669081185, 0.15671896102138091, 0.42238717226412653, -0.1391076994138472, 0.1871456928427519, -0.1877790913360918, -0.07612768702305621, -0.03292330001866509, 0.4567877436435147, 0.3076871111464756, -0.18872747060229725, -0.18318473277295053, -0.30112632716237353, 0.2054492952962229, 0.2854981944216469, 0.027368053037399764, -0.13962998894312903, -0.17999833989373165, 0.24322501077998449, -0.2799414778657182, -0.24046539558579622, -0.2994891975394073, -0.10092375507841023, -0.11011329276492576, 0.017297011643159343, 0.1925050923684891, 0.01221497329497253, -0.23419542663529438, 0.04927328324901077, 0.35334853816983136, 0.2848939435482495, 0.29781703498272866, 0.24215574567906661, 0.31868621543088654, 0.2995078764977188, 0.22953523124917197, -0.24274412003139648, -0.06522429114306044, 0.2662008439157393, 0.07851346104892779, 0.0838109434845407, -0.03024361420310538, 0.1500409978589371, -0.2955913746341188, 0.2855918866215467, -0.3087715757553255, -0.21122648381978903, 0.0785424842808709, 0.02695828142245643, -0.24293725798228144, 0.20130799456836496, 0.23600037059752318, -0.2944263504784804, 0.16358634542188127, -0.2012494066505396, 0.40104628530993897, 0.21847412800126467, 0.03469905565739799, 0.3560612664327555, -0.19694961207907696, 0.010685819075200055, -0.24569073319243864, -0.0954362598327948, -0.13633762619295173, -0.04763843869648251, 0.015145777727507885, -0.04929139613188695, -0.30054087090942766, 0.3416296028760383, -0.274731964521378, 0.042183491495877135, 0.29348087792624544, -0.21318460181403875, -0.004385064565862629, 0.07226745753900699, -0.147625181790033, -0.18192344207904493, -0.05921075738471554, -0.012228323876276904, 0.15151042863926933, -0.13191473282408234, -0.10645044814314533, 0.005100695201767722, 0.20255683196421612, 0.0785192485796108, 0.30574359834178216, 0.5090495628789866, 0.17942359585708417, -0.031664806057047135, -0.019782952180635686, 0.015989488288819204, -0.2806224942030833, -0.1715665168538026, 0.23146524616994632, 0.027013962469861753, 0.29833455439507034, 0.1706323325016994, -0.01635962975574773, -0.10417756724628899, -0.17414569072256753, -0.283056706043712, -0.09555280624169263, -0.2907570000806309, 0.18519376252689157, 0.24821838044185984, -0.04621804467938933, 0.05800170595795041, -0.11995035472837126, 0.020071420173852272, -0.04564677062243908, 0.16068680435676622, -0.013482157514251048, 0.43179596277639304, 0.43853065715737893, -0.018224516937411048, 0.36126047044543824, -0.1843205501088354, -0.09302385222540148, 0.21711250189876488, -0.2897327197777719, 0.02755202589748723, 0.13113993704383514, 0.06264001231834693, 0.24868708995779298, -0.069763526487427, -0.2282752323596986, 0.01355579165056345, 0.2359503003719828, -0.005165563978053678, -0.09217214007575994, -0.03190683887270568, -0.23620572334343132, -0.17234578637590484, 0.20865742494867884, -0.08526528275396508, 0.2420002156081021, -0.19934538500055118, 0.12811373671077428, 0.13039675708936044, 0.31705578898074, 0.3784693330239699, 0.16595323293913533, 0.5481542815113076, 0.3079561958819053, -0.02175067417092961, 0.1261038809791081, 0.008188958877343352, -0.1332373583065714, -0.21984053489919933, 0.2123645164522691, -0.0021002403224126736, 0.20227192740106562, 0.1323556384998532, 0.23367435648396898, -0.004365573747755597, 0.0292718029064072, -0.12935016410815717, -0.07035079070869527, 0.24010263462983972, -0.24763756050232869, 0.16115682507850748, 0.08908294767882001, -0.0526645455754647, 0.061925559154026484, 0.043458685556765964, 0.4110844288239677, 0.5086619800703189, 0.42029912526126384, -0.19246564851932532, -0.13766929742196676, 0.30720266295938087, -0.06678734146429643, 0.26639016830417317, 0.21752476266340146, 0.05337699750370756, 0.10712625701037297, 0.3469585976143958, 0.03756291791610685, 0.02942013582078884, 0.1469237299545143, 0.40356903452602877, 0.059507015564588234, 0.06530146951197283, -0.16151182709632672, 0.03025408222740252, -0.04838336544928669, -0.013171905597094413, -0.21946414226571861, 0.002313832329901506, -0.2586866314443812, -0.16876084916889855, -0.3472955534863911, -0.38384532394140536, -0.24748121119088823, 0.1393484956815395, 0.24869711246905427, -0.035390336407101514, -0.24329972924439827, 0.4599638266654802, -0.10195573072964523, 0.11592131002596832, 0.6612912169354396, 0.1321438484230928, -0.02550595923481529, 0.2710114059036594, -0.06566744131494542, 0.42315782057254975, 0.017664096875735225, 0.29576369212142667, 0.013294257632019269, -0.05006944501483066, -0.040712429728591, -0.11723609421178659, -0.20341753218301084, 0.2804365618157159, 0.12836463398347586, -0.21943107455317434, -0.1882836624420179, 0.17515023140716812, 0.04965242855456297, -0.24617981319006285, -0.23870962993779968, 0.3335854014307476, -0.00021689580051254825, 0.030591142754590368, -0.2363589380522179, 0.148239382363236, -0.18688875113959474, 0.4204194695500649, 0.5799147786219843, 0.14340059737468014, -0.0031663390114558885, 0.2714440785743549, 0.024780432649136954, 0.5060680011681292, 0.3759648395795407, -0.3128660072340026, -0.08458130936229383, 0.05826040384971602, 0.13401430554025662, -0.22076440491454186, 0.018405749678301334, -0.22625174548183014, -0.2337867846680007, 0.06519070007739028, -0.33787880235901874, -0.20820918448022466, -0.11887483136088166, -0.2908741893411956, -0.2243746200593038, 0.11697718351639566, -0.0744421589848608, 0.2556738085296001, 0.05629130751793579, -0.3310349132651058, -0.15779159248427635, 0.04683954757477935, 0.5534516409664365, -0.01117969600855056, -0.1963288409673952, 0.1358473959091253, 0.25346714771063883, 0.709889577421985, 0.07817553744782708, -0.000963076852646509, -0.38122294301519327, 0.12979010416781708, 0.07819187244437392, 0.1516566636910979, 0.2062751672260631, 0.26291586346313484, 0.07093473607038424, -0.06458611814845898, 0.2834215485350585, 0.16397293140820643, -0.026801874239660014, -0.33786113757972536, -0.24788515270606462, -0.04479514807172484, -0.1487109341370395, -0.27735084957394956, 0.018633136008691323, 0.09683308868842878, -0.019241419773171634, 0.12458775182490847, 0.5093223581273125, 0.3346278502176303, -0.0049674273185978165, -0.21590104684517217, 0.16249252750094795, 0.27432488327065596, -0.33757514798698074, -0.6158095441481006, -0.45754712613994725, 0.22216464338416608, -0.14893112084060017, -0.2595797081637657, -0.16677662222458245, -0.08545041555687696, -0.17705436258991597, 0.044297098850172106, -0.2782989381749701, -0.018646916237659406, -0.13372161270375035, -0.3750388697005451, -0.029923546423430532, 0.1591448120544728, -0.19249386546863984, -0.37851968623337195, 0.06734909912740565, -0.1799885401932581, 0.32813712923433747, 0.015302905690547182, 0.4045237663798083, 0.27158619556983715, -0.1747575789715021, -0.12289015943350548, 0.282893887557609, 0.26524059032439706, -0.09535273410054537, -0.43470010965334943, -0.2702486653081654, -0.2783530850680445, 0.02297659929057415, -0.24510269716453392, 0.0549919988329625, -0.12881591587892433, 0.18124302069255774, 0.23697623837254214, -0.28932014302853704, 0.048190711496287605, -0.4153392072313445, -0.21716510278330872, -0.45912119012028973, 0.23872176037146536, -0.0586164422080629, -0.13385567006188923, -0.35232739999080265, 0.14565426087016672, 0.19362079559306603, 0.3566535457470872, 0.545697511817296, -0.21307812911968912, 0.25355197830523923, 0.01160482583338029, 0.1911632540337102, -0.10876512921300283, -0.42018989766101783, -0.7404260240558962, -0.14769706267715543, -0.17579897206328793, -0.10123838959476661, -0.3063102887381633, 0.15530589096525405, -0.24620920113732733, 0.012144773713503405, 0.14598703250225906, 0.07686860971153059, -0.32035115220713895, -0.42787054912925204, -0.44650402935628175, -0.2121721835567121, -0.368305284358314, -0.18366142634255625, -0.1391073343551124, -0.10833280372056706, 0.19237006394766965, 0.058118860237556115, 0.20734621672750617, 0.1556414083105818, 0.34493083018465165, -0.16326212332035026, 0.04522397109924038, 0.44688188123051265, -0.13488697428097277, -0.020896556216204613, -0.6733289005143963, -0.4624155304547191, -0.37787110052271033, -0.17446232931708636, 0.06543569669691904, -0.2511810262556835, 0.22465980795204077, -0.26583210332278834, 0.34293788975371536, -0.0166898255724065, -0.10360211011407293, -0.2866692113744554, -0.10744743924507888, -0.4543808598900171, 0.1789432733128407, -0.5449362867101334, -0.36893259105669773, -0.17624797011568905, -0.11444279671740545, -0.0944750660959286, -0.045902874309695585, 0.2700325410047033, -0.06715324068250288, 0.07718031119884286, -0.21249313296213934, -0.05162726344763726, -0.4635379296218314, -0.6272130656831753, -0.7014942450756965, -0.3881547582859141, -0.332146926039248, 0.08946010755338103, 0.22303370751059928, -0.0005526718992497871, -0.23172295037089796, 0.1614161419538374, -0.031925863809514926, 0.053690248825453445, 0.12605883964208495, -0.07084273271678485, -0.19892036197038293, -0.19946350262826157, -0.2278369037055457, -0.46525630380688787, -0.4397575493578631, -0.3682004064274556, -0.286385487433111, -0.2135952629551996, -0.026226294488047083, -0.0007619334115547043, -0.030354732605189325, -0.26012792879056884, 0.0784032313664527, -0.20569978221598076, -0.45105100651009244, -0.5492127980333986, -0.45249832788757677, -0.12013987935092109, -0.27513786009107966, 0.050507131652690385, -0.32338189797086964, 0.226355279312593, 0.18434055431226615, 0.19830176412109166, 0.3077188354438645, -0.03647738167253323, 0.1255287732593418, -0.4072490483773752, -0.4152276206389911, -0.06862532904270656, -0.08613901284066316, -0.3749501821109271, -0.18279834724921798, -0.36057754746134796, -0.21738170662962264, -0.0953935672229075, 0.15955344849090092, 0.13776923668268762, 0.22593292770541223, -0.19995313265470901, -0.11360299565294721, -0.06331401423651094, -0.4485275068409959, -0.5467351704719186, -0.8578267224221121, -0.47350898302014266, -0.07085686983723503, -0.2584338016183124, 0.03076365200534073, 0.18042652124655387, 0.2568334021932088, -0.18963172600193287, 0.07767212843637815, -0.1566923892784142, 0.22825301224203254, -0.010819230021212257, 0.1349333938952712, 0.06482170239345694, -0.24829620347291873, -0.6943777895427726, -0.2241767317607184, -0.33247600241277664, -0.2728515404617114, 0.24592217404578562, -0.17513146410315883, 0.24779013488276933, 0.605315363536072, 0.21233914822168107, -0.2445572497717368, -0.34429247675792635, -0.2403751206006695, -0.08744484808075006, -0.7099960429152726, -0.34961768006892063, 0.12554207166133585, -0.06349821489869643, -0.06659657100878277, 0.24922950337384794, 0.25326294553189443, 0.14283571952270155, 0.15427750342080884, 0.19334214485427792, 0.26433740572514264, 0.03830321546218298, 0.11355393084585795, -0.3281574133378986, -0.12276892604311619, -0.5067662960936683, -0.09420543547533244, -0.1471314215204446, 0.1554141783250168, -0.32538640029807064, 0.0691580899506054, -0.11347026716210665, 0.4487555468128681, 0.13326293418559002, 0.3362758680159531, 0.3549044540995011, -0.17983209014232504, -0.2617686738836191, -0.7121075993182394, -0.16897125747092875, 0.05597964731806562, -0.29206324247631565, 0.08367127492033118, 0.08787609062881586, -0.09953552367869672, -0.31989502479417065, -0.2305722636405782, -0.09751615569027128, -0.09619483727747986, 0.016726495321144577, 0.2819970111982876, -0.029739581112250543, -0.3970697968238543, 0.047880106349355474, -0.2554624834670347, -0.0674620031901371, 0.04154805203118872, 0.1927843657615833, -0.18208255635143641, 0.2623547530143495, 0.6926626555120106, 0.17701212865155505, -0.010834921110033393, -0.016602505451067267, 0.35432586942115313, -0.06009295403917893, -0.5162466417587112, 0.05101796429631506, 0.2355005455379867, -0.13767858195442387, 0.0034696558690281735, 0.05081728711370875, 0.2073074376244105, -0.14150852478814102, -0.07732274640064438, -0.34192310363492723, -0.04949999927215875, 0.3388794436487998, 0.2607842346627014, 0.08062717642674441, -0.4285626970581102, 0.2128327485897796, 0.03590728285927915, -0.0726345220163778, -0.2598044256536349, -0.20671236776532523, 0.21785278474431488, 0.22978091921226138, 0.05786015711585642, 0.007627414425431885, -0.02363206087078064, 0.025227622086607056, -0.13312008722072047, 0.13515229941645474, -0.18244843130822472, -0.2473851386568759, 0.29807899810203176, 0.3165985328721975, 0.22381960713116353, -0.010640903023651116, -0.04958097585488297, 0.2637139539684936, 0.1006586017003133, 0.1933797150700521, 0.32620234847094937, -0.137172047077373, -0.152770687648871, 0.4113652265003371, 0.0508900375046532, -0.19154354789874822, -0.22908379187667208, -0.13404341859044877, 0.11520245763236835, -0.08262377453308152, 0.4039355625657876, -0.09225430968630294, 0.15240345359583624, 0.27160627846908075, 0.19450753971681592, 0.24156582830945364, 0.20591750779777174, -0.1763502553317873, 0.12224463211093721, 0.23200863145928174, -0.0608707763864861, -0.16492590781447425, -0.25281011456853286, -0.2697413677909335, 0.23508219366905858, -0.2034190955665927, -0.20732745994372065, 0.20458571666778613, 0.052330146624151204, -0.3231191205042, 0.42505940495724487, 0.20142048419834202, 0.2357652819463341, -0.09787679182299977, 0.11316585784872132, 0.03993624920499685, -0.15250255824602177, 0.2615837639781625, 0.17422549037725274, -0.35130209731624507, 0.06019474909334175, 0.16294647397278397, 0.34489931815384506, 0.1469220271967515, -0.11504052264244734, 0.274843224096211, 0.09020643903076442, -0.23427819200862018, -0.20978038947696315, -0.20936573640904763, -0.29671212859603324, -0.31959394802250846, -0.018007855271631568, 0.17617573095810923, 0.13038876468195576, -0.013524978907337282, 0.0023505021273727, -0.2598673975179136, 0.366791541104532, 0.26615533053306123, 0.12330936084765397, 0.3469252619549379, 0.11029652872832797, 0.28903893294982397, 0.35299398122144665, -0.01009678666517077, 0.0826793907765491, 0.19409167061678922, -0.02639462225460971, 0.04373639530337689, -0.13754259997210325, 0.3473623310368164, 0.23475509937225178, 0.30330016490526684, -0.15807821707355096, -0.09992502654216792, -0.32954480638292244, -0.24700030788062885, 0.08596815703831101, 0.18224166624056048, -0.004099062757273397, -0.19024441495434014, -0.017585001536912725, 0.16658618174237239, 0.0011574256112371062, 0.3159093625487108, -0.1615209637261435, -0.12505020427578145, 0.15609570401735837, 0.49050477641543766, 0.24975382278985342, 0.41996946202816093, -0.12859594708477154, 0.12843147434653174, -0.1243319048138832, -0.11847845173876263, 0.3279673514513003, -0.05480701802491584, -0.018268278235081946, -0.19570338960491812, 0.1758894827521114, 0.3041374451063533, 0.1492144770520037, 0.3056329392094982, -0.3117428592009338, 0.06418322955940459, 0.013809306613174532, -0.2791635219336205, -0.11373877888850412, -0.06626064697833, -0.12245830253080509, -0.03897837639628943, 0.17994286741124366, -0.02745131495248987, -0.28277890160447194, 0.10817468835425716, 0.28075804717948805, 0.32031688088110194, 0.26404526366574166, 0.046758098531533565, -0.273721211921129, -0.07350673014136182, -0.009527108213230634, 0.05109284043819654, 0.19931529778332738, -0.07719946240208073, 0.08260424783827977, -0.09533087712195205, 0.3300031437193878, -0.17166836535720928, 0.21703812088589364, 0.3277969649973199, 0.11538300600652346, -0.022499165610888272, 0.3152741181972444, 0.32558366860980126, 0.06026536562052537, 0.27966681541219574, 0.15452740571761298, -0.013438935638756477, -0.028981744847936253, -0.28298048495566747, -0.3044767659067162, -0.14443600244892743, -0.17396886596766434, 0.17970864729851754, 0.2675657666240141, -0.3087733834177874, 0.1537441421996799, 0.22078932347386238, -0.15826458699114665, 0.11963149682183222, -0.20281861978129156, -0.13632182574566157, 0.20602186632798347, 0.3307350785587879, 0.05045217804186497, -0.009784167629733019, 0.03199144979079027, -0.08046272611135213, -0.18094572330981584, -0.1676499909867521, 0.265766430745098, 0.2203472151357082, -0.1473426236344848, -0.01329962301747123, 0.25066225556208743, -0.13331129385456175, 0.1279816711780194, -0.14906861362972315, 0.29009684354284637, -0.02889655938301966, -0.24239277779389326, 0.2884767857644448, 0.029411409755835782, -0.08024210563473072, 0.2353204398365406, -0.12144321765339003, -0.2772397543603855, -0.08473667453697059, -0.27961663573132484, -0.23996400531797868, -0.14737762145997518, -0.24264896256837878, 0.23902232187657746, 0.23804988264946036, -0.14785739952538526, -0.03819803430944119, 0.12013556748178283, 0.05064558849886197, -0.20237934885356068, 0.10182191977978888], [0.3175885291082485, 0.030193052500304154, 0.09318162820994716, -0.08921477279397812, -0.23704399655200936, 0.2960851869639813, -0.1345548388591974, 0.20795080830764687, -0.09009171227493346, 0.0979572767857093, -0.18508519197644727, -0.043984970344394525, 0.16630518366071742, 0.23664265059295186, -0.018291542405148867, 0.1988553128471952, -0.35820068116800363, 0.11789211589679056, 0.025370699430449423, -0.15511732444212745, 0.09366629717959238, -0.15657483120021795, 0.25317181686830414, -0.07228380688362566, 0.05197455734051004, 0.052574930987839184, -0.2661521874660881, -0.18901266443495332, 0.24826186534224204, -0.27547568535153377, -0.21108508408073956, -0.18205140669301814, 0.19222655418916604, 0.31870296995595854, -0.14016321333147364, 0.00699310305753096, -0.2068984370409464, 0.03399364508217036, 0.003971861340828828, -0.24440313241533573, 0.23237820541988352, -0.053354977210851945, -0.15360726036445366, -0.21546644812859245, 0.11890438632380651, -0.1956932333746008, -0.3551706461677821, 0.32629590573164535, 0.18927282008669755, -0.10264126463949091, -0.0756873614840582, 0.23538196543317555, -0.2796883569735848, 0.16127328152929815, -0.12225264746030994, -0.1586172787232246, 0.13503083408547412, 0.32043989819409546, -0.19149759988058096, 0.28747328278980544, 0.30320206171874575, -0.030738351756920045, 0.324143006244775, -0.10955361816341033, -0.12612144022348257, 0.34294089572878605, 0.22508270089691362, 0.19879561498973328, 0.057108490072780724, 0.22358887922014503, 0.1432960543485495, -0.09535893907656624, 0.1759955074577315, -0.11604655710535446, -0.21283532603799213, -0.17430108510216763, -0.16519960313000998, 0.2900489014781553, 0.09234898784228815, -0.1803713546511397, -0.3318757566430508, -0.013793178700938435, -0.029963840023567057, -0.15540670238969856, 0.1818988545365634, -0.004678503610353102, 0.2040140719447916, -0.18523115646698252, 0.14406482656285458, -0.09557033401622024, -0.08006827847554525, -0.2253604700908926, 0.12642519747616682, -0.006818273222614019, -0.36859490926967314, -0.1833781341812946, -0.27624123798533623, -0.39173377723500735, -0.19652689006199478, -0.3748940198528866, -0.0795837600149784, -0.2775541472757081, 0.03876576063630165, -0.4149353536128746, -0.11864030308482616, 0.16903232784913355, -0.25385475805239116, 0.08214288853717078, 0.3108021847933947, 0.1690039649470505, 0.23510200401338932, -0.04432727585945523, 0.17454385796263994, 0.15936116075176132, 0.28416714827368994, -0.24469371341902804, -0.2322207439542212, -0.1719123608635608, 0.28650064668038866, 0.07988785188775906, 0.20923066394876855, -0.19575748750845984, -0.3030684599432118, 0.007974658228833142, 0.024337375019884474, -0.23501034244400126, -0.24029332470133324, 0.007710147406054498, -0.38276970526924997, -0.10815725188867417, -0.38576770818396905, -0.5993556830231624, -0.2806237207546232, 0.03777116633730603, 0.22329346655607027, -0.024356748766399577, 0.32663713046348525, 0.10748072186011376, 0.2224029485982637, -0.021515390814349167, 0.23766568596193927, 0.09641614141205729, 0.04229383254642282, -0.14511753506120456, 0.31876733048354733, 0.0666958918875548, 0.3291303249059482, -0.14991611323429818, 0.03336491153700572, -0.5053012576956494, -0.08420867807773388, -0.26880991065777254, 0.0726381160972523, -0.3265369769471813, -0.23944118947412865, -0.34143780827514564, -0.2228891176834577, 0.046025463224803324, -0.10841254752811653, -0.7060479786202613, -0.466236053065446, 0.02825174340262366, 0.1934307918708706, 0.24313475397635606, 0.26347324986401477, 0.3119896085700735, -0.007601474186265622, -0.25576424257692176, -0.18043517440196583, -0.09876824544319374, 0.27237170706417224, -0.09420096377526817, 0.10653629836177794, 0.13086146490268694, -0.04936454441069726, 0.006433457880356624, 0.031459691412285766, 0.1921714395297494, -0.3086568644914774, -0.2634188814906311, 0.12857248225490342, -0.0938410644172765, 0.1251391613025366, -0.21250289424396457, -0.2240790218715199, 0.007861897158920664, -0.5295802182280581, -0.6329073054018015, -0.29483668602834573, -0.032124250698416824, 0.24204308298814067, -0.018253533222150058, -0.22102744696513107, 0.09954789776453442, 0.144765036468474, 0.21925724706740748, -0.12022927464663835, 0.2643917947312762, 0.4311168987858753, 0.39001621148340504, 0.09987117141747529, 0.15458972301505394, 0.030594859591680932, 0.15572679293002878, 0.158520404645322, 0.15038183357696605, -0.019532767433947516, -0.3542856787163707, -0.26849509508727065, -0.37854593577825346, -0.15976282352265295, -0.3689465706101059, -0.24337163670869724, -0.11309703903606572, -0.09283326859655563, -0.14562042588661311, -0.10700309604761493, -0.2966823163292434, -0.018055866626283796, 0.17652227000943965, -0.2849314208880045, 0.3567929603100551, 0.0981225034484797, 0.06855998925840545, 0.09130040846020002, 0.3564889971409112, 0.055054996943873426, 0.2712937087445574, 0.27822266497917814, 0.08016424403624814, 0.08891868593281026, -0.0983949628720683, -0.2847262640683162, -0.05960584328052297, -0.14922245970901798, -0.15883986010393825, 0.15086159147985162, 0.00726453540730948, 0.13739790466809193, -0.1702962100138154, 0.12418135690774082, 0.2947500338498683, 0.397348796914904, 0.06584757689104052, -0.07060613152581617, 0.09669480216450616, 0.007059866037521383, -0.26499616328211034, 0.11066806411433427, -0.06732917070518189, 0.38872159789061805, 0.019311099043644576, -0.03939242412517517, -0.17049193064445683, -0.1843835438711148, 0.3294303719875135, 0.23048875086352316, -0.15279019832984236, 0.29266596647386295, 0.19759935919742497, -0.11834286163701463, -0.12032814864839662, 0.07987238496575418, -0.05320446544930033, -0.41872207702803194, -0.1809997675405149, -0.5860893250262148, -0.38494979668514145, 0.12464283297117774, 0.29585212247965004, 0.08135451813152052, 0.04144686518922747, -0.011703234657947328, 0.060498718056753886, -0.10956762811557953, -0.30628445086509165, -0.21640660780213977, -0.01641738415159478, -0.03877519962418852, 0.18081112132802446, 0.27074079551570884, 0.044816368805505935, -0.13212303227919714, -0.12228200325334057, 0.3063913382440693, -0.058436311915390574, 0.06853473909186489, 0.3586503079385467, 0.12875409062057366, -0.20015442992587004, -0.2321446072882861, -0.006445127486226607, -0.26067991421641945, -0.40485456634227385, -0.44924567349753003, -0.21728022658004098, -0.2738202206414254, 0.08916111834072472, 0.6947125056599819, 0.589345897326447, -0.01700716075994159, 0.4494587603858365, 0.08392751266460521, 0.015892635720539304, 0.05734889651176407, 0.17787604929081274, 0.2663066047950697, -0.023554163919717912, -0.19450729745974177, -0.1054344915166538, -0.30224630398657626, -0.040554802121533326, 0.20170034099232592, 0.225054612166378, 0.2008987887760383, 0.3039943525271381, -0.06544418242992632, 0.1955344558359622, 0.17127313557713433, -0.057052530307938186, 0.3189422042853249, -0.18317059372285677, -0.1667442519106959, 0.1229492902993478, -0.22829667627273792, 0.10955788039486652, 0.3828173490656221, 0.5539387847148954, 0.27609408807238306, 0.4709797926398145, -0.051364893613115165, 0.03624062625136583, -0.18926997669081563, -0.056425690202617396, 0.047531272938488085, -0.12798370212677962, -0.08478711216331401, 0.0600269681632219, -0.41179248784614236, 0.17948317397811775, 0.043113059722431055, 0.5355984228661216, 0.6210897511881937, 0.14177119599168264, -0.05098856325265619, -0.018683005687734188, 0.21316408617588578, 0.027813884551763174, -0.04377159574073016, 0.1596092251154245, 0.08060618920979841, 0.11561837750654781, -0.5802791421979345, -0.19407644702336924, 0.09641125119676147, 0.09515716318113258, 0.4629980619336595, 0.5925373071639303, 0.5316587663854745, -0.0745540032013842, -0.1857662428820527, -0.04016255623425595, 0.21012599571506177, 0.13752134040598119, 0.22358545008148628, -0.28005263655597423, -0.2673844593266767, 0.030155729671755983, 0.5506161957820658, 0.26557551438140226, 0.10940588895734787, -0.15805604089231814, 0.3945895052869066, 0.1313187309761701, 0.14794801120885442, 0.27351567784858943, 0.04836624306441715, 0.3364411173517763, 0.22038123221887101, -0.15992217204061965, -0.2960126186310808, -0.5986914618180306, 0.3453972924129824, 0.39996280823799335, 0.21403114811394214, 0.5386359872651042, -0.026672550206423683, -0.16392997972889045, -0.23348234243187788, -0.10121348154235607, -0.2145028261269308, 0.1184780852465853, 0.04405032552484456, 0.2616471467424319, 0.04533338904410624, 0.26948095333266475, 0.10447704267793537, 0.14346280248784699, 0.1621779588880747, 0.17172477877146297, -0.030841011457932478, 0.08518112504544174, -0.13758359980221802, -0.22599959633233527, -0.003488576151289666, 0.40172209998914077, 0.5426379856667349, 0.33132399825432823, -0.35929794149449595, -0.3733395818015836, -0.24336597406021998, 0.09573933753994592, -0.032615956173036115, 0.2664735077964335, 0.47721815043712734, 0.42449357450903175, 0.23074614958225478, 0.04416988423219064, -0.15522765713100373, 0.005077146573628885, -0.041432608656989056, -0.35127323190307214, -0.18220450743028824, 0.3259638375885749, 0.19435753410464332, 0.186248997286545, 0.5508487279923857, 0.23903122071084623, 0.006742160837485617, 0.13782082583073188, 0.3450911812726443, -0.1603685141777699, -0.17560720517567777, 0.13599536359589143, 0.3993427318332468, -0.133398266215346, 0.13628622903874413, -0.18223406108532375, -0.16226474746953287, -0.4465212031074005, 0.057169691748368515, 0.11847142694114988, 0.6488710394813308, 0.03243934792523407, -0.0712953553084496, 0.05406702330912157, 0.0466320837084894, -0.0071023591917752, 0.07142162371141725, -0.01700914384549728, 0.30214465612292374, 0.32479593797911904, 0.17770895107634355, 0.2177633123427788, 0.21962805758497855, 0.12071105317533633, 0.4657084905055799, -0.24671663380133593, -0.0016056838762683546, 0.005243812876697819, 0.04942973542152339, 0.10317831303297734, -0.03160303023285021, -0.06268619092197676, 0.5771764158329247, 0.11475319654127465, -0.31977768939847745, -0.5817280468835864, -0.3152324467429749, 0.24909640328858224, 0.6850293109758414, 0.18967860565552713, 0.03834757908258842, -0.08182636019255154, -0.16589325657477608, -0.16628094429623194, -0.1864678303935049, 0.17529333456763727, -0.3089348412239152, -0.33479172467441715, -0.18175463914501497, -0.2936468544758725, -0.11854422204197969, 0.26762219143176386, 0.47598589054079404, 0.10826508239479252, -0.2583077128706925, -0.24934673178207092, 0.1941336881972024, -0.22774070600201565, -0.17658679011558076, 0.1741886255884752, 0.12906943290014886, -0.17938544733025116, -0.25357768483426096, -0.8897896492525209, -0.3621612181501182, 0.42216723168481807, 0.45002125142476807, 0.22329952068269127, 0.00801417092181953, -0.23971572852462478, -0.007089325228411818, 0.30508057166793073, -0.263845657928364, 0.3427318292691015, 0.1855251042009141, -0.0790415591927737, -0.18019039291196182, -0.16944305013222105, -0.016197157965412753, -0.17386353572496108, 0.3188530243168708, 0.259265127562091, 0.1558928300430691, 0.23449374026414643, -0.3284817305796953, 0.0001388593300835485, -0.5212846605105099, -0.31440971460936823, 0.17116718734371467, -0.22046270246482189, -0.41175984433952073, -0.8386037811910335, -0.44403646479388453, -0.2815578525258166, 0.5941260753291003, 0.04468948526757066, -0.045784897950108774, -0.32932659850803025, -0.2375106823434483, -0.2560883842671388, -0.18679481619757593, 0.09954458045699366, 0.20155298765257268, -0.06308797435800005, -0.07918816858910396, 0.044467858438809585, -0.10676921161199279, 0.12533098077522506, 0.34109969418462677, -0.10235919239866414, 0.028330142499399767, -0.004434224520918075, -0.47449170294693177, -0.2453112016279842, -0.297078322408249, -0.45686497166974194, 0.2645023394918384, -0.055778879343697185, -0.17051125212723764, -0.201293961366844, -0.029831492532923925, 0.15518719136263567, 0.09284790767935136, -0.03736205216732262, -0.14418557235296997, 0.03433250252181717, -0.2184373421981261, -0.04146932296515887, -0.2594016344310425, 0.2688036928950651, 0.19147679197059606, 0.006443369214470137, 0.2503484001919875, 0.3239656052340954, -0.2016594121148464, 0.2229131374611435, -0.1259129745653363, 0.16755596764607256, -0.2264710066081671, -0.19512525328678804, -0.47556082156113166, -0.34208080082289005, -0.6168484836393789, 0.013576806711817135, 0.004760352570817284, -0.06182172451089737, -0.025038116754201582, -0.3684537262338687, 0.07890769420224063, -0.020199331218686403, 0.4123130318364193, -0.1476107685895965, -0.04342832655591905, 0.1717465807872921, 0.34371191074597507, -0.0715983424643371, 0.02298843380451482, 0.29514397659888464, -0.19091704587828637, -0.28633377941052385, 0.014093435251324327, 0.23906292026672998, 0.06267549561538614, 0.08945985989652054, -0.276101765840741, 0.16323554055900424, 0.23051634267676105, -0.27759831908720395, -0.17366413591231222, -0.18610065496398634, -0.6782241477929307, -0.08030705311588635, 0.08438482679446822, -0.09076453737486515, -0.22182137748359415, 0.1569656544217243, 0.32473373810828793, -0.34592618345593157, 0.17303407013788627, -0.17329341614825272, 0.27300411330359464, -0.24369700649267262, 0.06573263058548393, 0.3037668471874005, -0.04766837272377594, -0.023413926246547978, -0.28302622022216484, 0.2926521137989215, -0.06773208292995893, -0.30900638553951065, 0.24588013230208652, 0.06037680528475122, -0.023957548097427346, -0.34939869760225956, -0.3397086528115335, -0.1552171963934676, 0.1328987624438835, 0.04697365956818853, -0.042619571650512736, 0.15001557995983486, 0.12476980802600393, -0.3161676301972787, 0.07364514318806935, -0.0010028838675903958, 0.17617056688098778, -0.08208189453041871, -0.1404845699204895, -0.2016535886364025, 0.142710518358134, -0.003266993304853366, -0.2164215206501721, -0.023832949057719353, -0.03047575285684534, 0.02221107086173907, -0.21195216636117373, 0.12882719344850307, 0.11395117888616063, 0.16281440142544598, -0.20200314595798102, 0.03948975063228157, 0.022131569263223027, 0.00011980752939998807, 0.23202847786272815, -0.0443112002076198, -0.2154914084497288, -0.12114002061340026, -0.14674397070898984, 0.15204159751159071, -0.009512145309252162, 0.2077365614271923, -0.08451360315743547, 0.05289345560380004, 0.02572541403146938, -0.030750873025506286, -0.27611112238888785, 0.2204055569108206, -0.155879190700878, -0.14252752036583363, 0.13338704025970582, -0.18115811672784626, 0.26357152757574287, 0.03173654762625011, -0.17765795508430496, 0.33556516024226934, 0.05571343339273116, -0.3231606222977691, -0.12117486721990726, 0.2936057824402816, -0.24317164488836052, -0.22580963510870436, 0.12005949334898275, 0.18065108213545775, -0.16121086844395138, 0.08656934585065468, 0.14200451106771664, -0.1986500679319362, -0.24330218096237563, 0.022847481278915935, 0.24867203400980412, -0.36644543976524496, -0.12716595506034648, -0.2650466642902746, -0.07111352184948848, -0.0972067121614082, 0.1443023310368785, 0.32916253692037767, -0.1307765387237598, -0.07263691986909382, -0.26067210946680985, 0.14379406414001045, -0.13522665334039785, 0.09225546899379988, -0.2848171489396493, 0.11450191324048886, -0.18526652837277977, 0.3126407522832512, -0.20880248802159815, 0.27358475845906444, -0.09789388472764654, -0.11778391005109265, 0.2202110481229547, 0.2331937186119374, -0.3124103520942879, 0.10705846700517452, -0.27508016305412686, -0.2973618653064089, 0.28103103156690623, -0.30147167118165913, -0.027231251438721852, -0.010336882863127346, 0.16947406818371646, 0.192850371953165, 0.192620030925146, 0.048640752009148414, -0.1477759038329315, 0.26894074405680846, -0.16349632164982486, 0.09688281799873538, -0.18717510269512572, 0.15546752757139598, -0.09741565135894295, -0.12133231226143557, 0.2691177147823762, -0.2277644401458382, 0.0611649346964544, 0.17468936128181312, 0.16857774426241978, 0.20022238634620182, -0.23534573938629982, 0.27114886168248253, 0.010653321522623938, 0.029305674295059037, 0.11023933671216318, -0.07046667227255565, 0.16725874247600614, 0.06511817832506528, 0.11595595943340936, -0.10752725515029136, -0.17212287649139787, 0.3288099524515933, -0.2721986908391769, -0.237454455847109, -0.18577099699877786, -0.06997775524651156, -0.05735421225656995, -0.3214051580575855, -0.25927002951748707, -0.18273739961368154, -0.13371326676985443, -0.021095983090915982, 0.1619429197278457, -0.01973091355013812, -0.11269531824233997, -0.18663485140736338, 0.016843190918913842, -0.12181129410020408, 0.17864909879987612, -0.22121397844708635, -0.05470819899680773, 0.05188529232366612, 0.22250091545729156, -0.1802459818823247, -0.11596769627801035, -0.2477062951593437, 0.20636431617328277, -0.22432815914936227, -0.07576199997562433, 0.15711065079759112, -0.024467849623237115, 0.30626735771296776, -0.09185845846508167, -0.04442083030069621], [0.15631662985501169, 0.22399346999901484, 0.10966063587773214, 0.2412216786667078, 0.31381777513378006, 0.1396921111155117, -0.012817519845946104, -0.19311711070966858, 0.3041082212531503, 0.13039193088116846, 0.2105018773983864, 0.26238894343469504, 0.20824660579289106, -0.10861908090922708, 0.08633351885741854, 0.31751032853157535, 0.18435017121363015, 0.38142866842736284, 0.29167865951444877, 0.11433067178579634, 0.11436253935682494, 0.21547601261210836, -0.31820514496389624, -0.10188736617350531, -0.32843638641161826, -0.16076425012034468, 0.10750115686644852, -0.1461602329414486, -0.1117372873817539, -0.3182469618119215, 0.2614632640333058, -0.16888065348122072, 0.22278642005512678, -0.1420300028393072, 0.25366917045730175, 0.02214124687753231, 0.1420858194815604, -0.03389640258705172, 0.0480454434671189, -0.07557542106573051, -0.15447927809215956, 0.1409809351113239, -0.250755874584437, -0.07736596355085062, -0.14819477202872727, -0.13816355130745242, -0.21356728704952707, 0.01937397132058542, 0.29589418348033947, 0.08851601775325989, 0.021736467473540542, -0.19986853176193167, 0.11350014549481804, 0.3214890900400723, -0.17866815363600672, 0.18733457831398562, 0.24450856096697882, -0.08061258038027297, -0.027906630456439874, -0.28569263137157336, -0.2481198939986425, 0.17602577984474474, 0.23588555109182996, -0.24024150265516095, -0.13824590188570124, -0.20061575080992172, 0.10396628321771366, -0.044506363435936835, -0.298448396759064, -0.1969196113069753, -0.09224098819297162, 0.002767155667617095, 0.23068944919854914, -0.2286120535286409, 0.17720446116501692, 0.1357421076951273, -0.08142829307363432, -0.06541840522463022, -0.1559040281526274, 0.2348251400270193, 0.03491076646690725, 0.06517209696908782, 0.32511135675078595, -0.17446457300557383, -0.22590960584093625, -0.2824319476269481, 0.22976132735187305, -0.22889048243563898, 0.20591461330702776, 0.25369038837323693, -0.22925753486415473, -0.32831165108923455, 0.2720494853025858, 0.13677975560593086, -0.3732557795258434, -0.33900934596556415, 0.14306195806774707, -0.05372324219440322, -0.005446098797454919, -0.17825980849345333, 0.16451005655904466, -0.07044958983876148, 0.03928446720603286, 0.12580438307021546, -0.3122070670186957, 0.27774229794097105, -0.19795920316710472, -0.23320850940701915, 0.1359794295076861, 0.1998806841375661, -0.040865259551935706, -0.09760411831924815, -0.09511602913056261, -0.22139271126781682, -0.06695525782470274, 0.18461275729077314, 0.06328178254598331, 0.23547211500853657, 0.09670955117697827, 0.002551447192927936, -0.00782838264518722, -0.08316097493032219, 0.08819730656917074, -0.21571995466183444, -0.19028646079262412, -0.4940360837184695, -0.2638220206094545, -0.403273571052332, -0.04152234886868511, -0.28810198211373683, -0.1719858626081183, -0.06268951383364077, -0.1829279541471188, -0.10074922760363704, -0.34216243704313487, 0.3209791653546453, 0.23177812510579085, 0.01176386816214505, -0.015482851753893412, 0.21507220610782196, 0.2638734080249353, -0.015292569628405361, -0.15894834903829683, 0.006786310847087709, -0.08546812747523758, 0.24408116993541462, -0.009481175749691402, 0.2039453298219276, 0.3113796440639015, -0.02944811484720009, 0.09095194888529137, 0.2472331104540031, 0.1003560769487886, -0.19955530009172628, -0.2101987574360705, -0.3397341798644821, -0.5537870301187441, -0.5304958939411345, -0.5943686675041632, -0.4591252048038694, -0.5830306912961601, 0.010582977736559146, -0.18445804073734945, 0.2059520830885174, -0.02424168393850436, -0.1737702804119204, -0.24810048432397053, 0.24026340967746396, 0.2625582372395401, -0.277350207303215, 0.033122647408460035, 0.19489574215399227, 0.1967303623481952, 0.31017525475797675, 0.39196306221432836, 0.4386558815990139, 0.4887719358520659, 0.09868915032480988, 0.04449967217011391, 0.016596418715421314, 0.16491460425978208, -0.0965236436902009, -0.4536145772517799, -0.6823037676701291, -0.9115811263846637, -0.32703971345297117, -0.5982570201785217, -0.5427396359969059, -0.40995621834212803, -0.1440059135947193, -0.03819782706712188, -0.2550826850642671, 0.13983703167781725, 0.17783956062955922, 0.21561573983133664, -0.12879982773040582, -0.23091071544006161, 0.15790199254507262, 0.15085087459552723, -0.02225391482358071, 0.6703585309152064, 0.3649503466329412, 0.5215081840786845, 0.3707937030514669, 0.45487099766428374, 0.23795596286838114, 0.39032447186088665, 0.21720829127783248, 0.1107027723992632, -0.23987494035426957, -0.3049175339096541, -0.34381454945766887, -0.725728825398108, -0.5012442019106974, -0.3303479027158926, -0.7558514160049116, -0.5127295512764738, -0.1310920527109063, -0.2970456626949454, 0.16247441314760466, 0.34145534327563976, 0.2218403791863556, -0.03874454803350893, -0.2851368054727088, -0.32055019165135346, -0.2452453938243975, -0.37190876780412824, -0.11292676498503695, 0.003528388616178373, -0.025874340941207875, 0.3250532304382103, 0.563601975240507, 0.15347704890685168, -0.08734678836030903, 0.3091937970128178, 0.15058003538920942, -0.14006112162471065, -0.17569862831714111, -0.5281560696080367, -0.50713116967681, -0.7267927501045486, -0.2219693167134001, -0.038981907852436055, -0.541337746787456, -0.11409661759880421, -0.24264094128349173, -0.46094208031172246, 0.031037594723536045, -0.23478323648444602, -0.03736237131797345, 0.2996125232961857, 0.2874130908131423, -0.08802305727307559, -0.3216819588009474, 0.18778469855061644, -0.2940343613554015, 0.3071615098605807, 0.38291206159799196, -0.15280290142979666, 0.2983225828246435, 0.5875503556533904, 0.2516021342601342, 0.09037371794701894, 0.21051118521465426, -0.15783251103382054, -0.04445907050600928, -0.5007163321707412, -0.3455843485588917, -0.12250444648023724, -0.32070562751141246, -0.013905795143126624, -0.3170550389722305, 0.09830864240347763, -0.4963090114003277, -0.3550188053277002, -0.26062306317126055, -0.1566486954364476, 0.08556704517221494, -0.2071047133795818, 0.0829096354481101, -0.04293720783208072, -0.1373860619415097, 0.21545454084219715, -0.2756510959668332, 0.22834050035944564, 0.18767386842591569, 0.04078545263337569, 0.13086831619800895, 0.18778165985671785, 0.357380398261191, -0.30308203269549006, -0.20810304987298486, -0.25802103158882606, 0.0234751416695202, -0.23421631506408302, -0.26344350429233826, -0.6457332696985445, -0.48139319085868026, -0.2725247804824815, -0.24867140588080536, -0.36694319669054054, -0.3745482177913225, -0.01612885043924194, -0.0541070784466556, -0.13976193215921118, -0.07018543172085183, -0.0869050704973387, -0.04495051691144874, 0.26145888847008847, 0.07164821660006117, -0.40790132309384386, 0.01744261574313051, 0.15919547691727076, 0.6516076806742068, -0.04985603467461502, 0.38687719889254524, -0.25529360721962324, 0.00659240856311576, 0.02295461338262635, -0.633715214311345, 0.049176592135506556, 0.37021645642021084, -0.07130863596575901, -0.14316258632980147, -0.5932542452391991, -0.5979540603205441, -0.005440694278816574, -0.33161652544843434, -0.10625737567289406, -0.09296672567685205, -0.092891906634089, -0.012048728871161669, 0.023527984311447155, -0.33774095914827695, 0.04299254052528467, -0.22770682478587634, 0.2579904410272876, 0.08774208422768089, -0.25940056162032005, 0.1203087074549352, 0.29399293923568454, 0.22827080668632915, 0.3383086972881463, 0.18640521583068564, 0.3302719557965538, -0.29024430857285627, -0.2222354682397641, -0.17585886211506124, -0.07356007622263956, 0.08048303370242182, -0.08848784447386027, 0.11388630006674341, -0.17119462358725013, -0.17952499161974164, -0.18725310782912533, -0.18294825134901552, -0.3702476729526539, -0.11378579896342039, -0.010479717480701678, 0.10988682575762393, -0.20841253739857402, 0.26881529330770626, 0.2628113233983433, -0.3152664390965868, 0.12113751543863548, -0.04841613787345273, -0.14520559064500313, 0.08344526235257704, 0.3193539069357247, 0.026604056277583565, -0.16438891502913586, -0.15226208470549787, -0.22515002052511618, 0.18823809242635098, 0.4006219175276663, -0.10846959140406022, -0.2472412483516924, 0.3281732057357568, 0.40688460893060885, 0.6466312207591433, 0.423488935699792, 0.14654663085593297, 0.5795976964934556, 0.3229065349320773, 0.004746133504547108, 0.0711623931262647, 0.436837257799554, 0.31500087706392194, 0.18433790872764252, 0.19742050254885105, 0.16194880608417953, 0.007140434560556205, 0.13522135871931423, 0.018922170568253, -0.04079181965387128, 0.10641204026417582, 0.07285019981303863, -0.11266453430478271, 0.5713826148116997, 0.35214001205644324, -0.29700481676520674, 0.26136149970735406, -0.023497085424919302, -0.37970883017760804, 0.15143521374930347, 0.14044344148676433, -0.07570490462304218, 0.1731893071667718, 0.09953348977049957, 0.26802117561586863, 0.1241886525777974, -0.15594507201367633, 0.18141840470432538, 0.05785143512307072, 0.14836568501158132, 0.013208635229074681, 0.22222274791867552, 0.33577801454914674, 0.28215033156225533, 0.2298397017270954, 0.2209284636591129, 0.15740643853663766, -0.2248215200640583, 0.15515522221397704, 0.15406921978520322, 0.5420987906391765, 0.34403960529017935, -0.14625213573804585, 0.38734046839043873, 0.5197368582661891, 0.21452636485381965, -0.38060051077258467, 0.11667769517804928, 0.02431713713022194, -0.03498522976385394, 0.3113745668517891, -0.0765001377650662, 0.07284811060842242, 0.049285738804778954, 0.46861538837839567, -0.0521916396687664, 0.4706030161680768, 0.23405027912203558, 0.4821424334381143, 0.23372845624403554, 0.12010118891292249, 0.08396300440906357, 0.2571563014066063, -0.16629124812831636, 0.27943832567675114, -0.07923123409154165, 0.1902901839802457, 0.26156116819387215, 0.13203699669052726, 0.3147769391003341, 0.14305880366264717, -0.14458686139330876, -0.37850428392707786, -0.004854688142315661, -0.26170148770451446, 0.003034172976071174, -0.10777862465709682, 0.10126325684474076, -0.040297282611317466, -0.09679932352291293, -0.007106901639013049, 0.09385841635601778, 0.4528660062350632, -0.40488666258950845, 0.009595221648069948, -0.07760043751940382, 0.47580587977836514, 0.5359586331763438, 0.5416654539381123, 0.4240440995525575, -0.13628690641801552, -0.0456692864774183, -0.12365002057310999, 0.12265601509357235, -0.22473704857063845, 0.2012277123686805, 0.10947200428528149, 0.34092127682250895, 0.08650120603940901, 0.07596267403451959, -0.17587206162907157, -0.30881105825284333, -0.46608661295904175, -0.1173605296083749, -0.14228298479554594, -0.1363238785568041, -0.4222767673331638, -0.1492273309060451, 0.11395644733548572, -0.1011890297648607, 0.11512944412846847, -0.18553748027447498, 0.02251228897538864, 0.1977329639393679, 0.1724091026310536, 0.2026461448232446, 0.2664118457996807, 0.38236269234230313, 0.27254197610603387, -0.12753015778923413, 0.038349571534813345, -0.2642711190295527, 0.06880877682453278, -0.023674974448605807, -0.010094788477356998, -0.0921169987989554, 0.33921786181819624, 0.12761361168137472, -0.1619410762389525, -0.6034120555714958, -0.19483812260705918, -0.1671520185964579, -0.31734315087201737, -0.39132492256412643, -0.5868084732620704, -0.3309579567595733, 0.21787035304615254, -0.02951830424321511, -0.2819829515751785, 0.047032197987314214, 0.3926909648178114, 0.38698073255294285, 0.5477451052194773, 0.4759437187550915, 0.26621423779819714, 0.09191933716557682, -0.13835240819047231, 0.03224179538789168, -0.12049707683086684, -0.2709591114998552, 0.25312047747998845, 0.28705957967705625, 0.0965960256417602, 0.34078338940545694, 0.06721120446685722, 0.41483034006796876, -0.2898198468135458, 0.012959587764151896, -0.4245292419826773, -0.3478100591602762, -0.5150450532616127, -0.6470721870891984, -0.6754852951987693, -0.5697696470043956, -0.5026180348073194, -0.38112530520271004, -0.3872317438682864, 0.20235504001004465, 0.17028462249742252, 0.13046645120524875, 0.3656677641403742, 0.3166260054908228, 0.21303447613606838, 0.25733620674314506, -0.2429823714869316, -0.2970678274840056, 0.27845232155086436, 0.0608805685082524, -0.1434889465541099, 0.20403916460885402, 0.4552377897954929, 0.16011024318917075, -0.004351511583868471, -0.019292457984511735, 0.3953957640003762, -0.24218698335591687, -0.4092810423713681, -0.42874303505228095, -0.4759657755082211, -0.5391751193566705, -0.8461389943326957, -0.6529220831084742, -0.5381547775832048, -0.26339120640635055, -0.5837467862719934, -0.21554597614953974, -0.6050409730812646, -0.18781137695463151, -0.050515752506774654, 0.510137666295467, -0.09123887950943191, 0.18816585453601273, -0.08890846389078677, -0.15377842482072335, 0.13227325331031214, -0.22888238319927165, -0.04366503807339961, 0.3538148663376047, 0.4618189365681003, 0.5431660126533902, 0.4555779445860359, 0.27840142485730784, 0.03625985225709212, -0.3185043333496546, -0.15031616902878475, -0.4516554295100256, -0.26520438114519795, -0.41921665363777877, 0.06878893469637463, -0.4855466386222058, -0.3689098110493284, -0.48838758456428266, -0.501283788778743, 0.07731772238986839, 0.19505412877596498, 0.4829282020038348, -0.006214808071585073, 0.24599970296776283, -0.14599428163223765, -0.08239204563224284, -0.05401457249378684, -0.16616307315951792, 0.1547949807201846, -0.06893675540576188, 0.17722525974312767, -0.08156917568232129, 0.01641087136301429, -0.047490598431970406, 0.0693130271335995, 0.36604624949327064, -0.2529121593816667, 0.07976387033048411, -0.02023483625606734, -0.15485832867055765, 0.032266365688114286, 0.09507783531705033, -0.2757636847765738, -0.3902712712993916, -0.3750880293577945, 0.20982171056579854, 0.08206047494574367, -0.0434182194579252, 0.3284413459387942, 0.32358571054905794, 0.43189188518264054, -0.2046101811218645, 0.21076700148253172, -0.12212035858140956, 0.30809756806698063, 0.0884627250000703, 0.050000406121147534, 0.17265918346243236, -0.10879236039879336, 0.10674202158823265, 0.16016139305610064, 0.021129060477954053, 0.24827546491852862, 0.21058320082356313, -0.2981901361670828, 0.24894281721491915, -0.15724414648435114, -0.1513296725065762, -0.1067187072193363, 0.2753155868894183, -0.11798560083727559, -0.18202586955382935, -0.0008746748609492754, -0.1883183924022965, -0.05923139816671997, -0.2664149192089291, 0.033614536434807274, 0.10737546555377558, -0.2024310418677066, -0.037953341223291914, 0.17618903680679002, 0.031283489029381384, -0.2325774104146675, 0.07362557790167273, -0.301651091468389, -0.25955904836230914, -0.14448089254356503, -0.17896278469662777, -0.1656575522409917, 0.2844891912094722, -0.037861284139407266, -0.23351452918406873, -0.3082332283146099, -0.2710666029318918, -0.24438965603558188, -0.3570945581277313, 0.023025517894309035, 0.0759798777826248, -0.3194157102002156, 0.05890866163875528, 0.20274558561849218, -0.02870760117896429, -0.2151323871505549, 0.1804515270788628, -0.11920793393843092, 0.20266334924129295, 0.257948125082755, 0.2642072050033948, -0.16420970736944748, -0.22296894927105373, 0.2140523142534132, -0.09354505985338374, -0.17378972941935905, 0.24481870463688382, -0.036040252657440264, 0.31323909530954064, -0.07964132322777817, 0.01866887036573156, 0.27782213925915167, 0.2972712362821859, 0.025656129724804612, 0.2220632140969611, 0.04783578361684427, -0.08878878483717598, 0.1608561062713613, -0.2187210477798131, -0.020391966196034558, 0.19974078165891215, 0.3303444911849403, -0.23375521097388333, -0.09300822251129265, -0.1515679109648321, 0.10091772156035926, -0.16490679326569013, 0.27152596752316527, 0.2224884309514843, 0.09849550481662883, -0.30436379932270957, 0.2209006630640281, 0.110167884477398, -0.21987805555910317, 0.1455062719151773, -0.06270487756653287, 0.08186281357622488, 0.23517596183142486, 0.2111166405334628, -0.3274454149756768, -0.19241481600250462, 0.2512537198409358, -0.0712850849761712, -0.2143446178559033, -0.20926137375392354, 0.09201921272623659, -0.31314671089760404, -0.269406449974091, -0.20347717240359406, 0.047650252439323915, 0.05219746137595871, -0.3026577257198295, -0.22323882704661818, -0.2628559780644728, -0.0568544509167187, -0.05469801297865273, -0.3058238050152612, -0.13423380444465902, 0.01997859331758295, 0.1468668874147257, -0.17277346726220089, 0.16254131384247922, 0.12271424807608994, 0.16978347356699042, -0.19407669607074687, 0.26548641359495995, -0.2744107981157154, 0.2924278712808327, 0.07025522257555, -0.1474124047213932, 0.06743553477352815, 0.012732517221762885, -0.3359207635647494, -0.24374553312258956, -0.16740772490232753, 0.14834664131927133, -0.1454786181094477, 0.15910362691962943, 0.06483889441588231, 0.019936450112551907, 0.057209582026560735, -0.009477407672173588, -0.31872503847852274, -0.24960669650457362, -0.3182582184584781, -0.3150102328748445, 0.053758974843476415, -0.12741323894933906], [0.22815651329069897, -0.1170231540825631, 0.2765982154939197, 0.1427335439633323, -0.05905077179154921, 0.2778261298463427, -0.16981577555178182, 0.12308583483640255, -0.08744782942809569, -0.12309496833211374, -0.33871561970377323, 0.19523187993431418, 0.1923432304097676, 0.19335062161321453, 0.1398800277990375, -0.2725194046398634, -0.3555606186409265, -0.012185027374923229, -0.28051862275730155, 0.06105475660209497, -0.39831522560942934, -0.11822501484548512, 0.19571089398099484, 0.055805450928649795, -0.13479150903476636, -0.34967433499567, -0.10362968614516352, -0.22779001503243823, -0.12866837629503688, -0.21550467860553016, -0.29701891927423346, -0.17611096067822357, -0.31244016223383825, 0.19374337621761914, 0.137366742298437, 0.2808994901629428, 0.17138994902521545, 0.052815780562014615, -0.25628025353119605, 0.257890835519898, -0.24129206780716086, -0.017970450419146952, -0.1633993738751923, -0.04339093857341376, -0.280116233297859, 0.2703900832195468, 0.24872655691729767, -0.33794046514535114, -0.22866566845468855, -0.06162110069525635, 0.24825632155212432, 0.1472417647534941, 0.012275773487352152, 0.2527366437160981, -0.3208390831473928, -0.29751013818141736, 0.3156365594771853, 0.3062156473887947, -0.33232508705473307, -0.17890039923632867, -0.334440666288814, -0.162858194326468, 0.15352437256698853, 0.34216758532524333, -0.00533217326262847, 0.0392244785378361, 0.15718014957099607, -0.2318806239627698, -0.2621705238395579, 0.13139659628889222, 0.06368945331446887, -0.16610041305181578, 0.11616617333233387, -0.08041602765081254, 0.19522051974031399, 0.011862785458757765, 0.157537387408768, -0.31288627134138636, -0.07564244126767251, 0.23528009598456717, -0.2254859796129186, -0.32160737515532317, 0.0999064611520305, 0.27138232116462657, 0.1925471374569553, -0.0046634653177387575, 0.22375902299363426, 0.20870472632038828, 0.19035830863447964, -0.10745759933126542, -0.29356624649936236, 0.015693005221940896, 0.2934832800382347, 0.2117448668632894, 0.07654010849071052, 0.1019331718084314, 0.3703552987005931, 0.02060677088759427, 0.07857724655506916, 0.12877616994971955, -0.2642232982660028, 0.31502937033165546, -0.047157229109240285, -0.2397993293059519, 0.14847616841328504, -0.27678370502515276, -0.004038835499772091, -0.14366711849160654, -0.15979512633139337, -0.1551301843128581, 0.2040946457600813, -0.04564701420877526, 0.27388741654279447, 0.07219936820214973, 0.2117631628951443, 0.0177920627398396, 0.15581967044468123, 0.2731969452257965, 0.06292269619542204, 0.3271123042987116, 0.07857043521161751, 0.3408036727160466, 0.3263404264239216, -0.13733425533001378, 0.25856840300358996, 0.36900990450734716, 0.48955638068995, -0.02260973497118747, 0.25299834218415457, 0.3576946158241684, 0.09002784076006445, 0.3018453516849734, 0.3919228962279665, 0.08124239521790558, 0.4064776406251073, -0.25918239175730107, 0.019966197020550393, -0.15160873706895991, 0.2298999717863972, 0.056009941809283925, -0.24037887226636784, -0.33520612515211445, -0.24908802822552809, 0.2806109424776401, -0.16028750932213395, -0.2460443680031415, 0.044891734511306805, 0.21307978254946888, 0.04792164515869205, -0.10303493367674448, -0.08083655341250898, 0.20427336055883238, 0.05098841151805329, -0.0478192553087749, 0.5445806745761612, 0.22539014269008256, 0.5006437003155667, 0.011695120361417396, 0.24776561375779424, 0.4551281854042557, 0.43100751670400195, 0.46097153336313124, -0.10861230407199131, 0.2118444248491975, 0.2836171366034621, 0.08920910914388888, -0.24296337995635225, -0.23730073935695967, 0.2354576168314403, -0.1564611775546573, 0.2907272832353698, 0.08362994164806342, -0.353489901660314, -0.20027935367347272, -0.12664166404599547, 0.2868056174950108, -0.25724731465505385, -0.2906304969658906, -0.3220431866491041, -0.04536059133756004, 0.050342653570784754, -0.19525433357025965, 0.33334922869698047, 0.6273846064216084, 0.5820562502731867, 0.25433190766666985, 0.3116600911011603, 0.5356521194745897, 0.4386281148916317, -0.08859629993316298, 0.06777393735561335, 0.03693325967793469, 0.1950950677922372, -0.3208862720467867, 0.22316336581429483, 0.3092627556241411, -0.15169189105815506, -0.24567430625031225, 0.17872154075884855, 0.05946672522326632, 0.06358292632562798, 0.08010215120523721, 0.18757733260416817, -0.1758524695819654, -0.3140947516598709, -0.16450315338661084, -0.1910418507142324, -0.1737467371307981, -0.2561061515802465, -0.3346618913908518, 0.2536039095175777, 0.21352484666827998, 0.26138610592694117, 0.4911814106263497, 0.049243571004287674, 0.39998118874916205, 0.3625085615132874, 0.1701659355176262, 0.23786343722597947, -0.23436890384054357, 0.010877094383743872, -0.08128614896871592, 0.13585595259960276, 0.278141624275264, 0.09950211886750115, -0.05253970184620492, -0.311277296213285, -0.43789923067408726, -0.29090001552804656, -0.1751015023196539, 0.08649791573825362, -0.052747088945020774, -0.05427378697745103, -0.11038112552396588, 0.24210017206782442, -0.29785107475949846, -0.5649324009256779, -0.4922983981116257, -0.2343759426727315, 0.11473578738554129, 0.7851023805934316, 0.09950130017506016, -0.03590936813205527, 0.2143301546828102, 0.08182107315126615, 0.026862221628861697, 0.11073104438773952, -0.03348580077679997, 0.22419891510840514, -0.034680292967522064, -0.2157458698783271, 0.057265298507512684, 0.20982964337665455, -0.05012856611748828, 0.008643810987348347, -0.3287811717826652, 0.17383769746636407, -0.414842748141745, 0.0063351730720266584, 0.08614941444340896, 0.21837841160248425, 0.15119833910498187, 0.13513596008955778, -0.30348393008353314, -0.3160343618676922, -0.6534902483732463, -0.3967022036391915, 0.10280523146234886, 0.0827781049808275, 0.24815806977489008, 0.5723889948796721, 0.2717873683796258, 0.3735063266213603, 0.11066602373468654, 0.22182106586584716, 0.11586433105765538, 0.08424512993997003, 0.10467467859162129, -0.20324290217969523, -0.2037313903440851, 0.005371554407512199, 0.0821185895801143, 0.23600329818618582, -0.15777128247436256, -0.17616796954109906, -0.32722515712153494, -0.1706327021820739, 0.027255562863527087, -0.1467575332784801, -0.07881597890635753, -0.30771221004519106, 0.20407480752384732, -0.4619943638867444, -0.20585352363141626, -0.14755141362065508, -0.16747584722055855, 0.3159671004716243, 0.26837480443106443, 0.11758088959870802, 0.48794171592471836, 0.4839040032267846, 0.13697314743712266, 0.022132056207143435, 0.11946733752361512, 0.13976138150279113, -0.014775582404668617, 0.30986627311645654, -0.22680822640681167, 0.30611100372221645, 0.23602192895991855, -0.05156329448252982, -0.5138485439077618, -0.10209858713876374, -0.3258347467156754, -0.1455301543181724, -0.06854920123494553, 0.4357078611162422, 0.407662316434259, 0.11185145771471545, 0.170247951553288, -0.05234278178864234, 0.04760799195543698, -0.4953840186578339, -0.24003296052644776, 0.16209582452748936, 0.19860675701755054, 0.3497902497405627, 0.33410881680165044, 0.311657193070053, 0.47559278340175465, 0.21607263754319256, -0.05137378153949974, -0.13903719651502758, 0.1695692965515699, 0.046341934366219785, 0.2106686248419998, 0.24504809875810804, 0.14826296904733546, -0.3155300138699416, -0.20031844853620576, 0.23645236303600697, 0.1451450274947123, 0.11781834991068899, -0.11701410903909788, 0.3267510526068898, 0.10806848416048483, 0.3128156288025713, 0.4011215219688075, 0.07605267973362914, -0.22891484261589978, -0.13735292051743803, -0.7313801626354655, -0.7351301820971547, -0.07885623593509725, 0.09801087522126391, 0.059019282646613214, 0.5344745426850476, -0.02250228517072294, -0.07282564662727056, -0.38921391886679424, -0.29283646545782266, 0.1548948803074759, -0.18776820272818645, 0.13126192058479452, 0.28453919601644706, -0.19835104738518086, -0.29622484323724846, -0.5122474162034778, -0.06500087728088423, -0.2126668494672281, 0.12844796707412273, -0.12065503736981634, 0.19183015363903377, 0.2353662321148277, -0.06632403609591771, 0.3494514823878919, 0.21424435389117283, -0.0796438472931777, -0.6974946997718061, -0.6058284896780478, -0.6586613053973496, -0.4905512663619031, -0.1784545075210252, -0.0839003530688833, -0.1644803280680576, -0.10530891268177271, -0.06676565355491008, -0.2927513165664121, -0.1148703983402159, 0.02325292886346754, 0.3102801337986378, 0.021873679516643117, 0.1454669184555838, 0.24767255709760289, 0.15604282191443244, -0.33487992885670725, -0.31848362433016336, -0.2555794494578835, -0.23519466812476647, 0.14259296110360617, 0.10587960701203461, 0.16114173937546425, 0.02876462729565037, 0.14718634754209658, -0.16013445900635132, 0.1811082948316247, -0.5214965511090858, -0.42090707532920024, -0.4092605102085741, -0.4448561876992526, -0.47070739160456515, -0.5874609620568167, -0.20659028878032382, 0.2693684247502625, -0.07096988885005379, 0.07740180964263323, 0.33630721007121595, 0.05859918944394818, 0.3404524228002737, -0.274165285900334, 0.2010547172946473, 0.05002144648127277, 0.18707466269875178, -0.020724070375757693, 0.23496095532081857, -0.3447620700952735, 0.13127783876659418, -0.3691928462776835, -0.5181995547960339, -0.005014714076174233, -0.19394990178564464, 0.02243638844690001, 0.2457253321349732, 0.31035143302795615, 0.07297205467206043, -0.26690413290522486, 0.060758417032421706, -0.028858321521699187, -0.061146331246467414, 0.04238673576141295, 0.020485065736371114, 0.08254676237342762, 0.09791211908833299, 0.33810471648546647, 0.24518558556374578, -0.15336700174797777, 0.2624562126119344, 0.14702559242505134, -0.20127354399750055, -0.07946390129747909, -0.1531303305178314, -0.09678976964064044, 0.14143808542041533, -0.19371460315108846, -0.3817586093482114, -0.24627878063507522, -0.6475587269608595, -0.0411399198005276, -0.2748925761668549, -0.011785778885876334, 0.19579523928148157, 0.0024523890129339804, 0.057785306806887725, 0.07387657752496105, -0.05548281209142028, 0.15383402864801998, -0.15431350239892816, -0.32708764718660316, -0.08955671865600187, 0.07808240304929721, 0.23800605719842896, 0.15619776195636842, 0.35688644689316307, -0.2910959309208057, 0.23613158138398158, -0.22972962584709364, 0.1402187354258828, -0.3343965137196536, -0.009308936833101848, -0.11032716594486135, 0.26295583599779543, -0.09426297515583082, 0.12853442030262938, 0.18602561179316404, -0.05090381400095182, -0.2784482330250022, 0.051333977805934045, -0.05680977142206216, 0.42779780941135026, -0.1743624859576776, -0.012650483703522246, -0.13023896693526912, 0.11439677671026978, -0.24184432108919435, -0.1557020482011188, -0.17313824697068111, -0.1974602844305452, -0.042162606601351564, -0.11259463192248427, 0.1623204944026558, 0.22035507693287448, 0.025238186199756568, 0.3325451079803931, 0.10631567339535862, 0.29188541511397326, 0.01148640606353334, -0.09255004149924013, 0.18711268679066745, -0.3848854408193428, -0.16834859407638209, 0.08183894401150395, -0.2329240898386569, -0.20116228196466235, -0.2100257207150341, 0.07673161196848731, -0.1579539546214601, -0.05981790762173207, -0.27741487588674557, 0.07564067179605437, -0.06941133334931243, 0.03573204027632845, 0.3040382066348244, 0.05641499736415258, 0.2429229086426271, -0.09312163424373013, -0.1646399919018964, -0.052235941997806144, 0.206973359059385, 0.35104079396545484, 0.03762115001465004, 0.19482570037703859, -0.10047782895429119, -0.28564797772774364, -0.13437450773058246, -0.15530181203644264, 0.025117631572817208, 0.017480220214905227, -0.25257006078366273, -0.430854468064585, -0.10898684586676498, -0.39630213948897636, 0.26124297829569365, -0.23776622533442918, -0.3025567313109506, 0.09259449228359963, 0.020162266079214855, -0.3261489509241221, 0.18359892958684645, 0.32014437735220197, 0.3375298955827939, 0.4148065435960571, 0.2021918504391063, 0.11578903422923316, 0.022520823918957045, -0.07998263039733805, 0.09197064303991186, -0.11015363861769295, 0.01570898442978298, -0.21029553988983743, 0.08778720401501644, 0.2188250290714202, 0.1479952728280824, 0.2390320796257047, -0.1683953533408418, -0.039250668900106395, 0.006595990964187381, -0.4046397305753244, -0.24850458372136344, -0.031181590850530773, -0.3159559639565257, -0.0864342243231995, -0.2495679551031307, -0.04685156093335209, -0.29221637250132304, 0.005310791958757178, 0.06457364328555566, 0.39663487047796975, 0.34379287437128053, -0.04308299199179494, 0.36122892170448523, 0.5693470580079079, -0.09691790252919745, 0.29333834719079477, -0.04407722929306832, -0.2815335473326753, -0.21126953378301927, -0.29745444405084775, 0.3193248316331252, -0.020747336591730448, -0.03239690483153432, -0.14986996652139517, 0.17514147041261405, -0.12631079976257667, -0.08567434677639646, 0.20123388971823253, 0.10633676058789163, -0.23645249067476848, 0.24125215227474936, -0.01185193006335833, -0.1006482251349418, 0.1247568610637901, 0.26955863917414435, -0.024748560972690344, 0.0671774716334708, 0.23795984542483195, -0.07878491097531955, 0.46174117895454037, -0.0331513274194307, -0.14161154292155953, -0.06194253133253032, -0.15432913957644467, -0.045579795572088945, 0.07083423108315601, -0.015233829033848609, 0.16192911740854551, 0.18636387672610877, 0.024210302762809388, -0.010783401973348983, 0.09726080158208839, -0.24718650332834524, -0.1654496030876284, -0.1964057078662379, 0.21781569955361016, 0.30585153458006253, -0.3500875314288148, -0.15794198189669492, 0.04557385439303835, -0.11193477987373712, -0.2586084851930219, -0.2241257608860691, 0.14281903758334752, -0.18493290510752772, 0.058820640152097495, -0.0029665528142205693, -0.22171484874166617, 0.3221626420783251, -0.08383553547700827, -0.14147547700545302, 0.2627289221484458, 0.16175338207897055, 0.154316428472439, -0.10045260612445128, 0.2864549228889092, -0.3022919719572799, -0.12157919811488968, -0.16430731684249447, 0.1698880871253755, -0.3346915867956545, -0.23473762671570453, 0.13669676996790847, 0.06859179990868378, 0.09969220094166387, 0.21004664097826942, -0.2974231424068785, -0.3234207311977011, 0.10056835211570435, 0.30036384172631087, 0.26050904175621226, 0.052221539239002024, -0.030296823699329782, -0.2632896699311317, -0.4289965814549756, 0.018283601012872377, 0.22096664519261455, 0.03945804612747112, -0.030164620533301052, 0.29419999075634373, 0.1530809107908953, -0.12278341193043774, 0.036742388705184634, 0.27468420538343075, 0.02588744573786933, -0.12526663328905466, 0.19766795326505626, 0.2637652978797357, 0.2187094649327802, 0.21717423592585927, -0.3025348781673764, 0.1651712754574385, 0.10866161874320414, 0.2331352289418163, -0.10932593944177983, -0.2620531735293393, 0.012361438242874735, -0.20455037536314957, -0.09533852279994139, -0.24786607203494013, -0.04143593156538891, 0.21529307059449376, -0.07264319665619182, -0.14846236577680408, 0.11243404151380244, -0.1278153497941937, -0.1343631739796158, 0.04768120448468616, -0.0983463083814164, -0.28261295850121215, 0.1762863700698606, 0.25774156047230323, -0.1722703663887828, -0.06477843815815426, -0.1667657728903059, 0.16767272108231346, -0.2836373922537636, 0.14123053571458027, -0.28763234709144014, -0.28457117580843866, 0.03581200610038501, 0.0003817487890490256, -0.35784749776177605, 0.24672060160984596, 0.16204134884287386, 0.23480787542884238, 0.13474000745447823, 0.1374451492877351, 0.15985568521640475, 0.02890714633385476, -0.025018970665303224, -0.06289529095205675, 0.3482883553092148, -0.03356657132990548, 0.26415147687743895, -0.179151103957135, 0.20426759882432433, -0.18760591714745847, -0.011772532790631507, -0.2033303634215893, 0.035683686514098145, 0.334035280365665, -0.14777665557189723, 0.023047671328474795, -0.17006718196329898, 0.06715231348597028, 0.09269713735420021, -0.029652280614983373, 0.10555354540121531, 0.0711735263544035, -0.2697564390371593, 0.04315705165023226, 0.21349642104627886, -0.30950546407490964, 0.06306420938662166, -0.1342743227162105, -0.2515903010636539, -0.08818690358624715, -0.28190691821356967, -0.2740104100191905, 0.26568395258283295, 0.2573157901249129, -0.32787549755071765, -0.26701943110846044, -0.07485954010697032, 0.2548895194653503, -0.24612281457017424, 0.1459606342704418, -0.33410882587803814, 0.20261976846531637, 0.20975852545420792, 0.3094892304059552, 0.20904683586391293, -0.14536507160973122, 0.18756537908010795, -0.12326927067158835, 0.24193728092765454, 0.04686018531542013, -0.15385587537007908, 0.3043537194520801, -0.25559303881144535, 0.033238374616175625, 0.2712584492443455, 0.1425051995604153, -0.3125464026618598, 0.29796700092232986, 0.0632884249280628, 0.2068214228790901, 0.25065858762891613, 0.20522756813690746, -0.005795768268052115, 0.1017199800565946, -0.15466086739412369, 0.21322424062325274, 0.0956090149714085, -0.3307616864844953, -0.11318812767983549], [-0.06727089700737261, -0.11997687561917145, -0.08541115506204316, 0.07242256436492313, 0.05625583200268261, 0.1102920073107495, 0.14102622814189128, 0.041306491373982776, -0.0665896344675575, 0.2678550998300917, 0.16498144303235168, -0.28284770917153307, -0.3440884333296671, 0.1744442825792441, 0.20155454733117803, 0.18971571211786942, 0.2686574201836406, -0.0817968183116573, 0.05735780435171553, 0.2695702607952063, 0.1001697302140883, 0.04131119519256777, 0.08143159072490615, -0.06490156033502442, -0.025833124096823666, -0.2783786463272672, -0.05995726310987923, -0.06010973644787655, -0.1282863706391015, 0.1388480402994871, 0.2223707417141857, 0.2014426373605357, 0.19304371169066636, -0.13299190141163067, -0.34486743093193817, -0.18651900611861577, -0.07027176596291185, 0.03485351992778698, -0.030890046216309395, -0.21773151669273041, -0.33448585285990223, -0.33179443919578927, 0.1889836231757675, 0.034684685748033475, 0.12398060643064612, 0.19612803180490293, -0.006935040752118724, 0.030256174172979773, 0.21935820735677333, -0.2607125368272837, -0.12997707575539882, -0.16056795512307492, 0.28270818387140506, -0.3178667771777818, -0.26313925097006424, -0.1396321699836958, 0.2944104223185079, 0.15024684820736783, -0.2707410042137501, -0.2920678996247855, 0.24361892124739432, -0.01861433285492684, -0.19637903627153538, 0.19649752141353974, -0.1186648939966859, 0.09547569356865171, -0.327442115773171, -0.22603537972108131, 0.29597213387723564, -0.34297570599533256, -0.35002688617526, 0.20464024374060055, -0.10794769090797661, 0.1422768625483177, -0.22880255484237733, -0.07915290617231399, -0.07311225775529798, 0.2858334785431547, 0.0006879800795335622, -0.17798038127006702, 0.13319283656559558, 0.06241393255324451, -0.14210001469562444, -0.05648508544823083, -0.2759507191906619, 0.034792626364891555, 0.04981600925453877, 0.07720519061912473, 0.24164388939217207, 0.24126467653391998, 0.2637286278056913, -0.15464054436046334, 0.07273410783300267, 0.19107353534495486, -0.2067339340898149, -0.14918011030239617, 0.11296129492264616, -0.05360512368576439, -0.07042382368546628, -0.38200130598099136, 0.1725415772518226, -0.27751350298893357, -0.26878118519078276, -0.16126841272255193, 0.13245799643741563, 0.355568945885503, -0.2161330301072247, 0.3100122063896297, 0.2547220682960478, 0.25776860916813793, 0.29250629575761955, -0.28846685806363886, 0.18059161953451275, -0.08216002856759291, 0.26754184413093896, -0.1860497458455515, -0.2939816414983642, -0.20110225784868116, -0.2056687337478927, 0.1072507439851599, -0.025536346444271364, 0.17677482273065126, 0.33436774758372234, 0.1181780144887273, -0.22896494975015125, -0.3560722524389869, -0.014718909321664876, -0.486612551344003, 0.024459015229570932, 0.11858883230572033, -0.2600008189239726, 0.509215512736419, 0.16546631153136984, 0.10114437902058641, -0.1164418289158191, 0.400499814272898, 0.2809883429182695, 0.3236768277727283, -0.16676356640385862, -0.18553891041555054, 0.12670103914007091, -0.06970141958684734, -0.26378121861406434, 0.3081879873785661, -0.11402289161308238, 0.4714574805069325, 0.020015585346113387, 0.36687982425082355, 0.24406145887017014, 0.09079135213330256, 0.24687704381199543, 0.11808771397477531, -0.023968165919554276, -0.6535257758440854, -0.17142121594908866, -0.02107304660655317, -0.2128826122287185, -0.10022389432023644, 0.2542702983209558, 0.29164743546967065, 0.11247405237553292, 0.20729303714549205, 0.1466101641509011, 0.26940796990484017, 0.1720046244948084, 0.18725633634922118, 0.08129470181977877, -0.01820880265588959, 0.2782681357323835, 0.05102936239248356, 0.15064942106728513, 0.2679959303594013, -0.07523372293452979, 0.09184935237902205, 0.4383833047417208, 0.47921405880626294, -0.0975866795443024, 0.3739393204245009, -0.002966068232611724, 0.1382527074671451, -0.18551347469340934, -0.6269543540973159, -0.5869719936739769, -0.39848417976728007, 0.3208857508949733, 0.07863675310582845, 0.6548164694953481, 0.2852317024482833, -0.47856627815001795, 0.15618231106097363, -0.20949752610325686, -0.20011536665715604, -0.04157311557115302, -0.2595394233916326, -0.09100850561743937, -0.2976551270380016, -0.03975602958028801, -0.2771839143957001, -0.2498106660480406, 0.10082788134197568, 0.24471225167561433, 0.2445759040695566, 0.3451930095428404, 0.15890516426671025, 0.3143872667834007, 0.006077933319979442, 0.23209167261565844, 0.012418386259944502, -0.019603608362881372, -0.9581271985602839, -0.5787543918566562, -0.34946396789142087, -0.017397772198624366, 0.4286539377258501, 0.2752132565545121, 0.40412728516482527, -0.43572048943526676, -0.19918067215601445, -0.8312136741884482, -0.04780430173204808, 0.141041926627882, 0.025405306109111736, 0.11899787706581984, 0.039623646943996484, -0.1455981992362906, -0.13253292975452807, 0.09357756517944522, -0.007008480597474722, 0.37376014892700116, 0.008017038092543347, 0.49675735109699787, 0.5448896256403643, 0.20346946911922736, 0.24086316354887224, 0.3536122153376212, -0.0769999624963857, -0.5196790841613266, -0.4188259559729758, -0.7516819223340732, 0.05668970844041445, -0.05608287098682966, 0.37967552528678, -0.016386552387504947, -0.16816158444351553, -0.6180588867281555, -0.3733010904839087, -0.3929659345629153, 0.07756828001186829, -0.1715072042810107, 0.03440372263456557, -0.20059705214414503, 0.3039393046704717, -0.23958889758626378, -0.18314086861184253, -0.42644515532719335, 0.04265493783293552, -0.11269081200428789, 0.10770930807020343, 0.06989096563759664, 0.6098164528038276, 0.209843885527789, 0.27121390839517023, -0.036180515887600066, -0.1366993886202404, -0.133245587234387, -0.21388140100646597, -0.4563704497746503, -0.13866989788585593, -0.07843981657033368, 0.3248676230443786, 0.23569979936228477, -0.12578083784186986, -0.6688875784131524, -0.6979611023920774, -0.5421145205074732, -0.43287889015296394, -0.6210933822719341, -0.016991683978946622, 0.21682366473088008, 0.24265069741308112, -0.21649998519836247, -0.2509211126314665, 0.014358890799114671, -0.4580460329843044, 0.14071556949381211, 0.5015038524179346, 0.504085664449392, 0.19277346751307944, 0.17658234010693416, 0.36231805416665447, -0.29345441261656585, 0.14528247514863404, 0.057055692655311685, -0.03602055914508605, 0.13413695400726966, 0.40618217063862283, 0.3608034014472764, 0.15748214687251522, 0.24853404766582898, -0.127627951011442, -0.7715666946649057, -0.780556994635584, -0.7501696294850028, -0.6528820242198925, -0.5657053804069754, -0.1440747255642917, -0.1409056660729542, -0.20483924009591448, -0.07697675498466348, -0.32139660056443653, -0.022576686906213703, -0.03594952070134902, -0.03616284410424899, -0.1354397673353189, 0.4787695558289438, 0.47783923763207353, -0.045769909170639764, -0.03901559004764492, -0.04735879900138955, -0.471560192526857, -0.02172156560487028, -0.5290756948369181, -0.3133404711593082, 0.21592858350985927, 0.44933742847546776, 0.5214907375009797, 0.43563540464193157, -0.7528933045847397, -0.3311917290969531, -0.9167141116273659, -0.6106660392104216, -0.742653046939952, -0.40354188009800485, -0.3761969965533564, -0.32322178305629856, -0.27553194187804764, -0.15796564832968435, -0.10892132162037828, -0.24031795632099834, -0.31415543057040024, 0.17614271144966495, 0.3881336973965667, -0.050995458710885115, -0.06369186714145801, 0.07213713058187361, -0.04609337929838161, 0.05271083832281415, -0.0837276103009884, -0.5618698931816581, -0.6128159427531833, 0.09756085359296958, 0.4243497826430802, -0.18669836987088656, -0.08206545062437498, 0.013338312170975919, -0.48322191610679466, -0.7558964645576614, -0.7357815536719218, -0.20781518887519634, -0.027270007819542683, -0.21063745998867636, -0.2845327396264197, -0.14099902329175565, -0.056659127130508996, 0.146868335571671, -0.12077978833354165, -0.3669842581587279, -0.17419027869440276, -0.1593440022316138, 0.10158166586556143, 0.2413816717626033, -0.10007027492563932, -0.05840509990179872, -0.21309495403879156, -0.1914145818824552, -0.1160215105273533, -0.2084065568500165, -0.10335887717034295, 0.09240005741082583, 0.31312250109375944, -0.18935243691696924, -0.21343662660346785, -0.3578058887006413, -0.49164391348141595, -0.1481725918606415, -0.21664918898825003, 0.6508669812592176, 0.21163258073810856, 0.27135583198567653, 0.19512004163176355, -0.05126362359668336, 0.25452846188900413, -0.30349179507229307, -0.31128391541080375, -0.0488685708175136, -0.09854437094945905, 0.20086865070184068, 0.063587203995042, 0.09506345072949593, 0.03127258764392368, 0.33885616617536557, 0.10474266653148229, 0.22238479017033522, 0.40097166742034557, -0.30842379461100566, -0.36864403402731954, -0.08681889211416936, 0.24304372745146152, -0.09124845906743152, -0.15220220750230767, 0.4513326482711243, -0.19356060330652736, -0.24805052814298312, -0.6712023976330138, -0.25171877348396837, 0.42077683853487857, 0.4225226740058622, 0.09842589569713944, 0.01462923353819076, -0.22040125547316172, 0.2823185388176854, -0.20563411424382266, -0.4044923151193354, -0.21961476172496924, -0.0055138200255033425, -0.1810982582313958, 0.03847049710920713, 0.1967945719495697, 0.39733333672632204, 0.5869461505095813, 0.04451306782907795, 0.3248265754858138, -0.4114662778267604, -0.34265761275395823, -0.2920426495864033, -0.5440926351191524, -0.48181856534106104, -0.20626206813546272, 0.1859857741459868, -0.5633714729785955, -0.07780505519233477, -0.28676505971378824, -0.07073526238955856, 0.24067789445702692, 0.21098721007967314, -0.014754749868104091, -0.09931589029515112, 0.25584757758393006, 0.10099602767065968, -0.177490674598459, 0.18787091492370603, 0.30150767746888063, -0.06343245314090834, 0.2482176726911524, -0.26401193687479274, 0.16979909535653956, 0.08286176315683134, 0.3795036935239389, 0.2947914914145966, 0.04091860644583653, -0.3400604434118577, -0.365862603971554, -0.0773704936859969, -0.1498960624530379, -0.17328852157892916, -0.08651716997703207, -0.054689657674634504, -0.13102056654236116, -0.5739446308842726, -0.27616972650982946, -0.01081231853753851, -0.041581950799444184, -0.2682938917438614, -0.39811537943478537, -0.20489774536309582, 0.2931386560072564, -0.2462607828562869, 0.1357140535925771, -0.16562280445840954, 0.018507150971933353, 0.1117294285675259, -0.25190831213572046, -0.22840912159354626, 0.39444425970815467, 0.6086361876322806, 0.1726138077791706, 0.29259670603938776, -0.02073721991577195, 0.279533853061711, -0.16886221774633156, 0.03788921873610799, -0.304523604219806, -0.2134778352711303, -0.06705716220200157, 0.2683330024719206, -0.10386375227989074, -0.18690296830679567, -0.11830939119445279, 0.03943810489019385, -0.06343992538089535, -0.07904184357347391, -0.23563732667441076, -0.029934969872019695, -0.05700084806477927, 0.24605649122866724, -0.33165834842594094, 0.19515676461892645, -0.11388130378891426, 0.195445718121105, -0.17526263567127442, -0.24733243290449472, 0.1168734673268626, 0.24966703941751325, 0.15308204817021864, 0.39996556730541816, 0.48203806968305063, 0.17274541049565398, 0.03287735837584373, 0.14694142680004132, -0.2745922546964164, 0.12403877344125389, 0.33626304422946884, 0.22077442493829716, 0.06507828506825977, 0.05777983011024678, -0.0030887740162435047, -0.09126526355569926, -0.06473630630059828, -0.1938705924864055, 0.14110604683051328, -0.033282367856296326, 0.0005754254191306051, 0.26348215645882433, 0.16447222724919397, 0.17076850282481243, -0.2095784600241871, -0.19719920719054762, -0.1779906420045561, -0.1507968210980202, 0.3583754218324367, 0.41859677682160173, 0.29879325232469417, -0.22575348082334215, 0.44842112546721347, -0.3427652955538624, -0.21403579210701104, 0.2568999072317947, -0.2556931330945727, 0.15461477879320784, 0.24999290763897727, 0.43323040952542846, -0.1555818857473423, -0.06714999784742322, -0.25950496465056283, -0.4474194837235964, -0.13588791316560342, -0.2720372561728304, -0.09177858586057702, 0.027987975193904127, -0.07034826160878171, 0.15456260646170183, -0.2986750413854022, 0.35812533343844927, 0.11877144544206954, -0.15152631588545792, 0.27740212069592934, -0.18555063240038924, 0.36471047400077067, 0.2820677811119359, -0.17549736576399255, -0.11771664128126962, 0.03862349698460244, 0.46930996297735916, -0.1854705996059126, 0.1738414199344327, -0.2705756984772486, -0.143500513583855, 0.45232949065976863, 0.34660346543068926, -0.023441148796494428, -0.20033502738939896, -0.4334580778464888, -0.4130040390916637, -0.35497174181215396, -0.04129758744899739, -0.3482140730571682, -0.14239940964546002, 0.21882967984741697, -0.06545517599448858, -0.126491568026764, 0.11588344932412939, -0.0027293825574181436, -0.09093215911069492, 0.3767237916064227, 0.23629760316172654, 0.1391205269425735, -0.14085929488565907, 0.235013669644782, -0.19811420428987092, 0.07291938472645233, -0.16423060220684038, 0.19108266961708137, 0.08753111421632162, -0.035591172507313626, -0.2617008882989764, 0.15199518455808983, 0.0267031105563546, 0.06868828751838166, -0.48454980647345086, -0.07073967401924629, -0.21345614570573462, -0.3318928839690032, 0.20531636131292347, 0.07485194888606758, -0.2824499486101094, 0.17782739553143145, 0.04594234443053691, -0.11428410528748123, -0.25275735594385895, 0.19818622523709145, -0.0764662783721073, 0.18142661571552007, 0.0687140957705493, 0.31854508373905144, -0.10803398064489139, 0.08317510990002125, 0.076650244292302, 0.23444847932346655, -0.2625494831642439, -0.15232557973029187, 0.1014584700288312, 0.2372157586071529, 0.1627056574460416, 0.31004052685888916, 0.3112929297289331, 0.11636039039362947, -0.2806011862933365, -0.3733897933535285, -0.32119813081083615, -0.17284673488329702, -0.22864889795709015, -0.17438271156713403, 0.32466237650112517, 0.04579133844438868, -0.2911437672591286, 0.11488684971170593, 0.029629571810782462, -0.298990673953577, 0.04901091230849647, 0.27088673973507693, 0.2174276847434521, -0.31467364627758554, -0.09606879685039992, 0.1502672688609728, 0.09645731980285392, 0.26623818304296504, 0.1462594665829335, -0.17422741430273486, -0.23930746417410328, 0.006220329982325513, 0.0014039453584303609, 0.1686937993770168, -0.08439870876312021, 0.0959486848935799, 0.07384370378227913, -0.1824365780745068, 0.21236465071753863, -0.2228251381660665, 0.30451278383979774, -0.1939204933536041, 0.1469174350091041, 0.23141329102531116, 0.12279971116607397, -0.332327325878999, -0.06476874456932274, 0.2722424965089344, 0.17500817320139284, -0.29601846590646197, 0.2098038854420217, -0.18698374065565615, 0.18978561869283808, -0.022398795609915447, -0.18799860703049562, 0.1363649851798851, -0.20382373782871369, 0.11795112212025528, -0.019118656584180854, 0.010467329149553676, 0.0989924902836617, 0.06850827451637727, -0.3454435885788036, 0.32182352869966135, -0.18355324289950656, -0.05221540274620095, 0.24660051707991246, 0.3016570383302809, 0.03897638776793433, -0.04730736974220556, 0.0746936588170008, -0.07024816712579174, -0.008388670505565687, 0.09763240764728276, 0.07301762250109967, -0.20375787646896984, 0.18090176095151533, 0.023587091405731786, 0.2919330925874959, -0.14042372943251732, 0.20807982400454114, 0.09459389035689167, -0.043100807848073984, -0.18164632232353095, 0.04545920601299406, -0.2195466606346572, -0.33243550148772405, 0.25060272768144165, 0.11312054072499036, -0.18381259329065588, -0.07425394415079775, -0.2166143726553795, 0.14942152486324048, -0.028035444111765326, -0.12367366819290189, 0.254440567827558, 0.2675945759092403, -0.13516061154675152, 0.10358566953393283, -0.18115856058169572, -0.31222427962406873, 0.1900974721387374, 0.046718380837174056, -0.18311246691850047, 0.08972568510606427, -0.18809220491783551, 0.0871579257139698, 0.13772287163081992, -0.2783275826079762, 0.3067732893059677, 0.13760130941534238, -0.17935714443503809, 0.26182788532739154, -0.26289615215293016, 0.33522500728857585, 0.14584612019195348, 0.28002513580952215, 0.33531895283275226, -0.29160799577487584, -0.0008942000600348776, -0.16639215673779334, 0.13128034053775844, 0.28314870788085766, 0.2422021347853467, 0.33088440318491474, -0.10656436083584686, -0.19190274089437234, 0.2560032104409269, 0.29849051258322745, -0.20260409093580534, 0.23294282249413067, 0.317616278598014, -0.11885721532547397, -0.1490693486314867, -0.25994860501972605, 0.2573885174000501, -0.002738877216507396, 0.18350812624163515, 0.00596494404619996, -0.052636799833796544, 0.02466804456142707, 0.3078553223728988, 0.18860343193401885, 0.08143742161675838, 0.13120002651103518, 0.19707347093555294, 0.3005979627698173, -0.1231641607613431, 0.2962815165086129, -0.11184107848699645, -0.3327709508332689, -0.08468054009035592, 