// Trained NN with pyneural
#define NN_INPUT_NODES 1600
#define NN_HIDDEN_NODES 52
#define NN_OUTPUT_NODES 26

const float NN_HIDDEN_BIAS[NN_HIDDEN_NODES] = {-7.0503079891e-01,6.8530404568e-01,-7.7710223198e-01,-1.7427463531e+00,1.4766327143e+00,-2.7232496738e+00,7.4501657486e-01,-1.6138345003e-02,2.1531905234e-01,2.2163681984e+00,-1.6779889166e-01,9.2644107342e-01,5.5943489075e-01,1.8893826008e-01,7.5975023210e-02,1.6353684664e+00,1.2173613310e+00,-2.2181906700e+00,5.5407088995e-01,1.6230136156e-01,-7.6182055473e-01,1.5136894584e-01,5.1047539711e-01,9.6653497219e-01,-1.3564984798e+00,7.1895873547e-01,-2.6873004436e-01,1.3775569201e+00,1.3333109617e+00,4.4889795780e-01,9.3636399508e-01,-7.6743036509e-02,1.3479728699e+00,1.2807589769e+00,1.3757786751e+00,4.4906634092e-01,5.2205580473e-01,1.7310036421e+00,-6.4633077383e-01,-3.0578902364e-01,3.7623667717e+00,9.9057734013e-02,2.2314686775e+00,-9.8816490173e-01,-1.7248088121e+00,9.1299176216e-01,-1.2888419628e-01,6.6192513704e-01,1.3506045938e-01,2.5960284472e-01,1.5105421543e+00,2.6532074809e-01};
const float NN_HIDDEN_WEIGHTS[NN_HIDDEN_NODES][NN_INPUT_NODES] = {
	{-1.0283078998e-01,-2.1625471115e-01,-1.1166504771e-01,-4.7023326159e-01,-4.6833074093e-01,-2.8148886561e-01,-2.4601827562e-01,2.3759418726e-01,1.0013609380e-01,-2.2875645757e-01,-4.0245002508e-01,-3.3479145169e-01,-5.2795898914e-01,-5.5891466141e-01,-2.6801195741e-01,-2.7926698327e-01,1.0274611413e-01,3.7024202943e-01,4.3411371112e-01,9.7152285278e-02,-1.3831286132e-01,-2.8638215736e-03,-5.4820793867e-01,-3.4600695968e-01,-6.8259745836e-01,-4.6963194013e-01,-1.8403244019e-01,-2.4575747550e-02,-1.0288644582e-01,-3.0398887396e-01,-2.3800152540e-01,-1.6196796671e-02,-3.0716693029e-02,4.8001285642e-02,1.1800567061e-01,-3.0906325579e-01,-8.9489944279e-02,-1.6332706809e-01,-1.0460209846e-01,-5.9276185930e-02,-7.8579396009e-02,-8.7893128395e-02,-1.4498803020e-01,-2.9250803590e-01,-2.1416327357e-01,-2.7112528682e-01,1.0596061498e-01,1.6393364966e-01,4.9161352217e-02,-1.9810406864e-01,-4.7010463476e-01,-3.5406100750e-01,-2.6822826266e-01,-3.9784786105e-01,-2.6929956675e-01,-4.3810045719e-01,-2.8724104166e-01,-6.5375022590e-02,4.3891078234e-01,4.7179487348e-01,3.7519478798e-01,-2.5788854808e-02,-1.2716136873e-01,-2.0431788266e-01,-2.0164254308e-01,-2.9301190376e-01,-6.6528424621e-02,1.7961779609e-02,-6.1491128057e-02,-1.7545931041e-01,8.0858439207e-02,1.7055732012e-01,-2.2821757011e-03,-7.3990523815e-02,-1.5667048097e-01,-2.9048046470e-01,-1.6275893152e-01,-1.0330939293e-01,-2.2014470398e-01,5.1716454327e-02,-1.1527801305e-01,-8.1546403468e-02,-2.1508552134e-01,-8.1614136696e-02,2.0722159743e-01,1.3011454046e-01,2.2064435482e-01,1.4737987518e-01,-9.3869403005e-02,-1.9118029624e-02,-1.5012052655e-01,-1.1487473547e-01,-5.3996212780e-02,-2.3754303157e-01,-2.7377614379e-01,-1.9162374735e-01,-1.8485614657e-01,-1.4764428139e-01,1.4027561061e-02,2.6154434681e-01,3.0069759488e-01,2.1172787249e-01,1.7876149714e-01,8.5553064942e-02,-5.3258549422e-02,1.0048382729e-01,-4.3611004949e-02,2.0850510895e-01,-4.9401391298e-02,-3.0349713564e-01,2.5665847585e-02,1.5112732351e-01,8.9757956564e-02,-1.3216657937e-01,2.2562164068e-01,5.9452578425e-02,-3.6691507697e-01,-2.0734390616e-01,-6.5432757139e-02,1.0622280091e-01,-2.3941250518e-02,-1.3645581901e-01,-3.7001922727e-02,6.9304123521e-02,1.1503890902e-01,-1.3576188684e-01,1.8837384880e-01,1.6223913431e-01,6.1049282551e-02,-7.8654319048e-02,-1.1861602962e-01,-1.0128790885e-01,-1.2470078468e-01,-2.7462652326e-01,-2.5745978951e-01,-3.6087727547e-01,-2.1149076521e-01,-1.9806407392e-01,9.4809591770e-02,1.3051028363e-02,6.5609544516e-02,9.1109603643e-02,7.1173354983e-02,5.3908806294e-02,5.1002107561e-02,-1.1541853845e-01,-1.0668885708e-01,4.4158447534e-02,-1.8198719248e-02,1.8631719053e-01,1.8319915235e-01,1.8551008776e-02,1.2038035691e-01,1.4439007640e-01,1.4391776919e-01,-7.2212964296e-02,-5.0095546246e-01,-2.3194527626e-01,-1.5514396131e-01,3.6344207823e-02,1.0704840720e-01,1.5325623751e-01,-4.0216788650e-02,-7.0026881993e-02,-1.1462723464e-01,1.0261262208e-01,4.8870161176e-02,1.6512037814e-01,-6.2564060092e-02,-2.2513386607e-01,-2.0602360368e-01,-4.1105277836e-02,4.9433675595e-03,-3.4933415055e-01,-2.3509059846e-01,-4.1374689341e-01,-3.4418237209e-01,-8.9243846014e-03,1.9210619852e-02,1.0512972623e-01,-7.6835961081e-03,3.2230582088e-02,1.0004979372e-01,1.2511444092e-01,2.7761578560e-01,-8.5890658200e-02,-2.3115991056e-01,-1.3436859846e-01,-1.1147586256e-01,2.4090532959e-01,-6.1714164913e-03,1.3503092527e-01,8.2750461996e-02,-1.6070140526e-02,1.6708977520e-02,-1.8691693246e-01,-3.6471882463e-01,-9.2666596174e-02,-3.6928601563e-02,1.4822542667e-01,-2.1294711530e-01,-2.6612482965e-02,-5.0528746098e-02,2.6539841294e-01,3.9773437381e-01,5.7738739997e-02,3.5294619203e-01,4.8689368367e-01,5.0814535469e-02,-1.1756204814e-01,-4.1187015176e-01,-3.4988793731e-01,-1.1640113592e-01,-5.2241516113e-01,-2.8165808320e-01,-3.3240589499e-01,-3.4450218081e-01,-1.3239748776e-01,-5.1957331598e-02,3.7308588624e-02,-3.2463800162e-02,5.1331311464e-02,1.3871836662e-01,1.9040396810e-01,2.2292542458e-01,1.1130339652e-01,-7.7679321170e-02,-3.8331940770e-01,-3.8866570592e-01,7.0221066475e-02,4.4406943023e-02,2.7740967274e-01,3.0977302790e-01,1.6216070950e-01,3.2766783237e-01,-8.9544579387e-02,-4.9004566669e-01,-1.5080152452e-01,1.1461257935e-01,-1.9837471191e-03,-1.1298332363e-01,-1.7051680386e-01,-1.4392726123e-01,-1.2249824405e-01,9.7082398832e-02,3.1199064851e-01,6.1681061052e-03,5.7927000523e-01,1.3558991253e-01,-4.2232412100e-01,-5.6008583307e-01,-2.6181235909e-01,4.3132755905e-02,-6.6695362329e-01,-4.2987963557e-01,-4.8060280085e-01,-2.9153737426e-01,-1.5926249325e-01,-8.6733594537e-02,1.1282527819e-02,-2.5363942608e-02,7.4804440141e-02,2.8533399105e-01,1.8898375332e-01,1.4608387649e-01,-8.3092026412e-02,-4.4570393860e-02,-8.0005228519e-03,-1.6527945176e-02,7.8241012990e-02,-1.8138355017e-01,-8.9457280934e-02,7.2393439710e-02,-1.5226428211e-01,2.0263887942e-01,-7.2669751942e-02,-2.9847884178e-01,-7.4546396732e-02,1.4969334006e-02,4.3305266649e-02,-6.2299066782e-01,-5.9791761637e-01,-2.1989347041e-01,2.6498734951e-02,1.5330219269e-01,3.4175387025e-01,3.8669151068e-01,6.9693195820e-01,-5.4059508257e-03,-5.3803443909e-01,-4.2425128818e-01,-1.1503958702e-01,7.8590579331e-02,-8.1305348873e-01,-4.9370172620e-01,-2.7397084236e-01,-2.0905260742e-01,-3.6051243544e-01,-5.8845952153e-02,3.1399246305e-02,-8.9213602245e-02,6.4764171839e-02,1.8722076714e-01,3.0144771934e-01,-6.7922092974e-02,-5.5799193680e-02,-5.2163422108e-02,-3.9479056001e-01,-2.0354847610e-01,-8.1032648683e-02,-1.1791505665e-01,-2.0055519044e-01,2.8408616781e-02,2.7476087213e-02,1.6592651606e-01,-1.3690918684e-01,-4.2781315744e-02,1.2436548620e-01,9.1969236732e-02,3.1384941936e-01,-6.1411046982e-01,-7.1556097269e-01,-2.0994210243e-01,8.7891273201e-02,-5.5304922163e-02,4.3015602976e-02,6.4807489514e-02,3.6445841193e-01,1.1521383375e-01,-6.3288435340e-02,-2.7989649773e-01,-5.0533211231e-01,2.0641759038e-02,-7.5416958332e-01,-5.6442445517e-01,-3.9805626869e-01,-3.9260992408e-01,-2.3083986342e-01,-1.7296080291e-01,-8.4009677172e-02,1.6373783350e-01,2.7469584346e-01,2.5538283587e-01,-8.2448936999e-02,-3.6658998579e-02,-1.9979277253e-01,1.0172187537e-01,-1.7587225139e-01,-5.2841514349e-01,2.5656455755e-01,-5.2826099098e-02,-2.3170098662e-02,2.4475963414e-01,-2.4051657319e-01,-7.8119203448e-02,-2.7752818540e-02,6.4649514854e-02,9.3679815531e-02,-5.0076872110e-02,1.4725384116e-01,-7.3439770937e-01,-5.7974517345e-01,-3.4277695417e-01,7.1158064529e-03,-2.0601475239e-01,2.3440993391e-03,9.8459105939e-03,7.8664326668e-01,3.9740625024e-01,-4.5238998532e-01,-3.2654103637e-01,-6.4968442917e-01,-4.0578207374e-01,-8.0349433422e-01,-8.5115712881e-01,-5.9675872326e-01,-2.5630149245e-01,-1.6438826919e-01,-2.4548795819e-01,-2.1735092998e-01,1.5558004379e-01,1.8621364236e-01,3.1858402491e-01,4.2285686731e-01,-2.3574844003e-01,3.9159509540e-01,3.4409728646e-01,-3.6959248781e-01,-4.4034728408e-01,-2.5411364436e-01,-3.7947490811e-01,-1.8942099810e-01,2.4014618993e-01,-5.4774475098e-01,5.1970530301e-02,-1.7241777480e-01,3.0379828066e-02,2.7786985040e-01,5.1310516894e-02,-3.8682326674e-02,-6.5769773722e-01,-8.2322388887e-01,-4.3662020564e-01,-1.8851305544e-01,2.6318496466e-01,-5.2781250328e-02,2.0925416052e-01,5.0649803877e-01,1.4715919271e-02,-3.9094805717e-01,-9.9274426699e-01,-9.8097437620e-01,-3.5088330507e-01,-7.5878012180e-01,-8.6918115616e-01,-5.9610038996e-01,-2.6542934775e-01,-5.7308986783e-02,-1.0520604253e-01,-7.3624126613e-02,-7.7431842685e-02,1.1873774976e-01,4.3905600905e-01,1.9790698588e-01,1.0852610320e-01,2.1065479517e-01,2.4183607101e-01,-1.1880339682e-01,-2.9285156727e-01,-2.8451262042e-03,-1.2916495092e-02,4.7880381346e-01,-3.1466293335e-01,2.2579446435e-01,-3.1588348746e-01,1.1466827244e-02,1.5800981224e-01,3.6996617913e-01,3.7591752410e-01,1.8361005187e-01,-5.1998329163e-01,-2.7800056338e-01,2.7806708217e-01,3.2812741399e-01,4.5697025955e-02,-3.0062776804e-01,1.1344969273e-01,5.1697033644e-01,-1.4244051278e-01,-4.1015276313e-01,-9.1229176521e-01,-6.7327469587e-01,-5.5331879854e-01,-7.1107137203e-01,-6.3645106554e-01,-6.4261269569e-01,-3.2773762941e-01,-1.4389503002e-01,-5.8357775211e-02,-2.4767836928e-01,3.0234545469e-01,2.2935846448e-01,-6.4142733812e-02,2.1050573885e-01,4.9343433976e-01,2.2862572968e-01,2.2434943914e-01,1.9431731105e-01,-4.4463798404e-01,7.1540230513e-01,4.4440109283e-02,2.8366711736e-01,1.9352148473e-01,-4.3642897159e-02,2.7339780331e-01,-2.4864203297e-03,2.3542463779e-01,3.7626224756e-01,2.4365401268e-01,3.6194503307e-01,-6.7104101181e-02,7.2906523943e-02,1.4341223240e-01,1.6446223855e-01,5.4132468998e-02,-1.7116788030e-01,-4.0972061455e-02,5.5322581530e-01,-2.7001646161e-01,-2.6652553678e-01,-4.5927414298e-01,-7.8407990932e-01,-3.2486465573e-01,-9.3306457996e-01,-8.5162258148e-01,-3.5846361518e-01,-2.3310135305e-01,-4.2625445127e-01,-1.3123942912e-01,-1.5181218088e-01,-4.8562474549e-02,-1.6333270818e-02,1.3710984588e-01,-1.4087781310e-01,4.7777184844e-01,6.3469141722e-01,4.7083440423e-01,1.3874913752e-01,-2.6982727647e-01,2.5809153914e-01,3.6486893892e-01,2.2205886245e-01,2.2740758955e-01,2.8439545631e-01,1.0079688579e-01,5.1623129845e-01,3.7699356675e-01,3.8014608622e-01,3.1956863403e-01,2.5257921219e-01,-6.2154221535e-01,-4.3660596013e-01,-1.5146069229e-01,-3.1201669574e-01,-2.7062505484e-01,-6.4593970776e-01,-6.3708198071e-01,8.4406864643e-01,9.7522848845e-01,-1.3316366076e-01,-2.6657223701e-01,-5.7879048586e-01,-4.6835544705e-01,-8.0916178226e-01,-1.0770055056e+00,-5.2615100145e-01,-1.4051298797e-01,-2.1512971818e-01,-3.6922362447e-01,-1.3551269472e-01,1.4449822903e-01,-3.0900704861e-01,-1.0116998106e-01,3.5764029622e-01,-7.9528741539e-02,-1.6690656543e-01,-4.0278261900e-01,9.7994171083e-03,3.8669413328e-01,4.6177354455e-01,1.4742960036e-01,3.2214310765e-01,-1.5292198956e-01,4.0066480637e-01,-5.8995317668e-03,1.9447033107e-01,2.5727665424e-01,6.0889478773e-02,3.5453650355e-01,3.3560752869e-01,-1.0872280598e+00,-1.1064559221e+00,-4.7571480274e-01,-4.3098136783e-01,-4.3845683336e-01,-3.1595495343e-01,-4.5981216431e-01,6.8082225323e-01,1.0882011652e+00,4.2954105139e-01,-3.9727228880e-01,-9.2845928669e-01,-3.3362838626e-01,-9.1058778763e-01,-9.5677900314e-01,-4.2197409272e-01,-4.4447845221e-01,-3.2392770052e-01,-3.3805322647e-01,3.7445179187e-03,1.9786633551e-02,-9.6532203257e-02,7.7828191221e-02,-4.7001650929e-01,-3.2226230949e-02,-9.3486435711e-02,-1.4382624626e-01,7.4936851859e-02,-1.8011601269e-01,6.2475007772e-01,4.3421611190e-01,-8.2219652832e-02,1.8344645202e-01,2.8868699446e-02,2.9329332709e-01,3.0429005623e-01,1.5610572696e-01,-1.3412825763e-01,2.6110732555e-01,2.7661210299e-01,-1.0912852287e+00,-1.0697735548e+00,-1.0044362545e+00,-1.0994538665e-01,-1.0042944551e-01,2.0913970470e-01,5.0136286765e-02,8.2014626265e-01,3.6267444491e-01,-3.7118896842e-01,-4.0525761247e-01,-2.1873241663e-01,-3.9583107829e-01,-9.9828398228e-01,-1.0455477238e+00,-4.5048400760e-01,-5.3617119789e-01,-6.4453399181e-01,-4.5254820585e-01,-8.4377221763e-02,-2.4316741526e-01,9.1244146228e-02,1.8230958283e-01,3.3102631569e-01,3.1460326910e-01,4.1137754917e-02,5.1843672991e-01,3.3759403229e-01,-2.4760675430e-01,2.2095951438e-01,5.4124581814e-01,1.3062897325e-01,1.6218136251e-01,1.2094655633e-01,7.1499750018e-02,2.4120630324e-01,4.7861281782e-02,9.9529333413e-02,-3.5365574062e-02,4.2110234499e-01,-8.5437387228e-01,-8.3671337366e-01,-4.0722092986e-01,7.5345940888e-02,-2.6676669950e-04,1.8932937086e-01,-1.8455199897e-01,7.1517527103e-01,1.2666916847e+00,5.6242823601e-02,-3.0279430747e-01,-2.7430242300e-01,-3.3783999085e-01,-5.7416844368e-01,-1.1565130949e+00,-7.1241456270e-01,-4.5278671384e-01,-4.9673333764e-01,-5.0981044769e-01,-3.4191241860e-01,-4.7044229507e-01,3.7479162216e-01,5.8084536344e-02,2.4381184578e-01,-2.2279502824e-02,2.6994106174e-01,2.3546058685e-02,2.9687818885e-01,1.4450879395e-01,3.2270681858e-01,-1.7209662497e-01,2.4854706228e-01,4.3253362179e-01,3.0575746298e-01,2.8037586808e-01,2.9022806883e-01,3.5888163839e-03,1.5309718251e-01,-7.9198926687e-02,-4.3484911323e-02,-5.9643882513e-01,-7.9417341948e-01,-3.7878611684e-01,-9.9071547389e-02,1.9621764123e-01,-2.3196524382e-01,-6.9307208061e-02,1.1082482338e+00,1.1325938702e+00,4.2979222536e-01,2.7861350775e-01,2.0428973436e-01,-1.1478045583e-01,-5.2526336908e-01,-1.2598692179e+00,-9.6459233761e-01,-5.8110600710e-01,-3.9783778787e-01,-1.0830975771e+00,-7.7880248427e-02,-1.6516996920e-01,4.6537328511e-02,-2.2369149327e-01,2.9167262837e-02,-6.8280577660e-02,2.0470790565e-01,-3.0454975367e-01,1.5720397234e-01,9.5067687333e-02,2.2610878944e-01,2.7786266804e-01,4.0434384346e-01,9.1141529381e-02,4.5569041371e-01,4.4437530637e-01,1.7871376872e-01,-1.7966431379e-01,1.6303101182e-01,-1.4300289750e-01,2.9651742429e-02,-8.2926088572e-01,-8.5531532764e-01,-4.0489056706e-01,1.1053606123e-01,1.5746077895e-01,-9.3034997582e-02,4.0104472637e-01,1.4052788019e+00,1.2787843943e+00,4.8975983262e-01,2.8344252706e-01,2.2919662297e-02,-2.3563209176e-01,-6.2901043892e-01,-1.3343311548e+00,-8.7885802984e-01,-7.3870134354e-01,-7.2839695215e-01,-6.4001768827e-01,-9.9344477057e-02,-1.7378783226e-01,-1.5641109645e-01,2.9113340378e-01,-4.4672902673e-02,1.4421418309e-01,5.4366195202e-01,-3.3270117640e-01,-1.8710081279e-01,-2.7718961239e-01,2.0863717794e-01,-5.5193979293e-02,4.8807615042e-01,2.3872956634e-01,2.3339043558e-01,3.8710430264e-01,1.0999760032e-01,-1.7941099405e-01,-8.2987621427e-02,2.0863011479e-01,-4.4696810655e-03,-1.1596951485e+00,-1.0409200191e+00,-3.5989964008e-01,6.6459000111e-02,-2.6298444718e-02,1.3471656479e-02,-1.4371312223e-02,1.2349765301e+00,7.7332758904e-01,2.6202082634e-01,2.0974256098e-01,9.1289021075e-02,6.3790015876e-02,-9.3667024374e-01,-1.5519944429e+00,-9.6856153011e-01,-8.7940740585e-01,-8.3775019646e-01,-4.0521103144e-01,-5.0800971687e-02,3.0153222382e-02,-3.6193706095e-02,-2.4046237767e-01,-3.7182834744e-01,-6.4732595347e-03,-1.6407005489e-02,-6.2832504511e-02,-3.1381210685e-01,-2.0841862261e-01,2.3490393162e-01,-3.9032793045e-01,4.9188491702e-01,-2.1796353161e-01,-2.0594938099e-01,1.9875527918e-01,6.4287148416e-03,-8.4723621607e-02,3.4644637257e-02,-2.9707551003e-02,1.0091628879e-01,-1.2103999853e+00,-9.2526274920e-01,-8.6772996187e-01,-9.8924539983e-02,-1.2968178093e-01,-2.2866459191e-01,-1.3229914010e-01,9.7003293037e-01,3.4841576219e-01,4.1220733523e-01,3.7366953492e-01,3.2640236616e-01,2.0443396270e-01,-7.3068618774e-01,-1.4074927568e+00,-9.0695273876e-01,-8.8134127855e-01,-8.5167390108e-01,-5.0508034229e-01,-4.3630474806e-01,3.2122585177e-01,-7.4390031397e-02,-1.9094075263e-01,1.5439559519e-01,-2.7670498937e-02,2.8296658397e-01,2.3223885894e-01,2.4092154205e-01,7.0897829533e-01,2.6734119654e-01,-1.8838806450e-01,1.2263667583e-01,-1.9794577360e-01,-3.9347016811e-01,8.9197896421e-02,-8.1337951124e-02,2.3851567507e-01,2.0479117334e-01,-3.5217705369e-01,8.7196499109e-02,-1.4546670914e+00,-8.3010321856e-01,-7.5011193752e-01,-1.8916606903e-01,-1.4551836252e-01,-4.7088181973e-01,-2.6684924960e-01,7.0095193386e-01,3.7824746966e-01,5.8785265684e-01,3.8214880228e-01,2.3653343320e-01,3.7688064575e-01,-6.5549993515e-01,-1.2770557404e+00,-9.0512782335e-01,-5.1849162579e-01,-5.6051623821e-01,-3.7570899725e-01,-5.5672317743e-01,-4.2572063208e-01,-1.7327700555e-01,2.5744882226e-01,-4.8051927239e-02,-1.7074321210e-01,2.4799698591e-01,3.4454604983e-01,4.5083960891e-01,1.7238445580e-01,-1.5026044846e-01,-3.6455022637e-03,-2.4760031700e-01,-3.3746480942e-01,-2.8102889657e-01,-9.3057461083e-02,-2.1425326169e-01,-7.9876445234e-02,8.6843118072e-02,-1.2264186889e-01,-2.6283252239e-01,-1.2002213001e+00,-9.1915071011e-01,-3.3814787865e-01,-1.0699205101e-01,-1.5788902342e-01,-5.3250426054e-01,-3.5521522164e-02,9.6447378397e-01,6.9436973333e-01,2.6751154661e-01,4.2408850789e-01,4.6661356091e-01,1.5206159651e-01,-1.8327859044e-01,-1.3102694750e+00,-7.1521985531e-01,-6.3615489006e-01,-5.9742641449e-01,-4.8388954997e-01,-6.7898118496e-01,-8.8477516174e-01,-3.1946885586e-01,5.7014203072e-01,1.8778733909e-01,-1.1221087724e-01,-3.6906552315e-01,5.3656005859e-01,8.9433968067e-02,2.3549199104e-01,8.0020889640e-02,-2.9300144315e-01,-4.9981635809e-01,-4.5426372439e-02,-3.3545440529e-03,-1.3612884283e-01,-9.4918414950e-02,-2.7584269643e-01,-2.0251224935e-01,-1.6270805895e-01,-2.7702555060e-01,-1.3158711195e+00,-1.0117967129e+00,-2.8257042170e-01,7.5218588114e-02,5.2789426409e-03,2.9418486357e-01,2.6755797863e-01,7.7747046947e-01,4.5659175515e-01,2.9589602351e-01,3.9158105850e-01,1.8977034092e-01,1.7023448646e-01,2.7142947912e-01,-1.0920529366e+00,-4.0682649612e-01,-5.0456398726e-01,-3.6514508724e-01,-5.1602447033e-01,-1.1724495888e+00,-4.4474929571e-01,3.2768324018e-01,6.1037704349e-02,3.5908460617e-02,-1.2745083869e-01,3.1088513136e-01,4.0878883004e-01,3.3900448680e-01,5.4525017738e-01,-2.0915381610e-02,-4.2649844289e-01,-9.4230949879e-02,-2.5864663720e-01,-4.5907273889e-02,6.0843229294e-02,-7.9551957548e-02,-3.9191728830e-01,-2.3278848827e-01,-1.2283094227e-01,-1.4046266675e-01,-8.2256865501e-01,-9.2969226837e-01,-3.0535891652e-01,-3.4929087758e-01,-3.3815643191e-01,-2.3365239799e-01,1.1729503423e-01,8.1395018101e-01,2.7530774474e-01,-3.5301133990e-01,2.7636000514e-01,-2.4861195683e-01,3.6212804914e-01,-1.7805197835e-01,-8.8506966829e-01,-5.1854473352e-01,-2.7794316411e-01,-4.9152538180e-01,-9.6657645702e-01,-1.1892925501e+00,-4.4911497831e-01,-8.2306110859e-01,2.7653425932e-02,-5.8361047506e-01,-3.8425955176e-01,3.6765268445e-01,2.9849195480e-01,1.9481723011e-01,2.3483831435e-02,-1.4282490313e-01,-6.7686134577e-01,2.8822463751e-01,-3.5296410322e-01,-1.5770597756e-01,-2.2336618602e-01,1.1809786782e-02,4.0302351117e-02,-2.9719671607e-01,-1.8043182790e-01,1.4050216973e-01,-9.2912417650e-01,-7.5802606344e-01,-4.6141889691e-01,-4.8340812325e-02,-2.2847509384e-01,-2.7752038836e-01,9.5416888595e-02,5.5460429192e-01,4.6423229575e-01,1.4653684199e-01,1.1185774207e-01,3.7859156728e-02,1.9008789957e-01,1.7035706341e-01,-1.0218962431e+00,-6.7068088055e-01,-4.8907041550e-01,-3.1881102920e-01,-7.5865024328e-01,-9.8806774616e-01,-1.9153356552e-01,-2.5420093536e-01,-2.6016581059e-01,-1.5809495747e-01,5.6006625295e-02,1.6461307183e-02,1.2192235142e-01,4.6894890070e-01,-2.0060012117e-02,-2.3495709896e-01,-1.0893256217e-01,-7.2441615164e-02,-5.5551004410e-01,-4.9672996998e-01,-3.4806999564e-01,-1.6929630935e-01,-1.7799653113e-01,-2.2113561630e-01,-1.9321052730e-01,7.2082862258e-02,-8.9916163683e-01,-1.0046343803e+00,-5.9902095795e-01,-2.2396609187e-01,-5.3086495399e-01,-4.1175797582e-01,2.3315370083e-01,1.9148731232e-01,4.8796609044e-01,-6.4076237381e-02,3.3209237456e-01,1.4717714861e-02,4.0261846781e-01,4.1567698121e-01,-1.0184390545e+00,-4.6093949676e-01,-5.7716977596e-01,-6.1125510931e-01,-9.8499566317e-01,-5.4821562767e-01,-4.3492892385e-01,-1.1291635036e-01,-4.9669131637e-01,2.6520902291e-02,-5.1086974144e-01,8.7823420763e-02,7.4019238353e-02,3.5208454728e-01,2.6280993223e-01,-2.2697788477e-01,-7.4472397566e-02,-2.5922888517e-01,-4.8448589444e-01,-2.9417294264e-01,-1.5488030016e-01,-2.1446911991e-01,-3.2825000584e-02,-8.5822813213e-02,1.0332456231e-01,-2.4237094820e-01,-1.1145889759e+00,-1.0582720041e+00,-8.3686983585e-01,-2.1930006146e-01,-4.3005403876e-01,3.2179269940e-02,1.5351547301e-01,7.4290972948e-01,5.1274305582e-01,1.0050494969e-01,9.6650615335e-02,3.7166139483e-01,6.6206270456e-01,3.0513572693e-01,-8.2601290941e-01,-3.9660325646e-01,-5.3115230799e-01,-7.2455370426e-01,-9.1638535261e-01,-4.3675619364e-01,-2.2446970642e-01,-7.4380233884e-02,2.6626241207e-01,-8.0742254853e-02,-2.6477932930e-01,-1.4647532254e-02,1.0764075071e-01,2.5120580196e-01,1.9804087281e-01,1.1417380720e-01,9.6131533384e-02,-1.8967147917e-02,1.8106289208e-01,-1.1744977534e-01,-1.7221550643e-01,-1.1446501315e-01,5.3354743868e-02,-2.8714635968e-01,-4.0896438062e-02,-1.7203417420e-01,-1.0476272106e+00,-1.1325306892e+00,-5.8193856478e-01,-3.4181988239e-01,-5.0677853823e-01,-3.7106755376e-01,1.3004265726e-01,2.5923478603e-01,1.5364375710e-01,-1.4600427449e-01,-2.5043112040e-01,-2.5114533305e-01,-2.3940742016e-01,-1.7850860953e-01,-1.2162985802e+00,-7.8679990768e-01,-5.8565855026e-01,-6.9384956360e-01,-3.0112257600e-01,-6.7796617746e-01,-3.3217947930e-02,4.8561662436e-01,3.2151237130e-01,9.7972847521e-02,3.3122780919e-01,-1.8899022043e-01,2.0748920739e-01,-2.2202005982e-01,-3.9838604629e-02,4.0372651070e-02,7.1433939040e-02,7.5917743146e-02,4.3029636145e-01,2.1640050411e-01,-2.8066670522e-02,1.0443792492e-01,1.5523411334e-01,-5.1747951657e-02,-1.6520270705e-01,-1.8008780479e-01,-9.6898555756e-01,-1.0511782169e+00,-7.0946991444e-01,-4.4490909576e-01,-7.2156298161e-01,-2.2758001089e-01,-5.6020781398e-02,3.1036511064e-01,5.9794026613e-01,-1.1160235852e-01,-2.1895539761e-01,-2.2420363501e-02,-2.0581409335e-01,-7.5984798372e-02,-6.0933804512e-01,-5.6332123280e-01,-5.1252681017e-01,-5.5722504854e-01,-5.6170046329e-01,-4.3677079678e-01,-2.0995089412e-01,3.2440790534e-01,4.7489255667e-01,4.4837498665e-01,2.6499915123e-01,2.6438602805e-01,3.5279816389e-01,-1.0254468024e-01,-2.4996635318e-01,1.6277011484e-02,7.1007512510e-02,3.2168024778e-01,-7.0511880331e-03,-1.4708350599e-01,5.5400598049e-01,2.2989486158e-01,-8.9369431138e-02,-4.6323155984e-03,-1.4156356454e-01,-1.4757116139e-01,-7.3553454876e-01,-9.4953352213e-01,-6.8934184313e-01,-4.4924232364e-01,-5.9378534555e-01,-1.4116092026e-01,-3.2262913883e-02,2.2591458261e-01,2.5000753999e-01,-5.2157960832e-02,-2.2449164093e-01,-1.5690575540e-01,-2.0986454189e-01,-3.9870440960e-02,-6.7397773266e-01,-5.1900815964e-01,-1.9624297321e-01,-5.7419914007e-01,-6.8633371592e-01,-2.8359135985e-01,-5.4454404116e-01,-2.2857417166e-01,4.5523554087e-01,4.5272573829e-01,2.6670384407e-01,4.6394342184e-01,2.8301584721e-01,4.0512639284e-01,2.2531205788e-02,-1.8162040412e-01,-2.2253218293e-01,-1.5773437917e-01,-2.1371297538e-01,1.1368630826e-01,4.8162591457e-01,6.6870532930e-02,6.8454951048e-02,-2.4254056811e-01,-3.2558473945e-01,-1.4039944112e-01,-9.9288362265e-01,-8.8443464041e-01,-7.7472734451e-01,-6.2228965759e-01,-4.0549877286e-01,-9.9904321134e-02,8.7839029729e-02,-1.0819302499e-01,2.3459319770e-01,-2.8833884746e-02,-2.8534793854e-01,-2.0745010674e-01,-3.8236758113e-01,-8.1963628531e-02,-5.1604419947e-01,-6.3041508198e-01,-2.3015248775e-01,-2.7027195692e-01,-3.5138073564e-01,-4.4734182954e-01,-5.4877352715e-01,-1.5857191384e-01,-6.1214413494e-02,1.4493824542e-01,2.4318304658e-01,-1.1065282673e-01,-1.4518575370e-01,-5.3419291973e-02,-2.3665846884e-01,-9.2353858054e-02,1.9010410178e-03,-1.5333959460e-01,4.4241938740e-02,6.5630629659e-02,1.3165931404e-01,2.2892406210e-02,-3.4552329779e-01,-3.5576590896e-01,-1.5382781625e-01,2.9096983373e-02,-9.7107720375e-01,-1.0305023193e+00,-7.0896291733e-01,-4.2903390527e-01,-3.5175260901e-01,-1.3848218322e-01,-1.8225915730e-01,5.9258446097e-02,1.3901415467e-01,4.8704557121e-02,-1.4156688750e-01,-2.1334268153e-01,-4.3135106564e-02,2.9600316286e-01,-4.5326721668e-01,-3.0911973119e-01,-3.3095309138e-01,-4.1423341632e-01,-3.9858585596e-01,-3.2384335995e-01,-3.6261519790e-01,-2.5252535939e-01,-2.0429189503e-01,-9.5720551908e-02,2.7875643969e-01,8.8202849030e-02,6.5184767664e-06,2.2593390942e-01,-4.0771614760e-02,1.5194340050e-01,1.3098010421e-01,-7.7255897224e-02,7.2018012404e-02,2.2807066143e-01,-1.5328557789e-01,-1.3669944368e-02,-5.6578762829e-02,-2.1236830950e-01,5.6075740606e-02,1.1771233380e-01,-1.0592870712e+00,-1.1667007208e+00,-6.6377311945e-01,-2.2807112336e-01,-2.1431230009e-01,1.3701756299e-01,-1.6761898994e-01,1.4879661798e-01,-9.5074348152e-02,-3.6724978685e-01,-4.3696460128e-01,-4.0482687950e-01,-3.2570412755e-01,-3.8947824389e-02,-3.1815412641e-01,-3.7487584352e-01,-3.8546666503e-01,-2.6030358672e-01,-2.1195875108e-01,-1.4833216369e-01,-2.9763591290e-01,-3.9360874891e-01,-2.5014263391e-01,-1.2607230246e-01,-2.0301992074e-02,-4.7354798764e-02,-8.3661705256e-02,-1.0144605488e-01,-3.2244667411e-01,-5.1903730631e-01,-2.3970639706e-01,-1.2117752433e-01,-1.9749921560e-01,-7.5530514121e-02,-1.6452465951e-01,7.2354790755e-03,-1.8495270610e-01,-1.1770531535e-01,-1.1660430580e-02,2.1585027874e-01,-9.1196268797e-01,-9.7944247723e-01,-1.4997117221e-01,8.1487754360e-03,1.8729290366e-01,1.4694772661e-01,3.1144836545e-01,5.5657643080e-01,2.9520028830e-01,-2.9877361655e-01,-4.0454512835e-01,-5.2698141336e-01,-4.5055454969e-01,-2.5574699044e-01,-1.3244016469e-01,-2.6436787844e-01,-3.4081023932e-01,-4.5204237103e-01,-2.0315045118e-01,-2.0146641135e-01,9.5885261893e-02,-1.3137264550e-01,-2.2418954968e-01,-1.6649410129e-01,3.9217468351e-02,-5.9036422521e-02,-1.1528976262e-02,2.2872475907e-02,-1.9212236628e-02,-2.8117188811e-01,-2.8213405609e-01,-1.7400695011e-02,2.5871661305e-01,1.5723976493e-01,8.0759733915e-02,1.4877273142e-01,-8.6206145585e-02,1.1424451321e-01,5.4255481809e-02,1.1021662503e-01,-6.2891650200e-01,-7.0702576637e-01,-2.2036474943e-01,1.4332880080e-01,-4.4698948041e-03,5.7009395212e-02,2.1121829748e-01,2.0352698863e-01,1.1838274449e-01,-3.7913885713e-01,-3.6999377608e-01,-2.7284651995e-01,-6.1475165188e-02,-1.1322151870e-01,-2.8190433979e-02,-1.5886607766e-01,3.5990875214e-02,-1.8571355939e-01,-1.6598387063e-01,-2.2815862298e-01,-7.6374746859e-02,2.4857532978e-01,7.3605731130e-02,-1.1695685983e-01,-3.6792144179e-02,-1.1079373211e-01,-1.3854402304e-01,-2.4161574244e-01,-1.6959717870e-01,-1.1740218103e-01,1.8349717557e-01,3.0676132068e-02,-2.6292948052e-02,9.0510286391e-02,3.1576272100e-02,-1.0335765034e-01,7.8606605530e-02,-3.5535164177e-02,2.0192272961e-01,2.2516672034e-03,-3.8432559371e-01,-4.2345976830e-01,-2.8034353256e-01,-2.8765419126e-01,-6.6813759506e-02,-1.9882275164e-01,-1.5347854793e-01,-9.6892669797e-02,-2.5589561462e-01,-2.9034000635e-01,-4.2227539420e-01,-2.9401472211e-01,-2.6399990916e-01,-2.1242050827e-01,-1.6236248612e-01,-2.9461187124e-01,-5.1953408867e-02,-2.0253075659e-01,-1.4119881392e-01,-1.7582997680e-02,-1.0206215829e-01,1.4296627045e-01,1.3556370139e-01,1.2090805918e-01,-1.6821105778e-01,-3.5787433386e-02,2.6326129213e-02,-6.4119711518e-02,-2.9707401991e-01,-4.2462728918e-02,-5.6701153517e-02,-6.0628453502e-04,-8.4920682013e-02,3.5350158811e-01,1.1093296856e-01,-5.6164488196e-03,8.0270608887e-03,1.8605189025e-01,1.1597716808e-01,-6.0744106770e-02,-1.7280922830e-01,3.8089316338e-02,-2.4337628856e-02,3.0079856515e-02,1.4398576319e-01,1.4378732443e-01,2.5607407093e-01,1.7702980340e-01,1.3239043951e-01,-1.9920386374e-02,-1.7394977808e-01,-3.6134740710e-01,-3.6181539297e-01,3.1517479569e-02,1.9883060828e-02,-3.8773737848e-02,-4.1401788592e-02,-1.7026691139e-01,-6.7440614104e-02,2.1074374672e-03,-1.3052904606e-01,-1.3220408559e-01,1.6031162441e-01,1.7230191827e-01,2.3456586897e-01,3.6585506797e-01,2.3342147470e-01,6.5333262086e-02,8.2331202924e-02,2.1461319178e-02,1.5160232782e-01,2.5164702535e-01,1.6645400226e-01,4.5144684613e-02,8.8484920561e-02,9.2770345509e-02,1.9898059964e-01,2.2524525225e-01,4.6711463481e-02,1.1589561403e-01,-2.4432557821e-01,-3.0973216891e-01,-1.3389633596e-01,-3.2980024815e-01,-3.3591392636e-01,-1.9886795431e-02,-1.3563054800e-01,-1.5232942998e-01,-2.4265038967e-01,-3.0420547724e-01,-2.5399225950e-01,-1.7968443036e-01,-7.3243990541e-02,-5.9218913317e-02,-3.4272430930e-03,9.5858760178e-02,1.8863289058e-01,2.0700120367e-03,1.2303015590e-01,-4.2363639921e-02,1.6256356612e-02,-3.0412070453e-02,-5.9145607054e-02,1.5243610740e-01,1.7704170942e-01,3.1698128581e-01,4.5010335743e-02,8.8377863169e-02,-5.9269536287e-02,-2.5385081768e-01,-1.6662296653e-01,-6.1069805175e-02,-1.2560592592e-01,-7.7559769154e-02,-1.6850380599e-01,9.2858694494e-02,7.9177163541e-02,1.6256704926e-01,-4.8121544532e-03,8.7210558355e-02,-3.4328463674e-01,-3.1448191404e-01,-2.7408450842e-01,-2.1501463652e-01,-3.2242777944e-01,1.5949403867e-02,-2.4059706926e-01,-2.7230953798e-02,-2.2591538727e-01,-1.0394928604e-01,-1.1652019620e-01,-8.0514930189e-02,-2.3878608644e-01,1.3941087760e-02,1.3279502280e-02,9.7556486726e-02,5.5246952921e-02,8.8550992310e-02,2.2258743644e-01,6.0961835086e-02,1.9510209560e-01,1.2076564878e-01,-1.0099463910e-01,4.1403330863e-02,1.6828745604e-01,1.5372715890e-01,-6.3988901675e-02,-2.2599045187e-02,-5.1474116743e-02,4.9292132258e-02,-6.9643363357e-02,-2.3473456502e-02,5.0769736990e-03,-3.6930382252e-02,3.3587802202e-02,5.3777478635e-02,1.4188666828e-03,2.1601960063e-01,1.1521515995e-01,3.1868122518e-02},
	{-1.0636027157e-01,-9.4641320407e-02,-6.5934129059e-02,-2.1414892375e-01,-3.2048767805e-01,-2.7232375741e-01,-2.0288178325e-01,-6.8346215412e-03,-1.2989357114e-01,-3.5026662052e-02,1.4986449853e-02,1.5600500628e-02,1.7599007115e-02,1.8214970827e-01,5.2243545651e-02,1.5399420634e-02,2.5905355811e-01,3.5130776465e-02,-2.6094257832e-01,-3.8835850358e-01,-2.7559146285e-01,-5.3401207924e-01,-4.8976176977e-01,2.5771090388e-01,2.6994556189e-01,-5.7258266956e-02,1.3976712711e-02,2.4213819206e-01,8.5624985397e-02,2.0115666091e-01,3.5520002246e-01,5.2322596312e-01,4.3408083916e-01,8.4596998990e-02,4.0891695023e-01,1.7520849407e-01,1.4601871371e-01,2.4135719240e-01,2.2299182415e-01,1.6438476741e-02,1.6325233877e-01,-7.8412309289e-02,-7.4767149985e-02,-6.7437678576e-02,-2.0938466489e-01,-1.4595921338e-01,-8.9099705219e-02,-1.6001172364e-01,-2.0654743910e-01,-2.2696323693e-01,8.2054756582e-02,3.6854323000e-02,5.6187603623e-02,-4.1752122343e-02,3.6036916077e-02,-2.0008996129e-02,3.7806436419e-02,-1.8624556065e-01,-5.9343840927e-02,-8.2853190601e-02,-2.9183062911e-01,-3.2791009545e-01,-1.1614488065e-01,-1.0724076629e-01,-9.6976444125e-02,2.8744887561e-02,-2.4401696026e-01,3.0313836411e-02,4.5569694042e-01,4.5404615998e-01,4.0920966864e-01,5.1783466339e-01,4.5186063647e-01,1.3903495669e-01,2.2209163755e-02,3.0328854918e-02,1.6543160379e-01,2.5154519081e-01,3.3386769891e-01,2.5810155272e-01,1.5689700842e-02,-1.0543485731e-01,-1.8827122450e-01,-9.0387649834e-02,-3.2737708092e-01,-8.8520042598e-02,-1.6983450949e-01,-1.2231419981e-01,-2.6044754311e-02,3.4117754549e-02,-1.7365495861e-01,-1.6017753631e-02,-4.9179386348e-02,1.3251495361e-01,7.7710323036e-02,2.6921784878e-01,1.7772047222e-01,-4.9341943115e-02,-2.0594114065e-01,-3.8096684217e-01,-3.0585193634e-01,-3.0605852604e-01,-1.8853124976e-01,-1.1245285720e-01,-2.7010742575e-02,-1.8622870743e-01,-2.2134752572e-01,2.8729093075e-01,2.6050919294e-01,3.7153980136e-01,5.6915350258e-02,8.2971133292e-02,1.0282699019e-01,-2.0429022610e-02,1.7006251216e-01,-4.3411865830e-02,-7.7462955378e-03,2.3630020022e-01,-6.0511124320e-03,4.6970047057e-02,1.7264533788e-02,-1.3507305086e-01,-8.0446735024e-02,-1.7365433276e-01,-3.6979508400e-01,1.3089984655e-01,5.7470649481e-02,-1.1201064289e-01,-5.7346075773e-02,-9.5842570066e-02,-1.3123826683e-01,-1.0137922317e-01,9.5050796866e-02,2.0556743443e-01,3.0664771795e-01,1.6968718171e-01,2.3957721889e-01,9.5418490469e-02,6.5761752427e-02,2.7476916090e-02,1.4155790210e-01,-2.2769889235e-01,-3.6785611510e-01,6.0894270428e-03,-3.0286636204e-02,3.5591467749e-03,1.1234249920e-01,2.9354456067e-01,3.0138057470e-01,5.6946944445e-02,1.5120206773e-01,-1.1532820016e-01,-3.0632557347e-02,-1.0016424209e-01,4.2755499482e-02,3.8775589317e-02,1.2226435542e-01,6.1960417777e-02,6.3067436218e-02,3.4207904339e-01,3.8719832897e-02,1.5390836634e-02,-7.7194176614e-02,-1.2836392224e-01,-2.9359117150e-01,-8.4446417168e-03,2.7720872313e-02,-2.4570359290e-01,-3.2554477453e-01,-3.6580803990e-01,-4.0538940579e-02,2.3013362288e-01,3.0778279901e-01,4.6020397544e-01,1.2473598123e-01,-1.0318663716e-01,-4.6465344727e-02,2.2125391662e-01,-4.8479840159e-02,3.0468210578e-01,-6.2851741910e-02,-5.7871729136e-01,-3.0256190896e-01,2.8781819344e-01,2.0711848140e-01,-9.4579473138e-02,-3.8392495364e-02,3.3782456070e-02,1.2087172270e-01,5.5496331304e-02,1.3582649827e-01,-5.2972331643e-02,1.1079298705e-01,-5.3956046700e-02,7.1865342557e-02,-6.8768966198e-01,1.8428729475e-01,1.9887425005e-01,3.4701086581e-02,2.5875183940e-01,-1.4905257523e-01,-8.9787252247e-02,-5.2538659424e-02,-1.9202189147e-01,-4.6846994758e-01,-1.7339265347e-01,-2.3647412658e-01,-2.9394462705e-01,-1.7776098847e-01,-3.2378175855e-01,5.7150032371e-02,3.8358643651e-01,5.7252067327e-01,4.6837124228e-01,1.1049674451e-01,-2.6549461484e-01,-1.6490356624e-01,-1.8734598532e-02,-3.5716015846e-02,4.3622322381e-02,-4.7582226992e-01,-5.8580332994e-01,-4.3670076132e-01,-2.1516200155e-02,2.3482415080e-01,4.0716074407e-02,-2.3271334358e-03,1.7001900077e-01,1.4972326159e-01,3.4355890751e-01,9.8054528236e-02,1.6467352211e-01,2.6995731518e-02,-3.2688137889e-01,-2.2082209587e-01,-3.7545245886e-01,-2.2501802072e-02,-1.2394977361e-01,5.9766616672e-02,1.6006465256e-01,-1.8450540304e-01,-2.3906601593e-02,-1.5020555258e-01,-2.6635733247e-01,-2.0011070371e-01,-3.8679388165e-01,-3.8131934404e-01,-5.1380276680e-01,-1.1411836743e-01,-3.7523999810e-01,3.0302566290e-01,3.1348460913e-01,2.4097786844e-01,4.9033191055e-02,-1.1820410937e-01,-1.4932001010e-02,8.5959203541e-02,-5.4995801300e-02,2.4122670293e-02,2.6812744141e-01,-3.5228312016e-01,-4.1551470757e-01,-2.9492348433e-01,2.4492645636e-02,-7.5756624341e-02,-1.5069734305e-02,-1.2282697856e-01,3.0694428086e-01,2.4352749810e-02,4.3135583401e-02,2.0511044562e-01,-6.3777841628e-02,-5.6567437947e-02,-9.4605676830e-02,1.8443040550e-01,-1.0876826197e-01,3.3146959543e-01,1.3066796958e-01,3.6916980147e-01,2.7430272102e-01,-6.9964773953e-02,-1.4449734986e-01,-7.8741431935e-04,-4.3881779909e-01,-2.8019204736e-01,-1.0933236778e-01,-1.3733786345e-01,-9.2207670212e-02,-8.6176879704e-02,-2.6353818178e-01,-1.2150860578e-01,-2.6443144307e-02,-6.1129484326e-02,4.8589152098e-01,2.8655835986e-01,-1.2943045795e-01,-2.1620143950e-01,-1.1411688477e-01,-2.6305615902e-01,-4.1170243174e-02,-9.0972024202e-01,-8.6772280931e-01,-2.6991835237e-01,2.1703524888e-01,3.0140775442e-01,1.4609940350e-01,1.9329826534e-01,3.0578896403e-01,-9.4400174916e-02,3.3673873544e-01,4.4577246904e-01,2.0435121655e-01,3.5561639071e-01,6.6680163145e-02,3.6422297359e-01,4.7361668944e-01,3.0655083060e-01,1.1779130250e-01,2.4836155772e-01,6.6831454635e-02,-1.9350712001e-01,-7.4138239026e-02,-5.1307316869e-02,-1.1923792213e-01,-1.6289959848e-01,1.5531174839e-01,-2.7666468173e-02,5.7116243988e-02,-4.1197055578e-01,-3.9485827088e-01,-3.5299044847e-01,-2.2218987346e-01,1.3388663530e-01,6.5061533451e-01,4.7946247458e-01,3.1451443210e-03,-1.8628859520e-01,-1.0264898837e-01,-3.5191762447e-01,-3.7429401278e-01,-1.1011464596e+00,-9.1358834505e-01,-2.4186630547e-01,2.9981392622e-01,-1.2468428910e-01,4.1288960725e-02,2.8106853366e-01,-2.1357028186e-01,3.1200310588e-01,8.0966991186e-01,3.6354151368e-01,4.5064151287e-02,6.4038610458e-01,-1.9557002187e-01,3.0595239997e-01,4.0704295039e-01,2.2755891085e-01,6.4704693854e-02,1.7223870754e-01,2.5576454401e-01,-1.7486192286e-01,-9.2932082713e-02,-2.6140332222e-01,-8.9941084385e-02,-2.0336912572e-01,-2.7400255203e-01,-6.1661994457e-01,-6.8886882067e-01,-2.5526037812e-01,-6.0313630104e-01,-1.4930805564e-01,2.3219814897e-01,6.0825049877e-01,1.1233690977e+00,5.3171813488e-01,1.2524828315e-01,-1.1675024778e-01,-6.3165009022e-01,-4.4779652357e-01,2.1890856326e-01,-8.1538170576e-01,-9.3568420410e-01,-4.8841145635e-01,2.9606327415e-01,-2.2268697619e-01,1.3668796420e-01,2.9911324382e-01,1.4782893658e-01,1.9276545942e-01,1.3738833368e-01,-7.6873593032e-02,-1.2125692330e-02,9.5594450831e-02,-3.6709144711e-01,3.7571552396e-01,-8.2588000223e-03,1.8295869231e-01,-1.2148840725e-01,1.9614312053e-01,4.2255073786e-01,-1.1643442512e-01,-1.2097281218e-01,-3.6744871736e-01,-4.8442867398e-01,-3.1611075997e-01,-4.5226430893e-01,-6.7419028282e-01,-5.2168673277e-01,-5.3167158365e-01,-1.1970638484e-01,3.4166729893e-04,1.8143643439e-01,4.9698361754e-01,7.0066064596e-01,3.6851266026e-01,-2.6361110806e-01,-6.1822575331e-01,-1.9488188624e-01,-1.6297182441e-01,9.7761124372e-02,-8.5715955496e-01,-8.2926154137e-01,-3.8733369112e-01,4.6663624048e-01,1.7908410728e-01,-7.3460526764e-02,-1.9469690323e-01,9.1075414093e-04,7.3206806183e-01,7.5945919752e-01,6.6585594416e-01,-1.3816216588e-01,-2.1695142984e-01,-4.2654439807e-02,7.4162161350e-01,-2.5052747130e-01,-2.4758936465e-01,-5.1301103830e-01,2.3131100461e-02,2.8212761879e-01,-2.9891726375e-01,-2.6749697328e-01,-3.1491786242e-01,-3.6933907866e-01,-2.7489617467e-01,-6.1036449671e-01,-6.9755238295e-01,-5.4069423676e-01,-1.5755732358e-01,-1.3746175170e-01,-1.1527239531e-01,-3.1929451227e-01,3.7345328927e-01,1.0178856850e+00,4.2475949973e-02,6.3094228506e-02,-2.2914414108e-01,-4.5174366236e-01,-2.0519950986e-01,1.8324245512e-01,-1.0160433054e+00,-5.5455535650e-01,-2.9267683625e-01,2.4567276239e-01,4.0957942605e-01,-2.4962358177e-02,-4.1367914528e-02,2.1806043386e-01,4.3755400181e-01,3.1343802810e-01,2.2346115112e-01,-1.3546048105e-01,3.9961386472e-02,8.7804570794e-02,2.5349229574e-01,-5.1465507597e-02,1.2080449611e-01,4.0413970128e-03,3.1881871819e-01,5.3658443689e-01,-2.3381730914e-01,-3.7491118908e-01,-4.3631687760e-01,-3.4912240505e-01,-4.1390788555e-01,-3.5602480173e-01,-4.0359756351e-01,-5.5136775970e-01,-3.5821834207e-01,-2.8002551198e-01,-3.8714772463e-01,-2.3614282906e-01,6.1372733116e-01,1.1407331228e+00,5.4499083757e-01,-2.4700809270e-02,-3.3182272315e-01,-3.2520163059e-01,-1.3556022942e-01,-2.1619439125e-01,-1.4974138737e+00,-8.0374443531e-01,-6.9476532936e-01,2.0438347757e-01,1.2964874506e-01,-1.9238582253e-01,-3.0951178074e-01,-3.0519914627e-01,5.3975734860e-02,-7.7849164605e-02,2.6019302011e-01,1.5260876715e-01,8.9625390247e-03,-1.1469099671e-01,5.4481297731e-01,4.6353745274e-03,4.6675421298e-02,5.5967003107e-02,4.1069399565e-02,4.0927916765e-01,-2.6627552509e-01,-3.6493605375e-01,-1.9750900567e-01,-4.8475399613e-01,-4.8874801397e-01,-3.7796437740e-01,-6.8480479717e-01,-1.0110210180e+00,-6.0773307085e-01,-6.8907052279e-01,-1.2936441600e-01,-5.0083595514e-01,2.4465906620e-01,8.5938626528e-01,1.7577394843e-01,2.8012055159e-01,-1.2069865316e-01,-1.3270834088e-01,-2.6285463944e-02,-4.1690401733e-02,-1.1701333523e+00,-8.2753306627e-01,-5.0669783354e-01,1.6205076873e-01,1.9123694301e-01,-1.0788255185e-01,-2.5455257297e-01,-3.1132304668e-01,9.9190846086e-02,2.3606641218e-02,2.7895799279e-01,1.0196436197e-01,5.4922368377e-02,6.4563296735e-02,6.7386761308e-02,-1.2970697880e-01,2.8526723385e-01,2.1502044797e-01,1.5522974730e-01,1.8564561009e-01,-3.7531581521e-01,-3.0673289299e-01,-4.0572938323e-01,-3.4344404936e-01,-4.8874300718e-01,-4.4707360864e-01,-5.1382368803e-01,-7.3338437080e-01,-8.1730961800e-01,-7.3027694225e-01,-5.0794482231e-01,-5.8136260509e-01,3.4314498305e-01,8.2010942698e-01,7.1411138773e-01,-2.4296857417e-02,-1.0053905845e-01,-1.0178487748e-02,6.1978530139e-02,-3.3919997513e-02,-1.3291788101e+00,-7.4992132187e-01,-3.0898872018e-01,2.6570075750e-01,3.2655411959e-01,3.0587177724e-02,3.7439506501e-02,-1.0778437555e-01,2.1317449212e-01,-2.8300346807e-02,-3.3237946033e-01,-3.9265501499e-01,1.7460046709e-01,1.8694314361e-01,2.9932302237e-01,-3.9188477397e-01,2.9378604889e-01,9.3933328986e-02,-6.5216250718e-02,3.8059547544e-01,-2.9693955183e-01,-3.1971856952e-01,-3.9168813825e-01,-4.3347102404e-01,-5.8943259716e-01,-5.5749708414e-01,-6.7051285505e-01,-3.9495140314e-01,-6.2887364626e-01,-8.5450112820e-01,-5.0602334738e-01,-3.5100024939e-01,2.3510144651e-01,6.2521439791e-01,6.9692730904e-01,-6.0835856199e-01,-3.1919828057e-01,-4.4621145725e-01,-3.1149116158e-01,-1.2900254130e-01,-1.2160183191e+00,-5.6385636330e-01,-4.4615370035e-01,1.4344719239e-04,-7.9677999020e-02,-2.2423376143e-01,-3.7241369486e-01,-3.3500921726e-01,4.6948292851e-01,8.6779826880e-01,5.9431392699e-02,-9.7897455096e-02,5.9426605701e-02,3.7886297703e-01,1.5112760663e-01,2.5863176584e-01,-1.6724160314e-01,-5.1801711321e-01,-6.0471426696e-02,1.5024389327e-01,-3.8485670090e-01,-3.2090416551e-01,-5.1140338182e-01,-3.4203970432e-01,-4.5264190435e-01,-1.9782547653e-01,-2.4199758470e-01,-5.8383297920e-01,-6.6174453497e-01,-6.6361850500e-01,-6.0203355551e-01,-3.5910889506e-01,3.7859863043e-01,1.2287256718e+00,7.3026245832e-01,-3.0509677529e-01,6.4664177597e-02,-1.9373521209e-01,-3.1405612826e-02,-1.8500925601e-01,-1.3562217951e+00,-2.9596686363e-01,-1.3292786479e-01,-8.9358255267e-02,3.0152210593e-01,6.4800485969e-02,-1.5974488854e-01,1.7992857099e-01,1.1697560549e-01,2.9640945792e-01,-3.4385636449e-02,-6.2678563595e-01,3.2695549726e-01,5.3363204002e-02,-5.0999552011e-01,-1.4578899741e-01,5.7570517063e-02,-2.5898721814e-01,-2.0658873022e-02,1.1146231741e-01,-4.5224690437e-01,-4.3107545376e-01,-4.1632115841e-01,-4.6760031581e-01,-4.9301132560e-01,-2.9119673371e-01,-5.8114475012e-01,-8.9082801342e-01,-8.1309354305e-01,-5.1725983620e-01,-1.6574645042e-01,3.0640032887e-01,5.7687002420e-01,1.3267437220e+00,1.2358245850e+00,2.9284086823e-01,4.9096783996e-01,7.5099334121e-02,3.5823043436e-03,-7.5800460763e-03,-1.6227875948e+00,-5.7504266500e-01,-3.0318963528e-01,-2.1973955631e-01,1.0392545909e-01,1.9321554899e-01,1.7981572449e-01,-2.0098920166e-01,-5.7211774588e-01,6.4146019518e-02,-4.1905269027e-01,-4.6023651958e-01,-1.2510606647e-01,-3.6286603659e-02,-3.8792100549e-01,-5.8585334569e-02,4.2475041747e-01,-3.6113850772e-02,1.8929132819e-01,6.0806605965e-02,-2.8382450342e-01,-4.4404992461e-01,-5.4936271906e-01,-5.5082571507e-01,-4.9077981710e-01,-4.4501572847e-01,-8.6229813099e-01,-8.9249598980e-01,-7.9067665339e-01,-2.2684656084e-01,9.9263049662e-02,1.0283760726e-01,2.1184274554e-01,1.1220672131e+00,7.4916946888e-01,6.0706967115e-01,7.0045071840e-01,3.2031404972e-01,2.4240349233e-01,1.1168503761e-01,-1.7767498493e+00,-1.0702106953e+00,-3.0100139976e-01,-4.0774437785e-01,-3.5807791352e-01,-1.8208302557e-01,-1.8897725642e-01,2.0051638782e-01,1.8365630507e-01,6.3358686864e-02,-3.4940394759e-01,-5.0825670362e-02,-3.2419258356e-01,-2.9581636190e-01,-4.3674761057e-01,-1.7713612318e-01,1.7940369248e-01,2.0049124956e-01,1.2449852377e-01,-8.0200750381e-03,-3.8600340486e-01,-3.9962002635e-01,-6.7776972055e-01,-6.0413438082e-01,-5.7121241093e-01,-5.9099698067e-01,-5.8278053999e-01,-5.2921450138e-01,-6.0086661577e-01,-2.3551183939e-01,2.2676631808e-02,-3.0061328411e-01,9.6479505301e-02,8.3425384760e-01,8.3237826824e-01,4.8867151141e-01,7.3648995161e-01,-2.8936281800e-01,7.4425123632e-02,-1.4656800032e-01,-1.6281090975e+00,-1.1523175240e+00,-4.6293148398e-01,-4.5760166645e-01,-2.9559874535e-01,1.4349536505e-03,1.1712145060e-01,2.3597277701e-01,-1.3657592237e-01,-4.4885692000e-01,-1.7990036309e-01,6.1842825264e-02,-2.4245059490e-01,-1.0876861215e-01,-3.2712486386e-01,-4.9717262387e-01,-3.7659615278e-01,1.5850690007e-01,3.7793084979e-01,1.3205641508e-01,-1.7838169634e-01,-3.1258749962e-01,-5.1866286993e-01,-4.6909388900e-01,-6.6876065731e-01,-6.3958060741e-01,-4.8049008846e-01,-6.2457162142e-01,-8.9484679699e-01,-4.4173523784e-01,-1.1876868457e-01,-7.0382490754e-02,-1.8593943119e-01,3.5872733593e-01,3.2263513654e-02,-1.9490678608e-01,2.9222398996e-01,-1.3995844126e-01,2.6055839658e-01,4.8105493188e-02,-1.4262870550e+00,-1.1271024942e+00,-5.3530877829e-01,-2.5813654065e-01,1.5760812163e-01,1.3525439799e-01,-1.5449184179e-01,8.6937002838e-02,3.1176784635e-01,1.3664593920e-02,-4.3136990070e-01,-6.6043930128e-03,-1.1787869036e-01,-3.3143535256e-01,2.4547566473e-01,-2.0760802925e-01,1.9786353409e-01,-2.3079371452e-01,8.1773884594e-02,-3.5812273622e-02,-2.9431042075e-01,-2.3447494209e-01,-4.6772956848e-01,-6.2257575989e-01,-4.9945774674e-01,-4.9811697006e-01,-6.0062056780e-01,-7.4329143763e-01,-4.6110275388e-01,-3.2077750564e-01,-4.0303507447e-01,-3.7655416131e-01,5.2760668099e-02,2.7336224914e-02,1.3676688075e-01,-2.4788282812e-01,2.6914069057e-01,-3.2409232855e-01,1.5053969622e-01,1.9312112033e-01,-1.3807898760e+00,-7.5187516212e-01,-7.3905199766e-01,-3.2951200008e-01,-2.3464132845e-01,9.0991847217e-02,-1.7215628922e-01,-3.3544994891e-02,-1.8558759987e-01,-1.5973652899e-01,-3.3308908343e-01,2.5323155522e-01,6.3417845964e-01,5.5346675217e-03,8.7686169147e-01,1.8932452798e-01,-4.6277999878e-02,4.9539202452e-01,4.2028275132e-01,2.1165268123e-01,-1.7633022368e-01,-2.9611113667e-01,-2.4577631056e-01,-5.0657802820e-01,-4.6604084969e-01,-4.0842744708e-01,-5.6696456671e-01,-6.2922334671e-01,-3.5529944301e-01,-2.2699636221e-01,-4.5807766914e-01,6.2481649220e-02,-2.7229830623e-01,1.0707499832e-01,2.5800305605e-01,-4.2471274734e-01,1.7945453525e-01,-5.9217458963e-01,3.5833686590e-01,3.1586593390e-01,-8.6316877604e-01,-1.0748704672e+00,-6.2572365999e-01,-3.9179214835e-01,-4.6377462149e-01,-1.8053242937e-02,-4.7488462180e-02,-1.9675324857e-01,-7.0803654194e-01,-2.4648249149e-01,-1.0175237805e-01,6.5879625082e-01,5.4632514715e-01,-1.6132181883e-01,-4.8132367432e-02,2.6158198714e-01,2.6068007946e-01,4.9734941125e-01,-5.5121626705e-02,-2.6111312211e-02,-2.7311685681e-01,-2.5876817107e-01,-2.8926628828e-01,-3.3154767752e-01,-2.1962060034e-01,-3.5780411959e-01,-5.0001198053e-01,-4.7479268909e-01,-6.0363154858e-02,-5.1651462913e-02,2.4884100258e-01,-1.3356827199e-02,-4.0853497386e-01,3.1303846836e-01,3.7260189652e-01,-2.4769759178e-01,-1.0175798833e-01,9.2903621495e-02,1.1658578366e-01,4.4818124175e-01,-5.9248948097e-01,-7.8825342655e-01,-4.4582259655e-01,-1.0079379380e-01,-2.8733098507e-01,-1.8390259147e-01,-9.3154162169e-02,2.0322011411e-01,-1.9552403688e-01,2.2150214016e-01,9.4051085413e-02,5.5600410700e-01,-1.9188483059e-01,-3.5077903885e-03,-1.0862951726e-01,1.2319456041e-01,6.9395288825e-02,1.0442402214e-01,2.2488917410e-01,1.5454195440e-01,-2.3827888072e-01,-2.7257519960e-01,-2.1762491763e-01,-2.8353494406e-01,-2.3566003144e-01,-4.9093014002e-01,-6.3233059645e-01,-4.6972557902e-01,1.6688726842e-01,8.4990426898e-02,-5.4497573525e-02,-1.4481668174e-01,-2.8910449147e-01,-6.4170315862e-02,3.9355060458e-01,-7.2405040264e-02,-1.3769944012e-01,1.8899414688e-02,2.1444228292e-01,2.3769898713e-01,-2.8432893753e-01,-7.8945273161e-01,-4.9592298269e-01,1.0765649378e-02,4.7604902647e-03,-5.4285109043e-01,1.1783890426e-01,1.4416534454e-02,7.3309041560e-02,3.7440600991e-01,3.8155862689e-01,-4.5740097761e-02,-4.0614596009e-01,7.3898851871e-02,3.2426962256e-01,3.5014793277e-02,2.2968085483e-02,-5.7052008808e-02,-8.6103901267e-02,1.8871292472e-01,-6.5046899021e-02,-2.3777318001e-01,-2.4438747764e-01,-2.5014668703e-01,-2.8471216559e-01,-4.4421067834e-01,-5.2934259176e-01,-2.7609449625e-01,-2.1652688086e-01,-1.0453670472e-01,-2.1723885834e-01,-1.7424708605e-01,-2.4450643361e-01,5.4329290986e-02,7.7031135559e-01,-1.9208554924e-01,-1.7758879066e-01,2.2335544229e-01,4.9748322368e-01,-9.5789737999e-02,-1.2815366685e-01,-5.6226861477e-01,-4.6578842402e-01,1.8100313842e-01,1.5805821121e-01,-5.3430115804e-03,-8.0853633583e-02,-2.8067031503e-01,4.0478143841e-02,1.3651706278e-01,-3.2666042447e-02,-3.0981791019e-01,1.2137232721e-01,7.3372375965e-01,-1.8429307640e-01,1.2895028293e-01,8.3730719984e-02,-3.5991922021e-02,-9.4502411783e-02,-5.4745431989e-02,-1.3068709522e-03,-1.0974533111e-01,-9.2650420964e-02,-1.5501908958e-01,-4.1721791029e-01,-2.0974361897e-01,-5.4151195288e-01,-3.9868211746e-01,-1.8483200669e-01,-1.7286209762e-01,-3.2127127051e-01,-5.5025982857e-01,2.3642601445e-02,3.0888098478e-01,7.4943077564e-01,2.2947473824e-01,-1.6098903120e-01,8.1260524690e-02,6.6866856813e-01,3.5514464974e-01,2.4035155773e-01,-4.2123460770e-01,-3.9204251766e-01,1.8009327352e-01,-9.8521865904e-02,-1.7735734582e-01,-1.3230812550e-01,-1.5267886221e-01,1.3825576007e-01,1.1994006485e-01,-2.9669997096e-01,-1.6247116029e-01,6.7061997950e-02,-3.3014076948e-01,2.7866974473e-01,1.4565391839e-01,-2.3100471124e-02,-9.2338003218e-02,-1.7959438264e-01,-3.7790261209e-02,4.5936092734e-02,6.3376590610e-02,-5.7902194560e-02,-7.3466300964e-02,-2.1643309295e-01,-4.3584325910e-01,-4.9210509658e-01,-3.9835381508e-01,-1.7185658216e-01,-7.6131093502e-01,-6.2920689583e-01,-3.4223330021e-01,-2.2012618184e-01,-1.7987197638e-01,1.2928808928e+00,-2.8259429336e-01,1.4700340107e-02,2.7377742529e-01,5.8632797003e-01,-1.6722474992e-01,-2.9457256198e-01,-4.6844333410e-01,-5.4114520550e-01,-1.1434901506e-01,-6.9448783994e-02,1.1019073427e-02,-2.0312361419e-01,-6.5086908638e-02,-2.2503593564e-01,1.7930714786e-01,2.7721086144e-01,1.1517779529e-01,-6.0543287545e-02,-3.2236108184e-01,6.1421301216e-02,-5.0199210644e-01,2.0105044544e-01,-2.6249489188e-01,-1.3829013705e-01,2.5483205914e-02,-5.1201928407e-02,-6.4496427774e-02,-2.0487386733e-02,-1.2941898406e-01,-8.6560055614e-02,-2.2171792388e-01,-5.4421395063e-01,-3.2729074359e-01,6.1074353755e-02,-5.0721859932e-01,-3.8167101145e-01,-1.5005740523e-01,-3.6961862445e-01,3.1938010454e-01,9.6294820309e-01,2.4877077341e-01,-3.3969119191e-02,1.2117116898e-01,3.1611907482e-01,5.7972889394e-02,-4.0882605314e-01,-2.2510433197e-01,-3.9096701145e-01,1.6951563954e-01,-2.4527635425e-02,-1.0240801424e-01,-3.5893189907e-01,-1.6575855017e-01,-2.0783062279e-01,-1.4051645994e-01,4.5300863683e-02,1.6185759008e-01,1.4735859632e-01,-6.6163547337e-02,-1.1680906266e-01,-4.0592175722e-01,1.3018500805e-01,-2.6251432300e-01,-1.6651907936e-02,-1.1947157979e-01,-1.5046519041e-01,6.0262966901e-02,-1.9468598068e-01,-3.1589072943e-01,-3.2105487585e-01,-4.0390855074e-01,-7.8266549110e-01,-4.8955512047e-01,-3.1739392877e-01,-6.1717307568e-01,-1.2656818330e-01,-2.6966410875e-01,-1.6230435669e-01,5.5031862110e-02,1.2274991274e+00,4.3322224170e-02,-9.1790236533e-02,-2.1732230484e-01,1.9092855509e-03,-1.1581164598e-01,-2.0359660685e-01,-3.5781642795e-01,-7.9016529024e-02,2.3615448177e-01,-1.0024306364e-02,-2.0103682578e-01,-3.5613963008e-01,-2.0967426896e-01,-9.7677603364e-02,2.5271990895e-01,2.1832366474e-03,-1.1933532543e-02,-2.5812911987e-01,-2.3711031675e-01,-2.1725744009e-01,-3.3477196097e-01,-1.0421670228e-01,-2.1414713562e-01,1.2324552238e-01,2.1139582992e-01,-4.5278735459e-02,-1.6167627275e-01,-4.3042428792e-02,-1.9473642111e-01,-4.2024111748e-01,-3.5782811046e-01,-7.0026093721e-01,-4.3162572384e-01,-1.4224554598e-01,-4.6409949660e-01,-2.1870400012e-01,1.0099716485e-01,-2.2345340252e-01,2.3992712796e-01,7.0977461338e-01,1.1652086675e-01,1.4875364304e-01,4.9163769931e-02,-8.8853515685e-02,1.7125004530e-01,-1.2550988793e-01,-2.7261874080e-01,-5.3984498978e-01,-4.0442717075e-01,-1.4799043536e-01,-3.4026512504e-01,-9.6976451576e-02,-3.1313672662e-01,-2.0144550502e-01,-2.5067875162e-02,1.5008734167e-01,-1.8696805462e-02,-1.8852536380e-01,-3.3818298578e-01,-2.1415476501e-01,-2.1980786324e-01,2.2803707421e-01,8.8299162686e-02,3.0204188824e-01,2.4425007403e-02,-9.4628423452e-02,-9.7564227879e-02,-3.0215856433e-01,-2.2544722259e-01,-4.3350943923e-01,-5.2761429548e-01,-6.7343038321e-01,-4.1611680388e-01,-1.3625636697e-01,-1.7681720853e-01,3.4487888217e-02,1.1388183385e-01,2.3311953247e-01,6.5254855156e-01,1.1510156393e+00,3.7921944261e-01,-8.0519979820e-03,-2.1731269360e-01,1.8292856216e-01,1.4873120189e-01,-1.5712831914e-01,8.7251812220e-03,-1.6723865271e-01,-4.5400390029e-01,-3.5962578654e-01,-1.7413000762e-01,-1.1711554974e-01,-1.9293609262e-01,-1.0545767844e-01,7.6708309352e-02,2.0784999430e-01,8.3794832230e-02,-2.9917394742e-02,-1.1670932919e-01,-9.6929728985e-02,-1.4691995084e-01,-2.1333612502e-01,1.6842882335e-01,1.9696880877e-01,-3.3018078655e-02,-3.9918661118e-02,-2.2586968541e-01,-2.2464789450e-01,-1.8082164228e-01,-4.0682974458e-01,-5.4025560617e-01,-3.4551972151e-01,-1.5087504685e-01,-3.3778838813e-02,7.0945747197e-02,1.7032365501e-01,2.0277640224e-01,4.3551459908e-01,5.2537065744e-01,9.1096973419e-01,1.8347875774e-01,-1.3024725020e-01,-2.5237849355e-01,-1.5944565833e-01,-1.2724913657e-01,-3.4135785699e-01,-3.6753814667e-02,-7.0544801652e-02,-3.7326043844e-01,-3.0133515596e-01,5.3487528116e-02,-1.3322451711e-01,-3.1353330612e-01,1.2046629190e-01,4.0278386325e-02,3.0086290836e-01,6.7510657012e-02,-2.0883847773e-01,-3.2092811307e-04,-3.4377032425e-03,-8.8976658881e-02,1.5456351638e-01,1.2411949039e-01,1.5823496506e-02,1.9900256768e-02,-1.6858097911e-01,-1.9741354883e-01,-2.5645035505e-01,-1.4553579688e-01,-2.5074189901e-01,-5.4977655411e-01,-3.7619438767e-01,-8.3364933729e-02,-1.8963044882e-01,-5.6865938008e-02,8.5412219167e-02,1.5378277004e-01,4.2093449831e-01,7.7549433708e-01,1.0599251986e+00,3.5092586279e-01,1.8539601564e-01,1.3595287502e-01,6.9496303797e-02,1.4449173212e-01,-4.6295847744e-02,-2.1688228846e-01,-3.5323986411e-01,-2.9725629091e-01,-2.0881009102e-01,-2.3816855252e-01,-3.3377003670e-01,-2.0207904279e-01,-1.0356324911e-01,4.9308966845e-02,-8.5913557559e-03,5.4804228246e-02,1.6641346738e-02,3.7221055478e-02,3.3710118383e-02,-2.9125753045e-01,1.9551193342e-02,-7.5036600232e-02,-6.6348209977e-02,-1.0323813558e-01,-1.6976523399e-01,-1.1896193773e-01,-1.4819432795e-01,-2.3951074481e-01,-1.1478205770e-01,-2.0436689258e-01,-3.8254520297e-01,5.1777553745e-04,-2.5387920439e-02,-6.7889273167e-02,-2.4446602911e-02,1.0349754989e-01,2.8253531456e-01,4.4938403368e-01,7.6226896048e-01,3.1070482731e-01,1.9320644438e-01,-2.0597977936e-01,-1.4590689540e-01,6.6679745913e-02,-2.4708157778e-01,-1.0656993091e-01,-1.2021070719e-01,-1.3793773949e-01,-2.3968683183e-01,-5.1125657558e-01,-2.5086349249e-01,2.8014808893e-02,6.6709764302e-02,9.7541645169e-02,-6.0599971563e-02,-1.8086160719e-01,5.2858151495e-02,1.8204574287e-01,-7.9873524606e-02,2.6019517332e-02,7.5210325420e-02,-1.1763449758e-01,-2.0775592327e-01,-1.7210957408e-01,-2.2179287672e-01,-9.8121874034e-02,-1.1554757506e-01,-1.3637486100e-01,-2.0443952084e-01,-2.7197182178e-01,-2.8240948915e-01,1.7529167235e-02,3.0312491581e-03,2.8181750327e-02,1.3708899915e-01,4.3932024390e-02,2.7213174105e-01,2.9457458854e-01,4.2682686448e-01,2.6764953136e-01,4.7136243433e-02,-2.7153281495e-02,6.6724754870e-02,2.2030350566e-01,1.3521760702e-01,8.4096239880e-03,-2.7860239148e-01,-4.3666798621e-02,6.0793906450e-02,-1.1322651058e-01,-2.2251547873e-01,4.0044866502e-02,6.3431508839e-02,-1.1367145926e-01,-1.7290705815e-02,-1.8258818984e-01,-1.7146053910e-01,-5.6854847819e-02,1.1204434559e-02,4.2986053973e-02,-1.1930446327e-01,-7.5032927096e-02,4.1693028063e-02,1.1519792676e-01,-1.3647516072e-01,-1.8902276456e-01,-2.3334747553e-01,-3.0589732528e-01,-3.1692579389e-01,-3.4324470162e-01,-2.1819435060e-01,-9.0390276164e-03,6.4698539674e-02,1.1459200829e-01,7.7409438789e-02,-5.3609758615e-02,1.3939285278e-01,1.3712182641e-01,2.6829582453e-01,1.0738357902e-01,8.4271557629e-02,8.5126161575e-02,1.5380108356e-01,2.6293057017e-03,1.0775624961e-01,-5.6969445199e-02,-5.9239171445e-02,-6.0046776198e-03,2.9146144167e-02,-1.0245257616e-01,-2.7750054002e-01,-2.0305565000e-01,-2.1073527634e-01,-3.0345234275e-01,-3.3739480376e-01,-1.3408307731e-01,-1.2929117680e-01,-2.0025381446e-01,-1.2566955388e-01,-9.8407596350e-02,-1.2584482133e-01,-6.3087306917e-02,2.5813314319e-01,3.0315944552e-01,-2.5256636739e-01,-1.2756839395e-01,-1.2706123292e-01,-3.2044878602e-01,-2.3613655567e-01,-1.0314543545e-01,-4.7108720988e-02,6.6540218890e-02,4.5374218374e-02,1.4027875662e-01,2.4313320220e-01,1.7822195590e-01,1.6918516159e-01,4.0966197848e-01,3.2414677739e-01,2.5174474716e-01,-1.1244067550e-01,1.9293442369e-01,1.1098007858e-01,2.3486414552e-01,1.4635221660e-01,-4.5379422605e-02,-2.2647859156e-01,-9.9859721959e-02,-3.2823588699e-03,-2.6169809699e-01,-3.4351795912e-01,-1.9091317058e-01,-2.9037579894e-01,-4.8447582126e-01,-3.1064298749e-01,-3.1622573733e-01,-4.2140492797e-01,-2.8982841969e-01,-3.6304160953e-01,-8.8864512742e-02,-5.5612806231e-02,1.6012804210e-01,1.4340403676e-01,1.5844959021e-01,1.7797114328e-02,-6.1862472445e-02,-6.8242140114e-02,-8.5701465607e-02,-1.3976168633e-01,1.1135432869e-01,1.6542635858e-01,3.4418333322e-02,8.3443649113e-02,2.2583408654e-01,1.6763293743e-01,2.0771892369e-01,1.0041371733e-01,2.5496923923e-01,2.0225770772e-01,-2.3275800049e-02,1.2830382586e-01,2.2694072127e-01,1.3213378191e-01,1.8225252628e-01,3.0413797498e-01,1.5118712187e-01,2.6593083516e-02,-2.0252324641e-02,-3.3701870590e-02,5.5694649927e-03,-3.7844594568e-02,-1.5084543824e-01,-2.2335213423e-01,-3.1379437447e-01,-2.7974373102e-01,-3.6523857713e-01,-3.9754372835e-01,-1.4572112262e-01,-2.6517078280e-01,-3.0874354765e-02,8.4137044847e-02,-1.0491283610e-02,-9.8608331755e-03,1.1360579729e-01,-8.5190329701e-03,-4.1994612664e-02,-5.6311618537e-02,-6.7361663096e-03,-1.1395659298e-01,7.3920905590e-02,6.3712224364e-02,7.8687362373e-02,1.4343672991e-01,1.0261069238e-01,1.3853602111e-01,2.4485626817e-01,1.9370469451e-01,3.9974409342e-01,1.9681650400e-01,2.3677016795e-01,1.8555194139e-01,2.2956179082e-01,2.4749095738e-01,2.2320047021e-01,2.3268318176e-01,2.1856784821e-01,-3.0371662229e-02,-6.0826987028e-03,-2.6836678386e-01,-1.0559845716e-01,-9.1590724885e-02,-1.3952933252e-01,-1.5060792863e-01,-4.6045774221e-01,-4.3592408299e-01,-4.1126003861e-01,-3.1169936061e-01,-2.3409879208e-01,-1.4506733418e-01,-1.7526471615e-01,-1.5618094802e-01,-6.8677686155e-02,-1.0484807193e-01,1.8383517454e-04},
	{-1.8608228862e-01,-8.5919700563e-02,-1.0455961525e-01,-7.5272567570e-02,2.9950551689e-02,-1.2699100375e-01,1.0352122784e-01,2.5665804744e-01,3.8929566741e-01,1.9313156605e-01,2.5877881050e-01,3.3940178156e-01,2.1021498740e-01,1.4347061515e-01,5.5168919265e-02,-6.4981184900e-02,-3.9382004179e-03,1.3176588714e-01,-3.2835017890e-02,2.4388222396e-01,2.9207313061e-01,2.7864992619e-01,3.2100820541e-01,3.8098067045e-01,1.6240248084e-01,2.2743293643e-01,7.5820848346e-02,1.8866808712e-01,2.6390844584e-01,4.5694509149e-01,1.9531598687e-01,2.3088501394e-01,-6.7029781640e-02,-5.9604026377e-02,-1.2276000530e-01,-1.6358049214e-01,-1.0956421494e-01,-3.2175549865e-01,-3.4227335453e-01,-2.3357632756e-01,-2.5042307377e-01,-5.1441270858e-02,-1.7872415483e-01,3.5980071872e-02,-1.7192567885e-01,1.8378072977e-01,8.7690882385e-02,2.1814374626e-01,3.5971453786e-01,1.7636401951e-01,2.4074751139e-01,2.6797488332e-01,2.7457782626e-01,1.0598392040e-01,2.8697982430e-01,1.8009626865e-01,1.7186820507e-01,4.4586154819e-01,3.9392113686e-02,1.1535742134e-01,5.8714288473e-01,8.7298929691e-02,1.1250904202e-01,5.3662803024e-02,1.1822673678e-01,-8.0667942762e-02,2.2878280282e-01,-1.6771334410e-01,-4.3671121821e-03,2.5343725085e-01,3.5682043433e-01,3.9438986778e-01,2.9696987942e-02,-1.2588629127e-01,-1.3984012604e-01,-2.1742717922e-01,-3.3979022503e-01,-2.3860391974e-01,-1.4402925968e-01,-1.7933233082e-01,-2.4452230334e-01,-2.6830479503e-01,-2.1262373030e-01,-8.6575895548e-02,1.3804836571e-01,-8.6015490815e-03,-1.3638331555e-02,1.9600674510e-01,1.6886150837e-01,2.9788711667e-01,1.6014051437e-01,-3.2714385539e-02,8.4657154977e-02,9.2520937324e-02,3.2484811544e-01,2.5694142096e-03,2.0570856333e-01,2.8362181783e-01,7.0920661092e-02,7.2885535657e-02,3.8077732921e-01,2.3757259548e-01,3.2333227992e-01,2.0067480206e-01,1.6084800661e-01,2.3561915755e-01,1.9154448062e-02,7.7200829983e-02,-5.4626811296e-02,3.4307199717e-01,2.4029213190e-01,2.2528713942e-01,1.7287991941e-01,-3.3095967770e-01,-4.6867620945e-01,-2.9580467939e-01,-2.3870779574e-01,-2.8272438049e-01,-4.4548958540e-01,-3.5057368875e-01,-3.3029460907e-01,-4.1101362556e-02,-2.1682056785e-01,9.5663577318e-02,-7.9567261040e-02,9.5293506980e-02,1.1456582695e-01,-1.0276577435e-02,2.0924897492e-01,3.5078358650e-01,-1.0187492706e-02,2.4319493771e-01,1.8606184423e-01,3.4136423469e-01,-8.4734328091e-02,6.2380626798e-02,2.5476327538e-01,2.8030851856e-02,-9.1334082186e-02,1.8586644530e-01,7.9773783684e-01,3.5872313380e-01,1.6750206053e-01,-1.7565961927e-02,-2.1732014418e-01,-1.7139481381e-02,1.3623416424e-01,1.5621991456e-01,-1.8786983192e-01,1.3116490841e-01,2.2755467892e-01,2.8602194786e-01,8.3808870986e-03,-1.6487115622e-01,-2.1957415342e-01,-1.7381861806e-01,-1.6689878702e-01,-5.6743357331e-02,-1.3375829160e-01,6.9828599691e-02,-2.4649128318e-01,-2.6033633947e-01,-9.4552561641e-02,4.1455797851e-02,-3.4839455038e-02,7.4313886464e-02,4.1016917676e-02,4.9820113927e-02,3.3514147997e-01,3.3569031954e-01,4.0779122710e-01,5.4609781504e-01,1.3530401886e-01,-9.0304538608e-02,-9.9124601111e-03,3.3450138569e-01,2.3965169489e-01,2.3990762234e-01,7.7112518251e-02,2.6103886962e-01,7.7933317423e-01,3.9823439717e-01,2.4905527011e-02,8.1668958068e-02,1.8555757403e-01,1.8170040846e-01,3.0673316121e-01,1.9829666242e-02,1.0610001534e-01,-1.2146463245e-01,1.6212223470e-01,1.7147135735e-01,2.2006784379e-01,5.3273957223e-02,-1.7991444468e-01,-1.4660866559e-01,-2.0680328831e-02,-1.4166308939e-01,-2.1386854351e-01,-2.2975318134e-01,-2.7180320024e-01,-2.9859054089e-01,-2.5326901674e-01,1.4204105735e-01,-2.6390271261e-02,2.7577124536e-02,-1.4847895503e-01,2.7157586813e-01,4.8263102770e-01,3.6051020026e-01,3.0693539977e-01,5.7789647579e-01,4.3011558056e-01,2.5433146954e-01,2.1403771639e-01,2.4317345023e-01,1.9974422455e-01,-5.0737359561e-04,-1.4847377315e-02,4.3903201818e-02,3.9161652327e-01,1.7057448626e-01,3.0294978619e-01,2.1830949932e-02,1.3866595924e-01,4.5389264822e-02,5.4516488314e-01,2.9961970448e-01,-5.2542567253e-02,9.3947298825e-02,-5.8686614037e-02,-1.1730656028e-01,5.4284632206e-02,-4.7231808305e-01,-2.8769230843e-01,-2.9692023993e-01,-2.0005604625e-01,-1.7849612236e-01,-2.4562847614e-01,-2.0828592824e-04,-4.3787303567e-01,-1.4609216154e-01,-3.5787963867e-01,-1.5057136118e-01,3.6125264596e-03,9.3888223171e-02,-4.5002717525e-02,3.0193346739e-01,1.7788808048e-01,2.3485103250e-01,1.5663719177e-01,3.3581301570e-01,1.0037339479e-01,1.4747843146e-01,4.1549596190e-01,3.5290056467e-01,3.6789569259e-01,4.2873606086e-01,-1.0401196033e-01,4.4093754888e-01,5.2328652143e-01,4.7773230076e-01,1.5773029625e-01,-3.4971196204e-02,1.6312168539e-01,1.1220157892e-01,-1.1946297437e-01,1.3521371782e-01,-8.7113648653e-02,1.1981985718e-01,-7.4325300753e-02,2.2630737722e-01,-7.7811151743e-02,-4.2020210624e-01,-3.8908451796e-01,-4.3357759714e-01,-2.9177337885e-01,-5.4904311895e-02,1.8162839115e-02,-3.7240034342e-01,-3.2718190551e-01,-2.1520882845e-01,-8.5308998823e-02,-2.1244946122e-01,3.4402638674e-02,-2.4642243981e-01,4.1519083083e-02,7.5282432139e-02,-1.5933127701e-01,-1.7477455735e-01,-3.8995351642e-02,2.5934672356e-01,2.2911207378e-01,4.3306112289e-01,4.8500579596e-01,6.5717285872e-01,4.7406718135e-01,8.1081844866e-02,-7.0890597999e-02,2.3259335756e-01,9.3722844124e-01,5.4561692476e-01,1.9741174579e-01,3.7384457886e-02,1.1966061592e-01,1.7946557701e-01,4.4699583203e-02,-3.4763794392e-02,-1.2193908542e-01,-2.4144783616e-02,-4.7125943005e-02,-7.7863298357e-02,1.0251311213e-01,-3.5178786516e-01,-5.1030969620e-01,-3.8379293680e-01,-1.5082247555e-01,-1.9353169203e-01,-3.1717938185e-01,-4.2903193831e-01,-2.5394690037e-01,-2.2814641893e-01,-2.6420995593e-01,-1.4146177471e-01,-1.7270171642e-01,-2.9066335410e-02,1.3874131441e-01,-3.5074138641e-01,-3.3225241303e-01,-2.9788637161e-01,-1.1380481534e-02,4.1842427850e-01,3.7479972839e-01,4.8005855083e-01,4.3104630709e-01,7.2102755308e-01,6.5538066626e-01,-3.8726847619e-02,-1.5120181441e-01,3.5140863061e-01,8.3657199144e-01,-8.4703834727e-03,-6.4701966941e-02,1.6108807176e-02,1.4418053441e-02,1.6173186898e-01,1.7205308378e-01,1.2110211700e-01,-4.7173943371e-02,1.4029487967e-01,-1.0732389241e-01,-2.7245420218e-01,-2.5064748526e-01,-1.4161168039e-01,-4.1297391057e-01,-3.0399858952e-01,-2.4052974582e-01,-2.8392532468e-01,-1.2343242019e-01,-3.8555586338e-01,-2.2165633738e-01,-3.1174963713e-01,-1.7471064627e-01,-1.8032321334e-01,4.1813544929e-02,-2.0289227366e-02,-4.6882394701e-02,-4.1643732786e-01,-2.4347332120e-01,-6.4587727189e-02,8.5955120623e-02,4.0573632717e-01,1.9625124335e-01,2.4314947426e-01,3.4275087714e-01,2.7515181899e-01,4.7971436381e-01,1.3637070358e-01,-2.0210601389e-01,9.6784502268e-02,4.3315967917e-01,2.5659137964e-01,4.6814102679e-02,5.1484596916e-03,3.9096337557e-01,2.4946935475e-01,2.8345617652e-01,2.7500793338e-01,-2.7081556618e-02,-4.9076333642e-02,-2.7213665843e-01,-2.8399538994e-01,-1.3721804321e-01,-5.0944143534e-01,-2.8372737765e-01,-1.5832059085e-01,-3.4143275023e-01,-2.0323935896e-02,-7.5749248266e-02,-1.3187387586e-01,-1.8803553283e-01,-2.5278699398e-01,-3.1074777246e-01,-1.8941858783e-02,-1.9807146862e-02,-1.9427663088e-01,-7.1862228215e-02,-2.0123884082e-01,-1.4425164461e-01,-1.1409911513e-01,-7.6087601483e-02,-3.8861121982e-02,-3.3524062485e-02,1.7193458974e-01,3.4286954999e-01,5.8683854342e-01,3.9760464430e-01,5.3924465179e-01,-1.2866217643e-02,-1.2760160863e-01,5.6824201345e-01,2.1262866259e-01,-7.6358199120e-02,1.3107427955e-01,5.4947555065e-02,3.8817480206e-01,2.7715152502e-01,-1.3764633238e-01,-2.7586841583e-01,-6.0213822871e-02,5.0569429994e-02,-1.6407400370e-01,1.9791867584e-02,-3.8174012303e-01,-3.8154637814e-01,-2.8141638637e-01,1.0822799057e-01,-4.4581212103e-02,-1.6319276392e-01,-2.0113515854e-01,-1.2655040622e-01,-1.8578901887e-01,-2.1113018692e-01,-4.1737522930e-02,-4.0500696748e-02,-1.6377440095e-01,-5.2633816004e-01,-2.4061016738e-01,5.7809293270e-02,-4.1353279352e-01,-2.7014994621e-01,1.1827258021e-01,8.9394293725e-02,1.7637772858e-01,4.1460910439e-01,4.8528936505e-01,6.4710587263e-01,3.8604769111e-01,9.2266365886e-02,5.2597030997e-02,7.1017736197e-01,3.5298395157e-01,2.9539087415e-01,8.7663434446e-02,1.7286390066e-01,1.3485204428e-02,4.5061817765e-01,3.6013990641e-01,4.0430102497e-02,-3.7425494194e-01,-2.1475678682e-01,-3.5232618451e-01,-9.0234704316e-02,-2.3380838335e-01,-5.3443884850e-01,2.2106500342e-02,-2.8498399258e-01,-7.2820730507e-02,-3.9774429798e-01,-7.0339584351e-01,-1.7393752933e-01,-2.3341390491e-01,-2.8452506661e-01,-1.2244477868e-01,-2.0173735917e-01,5.2253350616e-02,-2.8465965390e-01,-3.2486540079e-01,-1.3672742248e-01,-1.7678219080e-01,-2.1494393051e-01,2.0889030397e-01,1.6456726938e-02,-9.6677385271e-02,3.2064062357e-01,5.6095385551e-01,8.3463406563e-01,5.3465652466e-01,5.0995266438e-01,1.7917266488e-01,5.9582632780e-01,4.3482846022e-01,1.4323079586e-01,1.2009757012e-01,-1.6322773695e-01,-2.0737411082e-01,-3.3102199435e-02,5.1284290850e-02,-1.1093247682e-01,-1.7537158728e-01,-1.6865363717e-01,-3.8150712848e-01,-2.1596142650e-01,-1.0283638537e-01,-2.9361191392e-01,-4.0876102448e-01,-2.1557062864e-01,1.1290957034e-01,-6.1986130476e-01,-8.0380570889e-01,-2.9615452886e-01,-3.4883549809e-01,-2.3782105744e-01,-1.5803587437e-01,-5.1576294005e-02,6.5795309842e-02,-5.8095224202e-02,-3.3911186457e-01,-2.3138891160e-01,-2.6612356305e-01,5.2738510072e-02,2.7569177747e-01,1.3727317750e-01,2.5776147842e-01,-6.1631124467e-02,4.3071502447e-01,4.5505034924e-01,6.9254356623e-01,3.2112869620e-01,1.1513801664e-01,1.5443027020e-01,2.6569390297e-01,5.1310338080e-02,1.5757353604e-01,-4.3080329895e-02,2.7642393112e-01,-5.8981303126e-02,-2.9762533307e-01,-1.3627830148e-01,-1.5176825225e-01,-3.5890075564e-01,-4.6040973067e-01,-3.6226356030e-01,-2.8647315502e-01,-2.8895577788e-01,-6.6915270872e-03,-4.5603353530e-02,4.7473281622e-02,-5.2840620279e-01,-7.6449334621e-01,-4.2973390222e-01,-4.3879881501e-01,-2.2243382037e-01,-6.9598600268e-02,-6.7815124989e-02,1.0409739614e-01,-2.6435458660e-01,-2.7715772390e-01,-4.3149080127e-02,-5.2760884166e-02,2.8387045860e-01,3.0653217435e-01,-5.8907542378e-02,1.9781009853e-01,1.7233896255e-01,-8.5361376405e-02,2.9638600349e-01,3.2249182463e-01,5.6234791875e-02,-1.7560820282e-01,2.6786997914e-01,8.6807690561e-02,4.1288778186e-02,1.8297387660e-01,-3.1499169767e-02,2.5893813372e-01,-1.3061272912e-02,-1.1103411764e-01,-1.5637850761e-01,-2.1605321765e-01,-1.7620737851e-01,-3.6419633031e-01,-1.2276877463e-01,-2.6721563935e-01,-1.8047903478e-01,-2.4318982661e-01,3.9783257246e-01,2.0896501839e-02,-4.4967162609e-01,-7.1598654985e-01,-4.6455705166e-01,-4.1105687618e-01,-2.2711187601e-01,-6.7065946758e-02,-2.0980195701e-01,-2.0253535360e-02,1.6462317109e-01,-1.7397955060e-01,-6.2743738294e-02,-1.3280093670e-01,2.3259064555e-01,8.9084856212e-02,-1.1471828073e-01,-2.6987772435e-02,-7.4815548956e-02,8.3497047424e-02,4.9347466230e-01,1.6724362969e-01,1.5792208910e-01,-2.8538683057e-01,-1.4380803704e-01,-1.9205261767e-01,4.4786177576e-02,-6.6065751016e-03,2.5089260191e-02,6.8252228200e-02,7.5785131194e-03,2.9159618542e-02,-3.9481291175e-01,-3.7599116564e-01,-1.2119665742e-02,-2.7523365617e-01,-2.9779541492e-01,-1.8610560894e-01,-1.6106547415e-01,-8.7878711522e-02,-1.5327382088e-01,-2.5222077966e-01,-2.7755215764e-01,-6.2691843510e-01,-5.7876938581e-01,-2.9659077525e-01,-3.4351599216e-01,-6.0933873057e-02,-1.6763405874e-02,-1.3369528949e-01,-9.5063082874e-02,-3.3902543783e-01,-2.0019197837e-02,-3.2046976686e-01,-4.2734059691e-01,-1.8207272887e-01,-4.5677608252e-01,1.3899743557e-01,-1.2997169793e-01,6.7845575511e-02,-1.4336517453e-01,6.8349234760e-02,1.8286289275e-01,1.5879327059e-01,2.4396257102e-01,1.4201565087e-01,1.7856404185e-01,-1.7469596863e-01,-1.8465032801e-02,-2.2118309140e-01,4.3880071491e-02,-3.9675682783e-01,-5.4761546850e-01,-4.2126590014e-01,-3.2359445095e-01,-3.2817584276e-01,-6.1537574977e-02,-1.2475151569e-01,-1.4156748354e-01,-1.2200558931e-01,-2.1442618966e-01,-1.4137564600e-01,-4.5661905408e-01,-5.4759001732e-01,-4.6975356340e-01,-5.0937902927e-01,-3.4747993946e-01,-2.1629032493e-01,-4.7933541238e-02,-1.0262738168e-01,-8.5687987506e-02,-4.7368466854e-01,-2.5351306796e-01,-5.3894829750e-01,-1.4511691034e-01,1.0032573342e-01,-2.0703281462e-01,-3.8595640659e-01,1.9249634817e-02,1.4844398201e-01,1.1952546984e-01,-9.9418982863e-02,-8.6842486635e-03,1.6689230502e-01,-6.2283001840e-02,2.7498736978e-01,-2.5550168753e-01,-2.4042080343e-01,-2.7878072858e-01,-1.1694291979e-01,-3.7211111188e-01,-2.0824532211e-01,-6.9696551561e-01,-3.1936505437e-01,7.8472107649e-02,-2.7088558674e-01,1.1911017448e-01,-1.8121559918e-01,3.1889518723e-03,9.2798091471e-02,1.5400798619e-01,-7.0326425135e-02,-3.0342108011e-01,-4.9224710464e-01,-6.5104645491e-01,-4.0540406108e-01,-4.5952305198e-01,-2.1723970771e-01,-3.8503911346e-02,-3.8680478930e-01,-6.0479599237e-01,-5.3644251823e-01,-5.3701961040e-01,-4.7897744179e-01,-4.2943826318e-01,-1.4619990252e-02,-2.3903799057e-01,-1.6633951664e-01,-1.2173520401e-02,1.7366799712e-01,1.4083766937e-01,4.4520523399e-02,-2.8719145060e-01,-1.5641064942e-01,2.5521662831e-01,1.4096333086e-01,3.1821081042e-01,-2.8341543674e-01,3.7320265174e-01,5.9983420372e-01,-3.1327456236e-02,-2.3024310172e-01,-2.0553858578e-01,1.2310954044e-03,-2.4751515687e-01,-1.7302846536e-02,-7.1220688522e-02,-9.5728762448e-02,-8.5505366325e-02,-2.0003801584e-01,1.0356714576e-01,-5.1941435784e-02,-1.8547831476e-01,-5.5459606647e-01,-6.0650438070e-01,-4.5088443160e-01,-3.1968185306e-01,-2.1367111802e-01,-4.8853021860e-01,-4.8623287678e-01,-4.9611443281e-01,-2.9959666729e-01,-2.7897772193e-01,-4.9066320062e-01,-6.0933601856e-01,-3.4268054366e-01,-4.3094761670e-02,-3.4708503634e-02,-1.2458347529e-01,-2.9492989182e-02,1.3328458369e-01,-6.9686517119e-02,-3.1239807606e-01,-1.0612957925e-01,1.9814500213e-01,2.1120095253e-01,9.8705753684e-02,1.6310757399e-01,2.0867419243e-01,-5.0518572330e-02,-1.2191804126e-02,-7.7988863923e-03,-1.8743948638e-01,1.1123170704e-01,-2.3362800479e-02,-1.2005158514e-01,4.3097905815e-02,-1.2398092449e-01,-1.9701336324e-01,9.8373377696e-03,-5.8861658908e-03,3.2035205513e-02,-1.3930533826e-01,-4.7322866321e-01,-6.3304257393e-01,-3.2859113812e-01,-2.1851211786e-01,-2.9762062430e-01,2.1827932447e-02,-2.4943852425e-01,-2.0809912682e-01,-3.2982617617e-01,-3.2250887156e-01,-4.3912807107e-01,-2.0642599463e-01,-4.1353943944e-01,-3.1480595469e-01,7.8996486962e-02,9.1561578214e-02,-3.1260418892e-01,-1.2535876036e-01,-9.6397064626e-02,-3.4385882318e-02,-2.5371572375e-01,7.3865354061e-02,1.2340340763e-01,9.1513663530e-02,-1.9963347586e-04,-3.4746836871e-02,-2.7371221781e-01,-1.5737886727e-01,-4.5693144202e-02,-2.2186772549e-04,1.5048371255e-01,-1.6476415098e-01,-2.2263582051e-01,7.0675462484e-02,-4.1781583428e-01,-1.7924642563e-01,-6.7541770637e-02,-3.5272502899e-01,-2.8381285071e-01,-5.6251966953e-01,-9.4987535477e-01,-4.9326965213e-01,-4.3865442276e-01,-3.1358423829e-01,-4.7926443815e-01,-2.6666092873e-01,-8.5129022598e-02,-3.2794716954e-01,-6.3493394852e-01,-6.0243529081e-01,-4.5467919111e-01,-4.4043290615e-01,-4.1659510136e-01,-5.5165559053e-01,-3.8849544525e-01,-2.9369416833e-01,-3.2185086608e-01,-1.8033587933e-01,-2.1352690458e-01,-5.0264871120e-01,5.5406671017e-02,-6.4022675157e-02,1.1566432565e-01,1.9098471105e-01,1.2169126421e-01,-2.1878686547e-01,-1.2632864527e-02,-1.0735852271e-01,-1.6099722683e-01,8.8626973331e-02,-7.1764111519e-02,-1.6824094951e-01,-3.4222189337e-02,-4.1622164845e-01,-5.2330625057e-01,-1.2972538173e-01,6.6655233502e-02,-5.2528496832e-02,-6.8304556608e-01,-7.9956430197e-01,-9.4368547201e-01,-3.7442806363e-01,-3.8215911388e-01,-3.4540107846e-01,-5.7866406441e-01,-1.5881213546e-01,-1.3639463484e-01,-1.6677384079e-01,-3.4417614341e-01,-2.3954173923e-01,-2.4678364396e-01,-7.7743969858e-02,-3.6965888739e-01,-5.2324354649e-01,-2.3062957823e-01,-3.3262172341e-01,-1.6334825754e-01,-6.1069210060e-03,-6.2191170454e-01,-1.9317732751e-01,-7.0682913065e-02,4.8558694124e-01,-2.0143871009e-01,-8.6185522377e-02,-1.1189495027e-01,-4.7142274678e-02,-2.2433994710e-01,-2.2553135455e-01,-1.5699371696e-01,-2.5703343749e-01,-4.2582941055e-01,-2.7787309885e-01,-1.1392831802e-01,-6.1103171110e-01,-4.2056053877e-01,-2.4566872418e-01,1.0348231345e-01,-2.8167554736e-01,-6.4268743992e-01,-6.8423825502e-01,-6.0377031565e-01,-2.0118792355e-01,-4.3437102437e-01,-3.7624952197e-01,-3.6097517610e-01,-1.7582274973e-01,-2.4633128941e-01,-6.9918692112e-02,-2.5775063038e-01,-1.7206022143e-01,-2.3489269614e-01,-3.3035095781e-02,-1.6102056205e-01,-9.4669416547e-02,-5.6861843914e-02,9.5817543566e-02,2.2177284956e-01,3.2686138153e-01,-2.5879901648e-01,-2.7691641450e-01,-1.7157627642e-01,9.7601413727e-02,9.7584255040e-02,1.5879924595e-01,5.5736396462e-02,-2.1454241872e-01,2.3426841199e-01,-7.2562135756e-02,-9.4397179782e-02,-3.0961522460e-01,-2.2336533666e-01,-2.3292076588e-01,1.1932573467e-01,-4.2473423481e-01,-3.8995763659e-01,1.9683234394e-01,1.8203305081e-02,-1.3664667308e-01,-3.6956369877e-01,-5.0650465488e-01,-3.7204173207e-01,-3.9168599248e-01,-1.8585921824e-01,-2.3424328864e-01,-3.3686909080e-01,-2.4176567793e-01,-1.9139784575e-01,-4.2761743069e-02,-2.9221421480e-01,-1.5299388766e-01,-2.0490582287e-01,-4.8749122769e-02,-2.4717038497e-02,-3.0584961176e-02,2.9917474836e-02,3.5510635376e-01,4.7077667713e-01,3.9576038718e-01,-1.3768561184e-01,-4.5609366894e-01,-4.7604063153e-01,7.7450931072e-02,4.3711167574e-01,2.5011324883e-01,-3.0670199543e-02,3.0981734395e-01,1.2556676567e-01,-1.4707551897e-01,-1.8223123252e-01,-1.7021681368e-01,-1.1052408814e-01,-7.6697483659e-02,-1.6959415376e-01,2.8154069558e-02,-3.3043101430e-01,-1.1702084541e-01,-3.9875847101e-01,-1.6036975384e-01,2.3985560983e-02,-1.7854204774e-01,-1.5681932867e-01,-2.0173668861e-01,-1.2982890010e-01,-2.6262384653e-01,-3.8822305202e-01,-1.0475254059e-01,1.0243932158e-01,-2.1525833011e-01,-1.4951223135e-01,4.8429422081e-02,-9.0235352516e-02,-2.0531963557e-02,1.6102577746e-01,-1.2639071047e-01,1.4512263238e-01,3.8757845759e-01,2.9768764973e-01,1.0276966542e-01,6.3229221106e-01,1.2740300596e-01,2.1389739215e-01,3.1833285093e-01,4.1694161296e-01,7.3180747032e-01,4.9311903119e-01,4.7341081500e-01,-3.1225327402e-02,-1.6645874828e-02,-1.4465162158e-01,-3.6939233541e-01,-1.6236455739e-01,-2.5569209456e-01,-2.0838767290e-01,-1.1906380951e-01,-1.8781459332e-01,-3.3959326148e-01,-2.2025474906e-01,-3.0238845944e-01,-2.4209538102e-01,-1.2135133147e-01,-2.0111864805e-01,-3.8468420506e-01,-3.8277071714e-01,-1.3022117317e-01,-2.6968425512e-01,-1.2869764864e-01,1.5934742987e-01,-9.6835374832e-02,-5.0656318665e-02,4.2408710718e-01,-2.6479277015e-01,-2.4806702137e-01,4.6369645745e-02,2.4963699281e-01,2.7516001463e-01,2.1151751280e-02,-1.2738754973e-02,7.0618249476e-02,1.3921171194e-03,8.6478300393e-02,-1.7157144845e-01,1.8744802475e-01,5.5957132578e-01,5.1155984402e-01,8.2497322559e-01,7.1272784472e-01,3.7536230683e-01,2.2009101510e-01,-3.2044652104e-01,-1.9315825403e-01,-2.3728605360e-02,-3.0086252093e-01,-5.8818448335e-02,2.7073135972e-01,-4.7722023726e-01,-3.4466674924e-01,-4.7699546814e-01,-2.3556809127e-01,-2.2704739869e-01,-2.1046024561e-01,-1.9132213295e-01,-3.4397691488e-01,-1.3869102299e-01,-4.2331600189e-01,-2.4206337333e-01,-1.2343311310e-01,-1.0111848824e-02,4.3382696807e-02,-2.5038873777e-02,-1.1842806824e-02,-1.0062453151e-01,-1.6432555020e-01,3.8290023804e-01,4.9368003011e-01,1.5497943759e-01,3.0505955219e-01,2.9079174623e-02,9.9561348557e-02,-1.2794943154e-01,-9.6046186984e-02,7.6071463525e-02,1.8152834848e-02,3.9257520437e-01,2.2972066700e-01,5.6322836876e-01,3.5772415996e-01,5.7840228081e-01,2.5871378183e-01,-7.1119882166e-02,7.4373953044e-02,-2.4661445618e-01,-3.3578552306e-02,5.9469562024e-02,1.4519235492e-01,-2.6020842791e-01,-3.2720088959e-01,-3.7132117152e-01,-1.7259645462e-01,-4.1191521287e-01,-3.5042798519e-01,-4.7959920764e-01,-4.6194750071e-01,-3.7029233575e-01,-4.0868934989e-01,-3.2407489419e-01,-2.5125804543e-01,-5.5636454374e-02,-6.6579565406e-02,1.8308913708e-01,-3.5937041044e-02,-3.3862012625e-01,7.1824535728e-02,3.2184606791e-01,4.5166882873e-01,1.6722173989e-01,1.5422661602e-01,2.5181907415e-01,-9.3810074031e-02,6.4193397760e-02,1.2673364580e-01,4.9333581328e-01,2.1063135564e-01,7.1103161573e-01,3.8453844190e-01,1.1441506445e-01,1.4096520841e-01,4.7494149208e-01,6.3032102585e-01,4.4727015495e-01,9.0103417635e-02,4.2420864105e-02,1.5683409572e-01,1.7198637128e-01,4.6913553029e-02,-1.0662867129e-01,-1.4963012934e-01,-1.7441910505e-01,-1.7451241612e-01,-3.0825227499e-01,-1.4887718856e-01,-1.1502258480e-01,-4.6750724316e-01,-4.9492180347e-01,-2.6801156998e-01,-3.0320313573e-01,-3.3060902357e-01,-7.6241940260e-02,-2.0617468655e-01,-7.5160682201e-02,-7.9533852637e-02,-2.5313088298e-01,-1.9201728702e-01,1.0723205656e-01,2.6865321398e-01,4.9669008702e-02,1.6228549182e-01,-1.5325652063e-01,-3.4554484487e-01,-2.3194862902e-01,9.0437591076e-02,1.2241846323e-01,6.2067979574e-01,3.7883365154e-01,2.4074819684e-01,4.3969991803e-01,4.1976711154e-01,5.7000058889e-01,2.7793291211e-01,6.1250811815e-01,3.4317135811e-01,2.4630478024e-01,-7.8919649124e-02,-1.1678636819e-01,-7.4036694132e-03,-1.2015265226e-01,-3.2852515578e-02,-2.5403711200e-01,-2.1084071696e-01,-2.9778215289e-01,4.7510065138e-02,-1.2575596571e-01,-5.2578425407e-01,-4.5857492089e-01,-1.9694192708e-01,-1.9171106815e-01,-2.7183864266e-02,-2.2569517791e-01,-2.2335164249e-01,-1.8137100339e-01,-6.6081590950e-02,-4.0683123469e-01,-4.7890841961e-01,-7.0119857788e-02,7.1648724377e-02,1.9047880173e-01,2.3399917781e-01,2.0256774127e-01,1.7984803021e-01,3.4826484323e-01,5.2688580751e-01,7.5854235888e-01,6.4792931080e-01,6.5759688616e-01,3.9946672320e-01,2.8048625588e-01,3.8062798977e-01,2.3272517323e-01,4.4442814589e-01,3.4392887354e-01,3.2744356990e-01,1.8714764714e-01,1.5867653489e-01,-2.3565450311e-01,6.3848719001e-03,-2.4250164628e-01,-1.4199072123e-01,-1.9168542698e-02,-1.5337212384e-01,-8.2726739347e-02,-4.3089011312e-01,-1.3616943359e-01,-4.5740273595e-01,-2.8130424023e-01,-2.9311999679e-01,-2.0624762774e-01,-5.1559664309e-02,-2.9141271114e-01,-2.6756599545e-01,-4.1274261475e-01,-1.1036784947e-01,-2.8316953778e-01,-3.4281560779e-01,-2.5667217374e-01,-1.4442990720e-01,-1.7416024208e-01,2.8113644570e-02,2.2863121331e-01,5.0039917231e-01,2.9737731814e-01,7.8751206398e-01,7.8288948536e-01,3.3287832141e-01,1.3356178999e-01,5.9759634733e-01,1.6011992097e-01,3.0781167746e-01,6.0870824382e-03,3.7086032331e-02,2.4902990460e-01,4.1212266684e-01,4.5721000433e-01,2.1665172651e-02,-3.0799555779e-01,-4.1357591748e-01,-3.9131033421e-01,-4.8639047146e-01,-2.2703671455e-01,-1.0843070596e-01,-8.9926056564e-02,-5.5630177259e-01,-3.5401239991e-01,-3.6910852790e-01,-8.9506573975e-02,-2.0905047655e-01,-1.5141856670e-01,1.1286723614e-01,-7.7954217792e-02,-4.8480823636e-02,-9.2549279332e-02,1.1656405777e-01,-1.9886752963e-01,1.1964556575e-01,2.6257279515e-01,2.5778037310e-01,1.7993720248e-03,-2.4395313114e-02,2.5407898426e-01,4.3231537938e-01,7.6087647676e-01,8.5884732008e-01,5.4816007614e-01,5.2020376921e-01,5.8450126648e-01,5.4854881763e-01,2.3642900586e-01,3.3021241426e-01,6.1563181877e-01,1.2440250814e-01,1.9635477662e-01,2.4731087685e-01,1.9704604149e-01,-2.1799191833e-02,-2.9809206724e-01,-3.3062615991e-01,-4.3076795340e-01,-2.7458301187e-01,-1.9548904896e-01,-2.3893241584e-01,-2.2809390724e-01,-6.8676662445e-01,-4.0446424484e-01,-2.6532593369e-01,-2.0934876800e-01,-1.8667180836e-01,-4.1149154305e-02,7.3581263423e-02,3.0957318842e-02,1.0337334871e-01,2.4648914114e-02,1.2155860662e-01,1.3578487933e-01,3.3756339550e-01,1.7452184856e-01,2.5754240155e-01,9.8908655345e-02,3.7076160312e-02,1.4607909322e-01,2.4665386975e-01,1.4138579369e-01,4.1516873240e-01,4.7981983423e-01,3.6656826735e-01,5.2584993839e-01,-7.3182709515e-02,6.2902495265e-02,1.9134942442e-02,1.2013436854e-01,2.9526567459e-01,3.0213215947e-01,3.0538323522e-01,1.0134185851e-01,6.3211560249e-02,2.8348803520e-01,1.9511577487e-01,-5.1940307021e-02,-2.0327955484e-01,-1.4418572187e-01,-2.3140701652e-01,-3.6289379001e-01,-5.1237469912e-01,-2.8138288856e-01,-1.9197757542e-01,-2.8526780009e-01,-3.2642748207e-02,-1.8564262986e-01,-2.2039521486e-02,-8.3983100951e-02,6.2651135027e-02,-3.5138856620e-02,-5.5158425122e-02,1.9454199076e-01,1.9985468686e-01,3.0239027739e-01,2.4408553541e-01,1.7823579907e-01,1.6021145880e-01,7.2570323944e-02,3.0840557814e-01,2.5682178140e-01,1.0966073722e-01,2.8792777658e-01,-1.0301536880e-02,2.0705923438e-01,4.9638416618e-02,1.4978189766e-01,2.0080143213e-01,3.8122656941e-01,4.1187715530e-01,5.0616067648e-01,3.3669111133e-01,1.6645786166e-01,1.7344942689e-01,1.9817835093e-01,4.7252353281e-02,-4.4078916311e-02,-5.2397184074e-02,-1.2966793776e-01,-1.4632998407e-01,-1.3272415102e-01,-1.8023049831e-01,-1.8149268627e-01,-1.6878698766e-01,-1.5268288553e-01,-6.8191707134e-02,-2.1258391440e-01,-1.2134861201e-01,1.7435723543e-01,-4.5239109546e-02,1.0740022361e-01,2.0053149760e-01,3.9328295738e-02,8.8296078146e-02,1.5301625431e-01,4.4997951388e-01,2.9846236110e-01,2.9695531726e-01,4.9756783247e-01,5.8117496967e-01,4.1912057996e-01,1.5658669174e-01,1.3314487040e-01,2.6244342327e-01,2.6910039783e-01,2.3523789644e-01,2.3555029929e-01,4.0470156074e-01,4.5246180892e-01,4.1731545329e-01,4.0116202831e-01,2.0899111032e-01,1.5331846476e-01,2.1335425973e-01,7.7052965760e-02,-1.6600131989e-01,-1.2524667382e-01,-1.7358717322e-01,-4.7513939440e-02,6.9721303880e-02,-4.1112046689e-02,-1.6938574612e-01,-5.1884254208e-04,-1.6261029243e-01,-8.2577675581e-02,-1.1442879587e-01,-2.8433911502e-02,8.8018417358e-02,-7.0512607694e-02,1.3386909664e-01,2.0795501769e-01,1.1727312207e-01,-1.3899073005e-01,4.9352128059e-02,9.8512336612e-02,4.8827394843e-02,-3.7689238787e-02,9.6582368016e-02,1.1123992503e-01,2.7384364605e-01,2.1477827430e-01,-2.6741124690e-02,-2.7249831706e-02,3.6154490709e-01,5.0606620312e-01,3.8103115559e-01,3.5627165437e-01,4.6321722865e-01,5.0188016891e-01,4.7505059838e-01,3.9666619897e-01,2.3809626698e-01,1.6930431128e-01,9.4236031175e-02,-3.2407816499e-02,2.4814506993e-02,-1.4853638411e-01,8.4137767553e-02,-8.3578690886e-02,-7.7251277864e-02,-2.4890782312e-02,-2.5527319312e-01,-1.9587424397e-01,-8.8838338852e-02,-2.0206320286e-01,-1.9095978141e-01,-1.7921896279e-01,-4.0787655860e-02,5.4942391813e-02,-6.4322285354e-02,1.1734849215e-01,4.5567385852e-02,-6.9810360670e-02,9.7537524998e-02,6.7345902324e-02,1.7955809832e-01,1.0911051929e-01,1.5735194087e-01,1.3192029297e-01,1.9106183201e-02,3.2783728093e-02,2.1070529521e-01,3.9053362608e-01,2.2657956183e-01,3.7328258157e-01,5.0673198700e-01,3.7206512690e-01,3.2528755069e-01,6.5665638447e-01,4.8744004965e-01,2.7238765359e-01,1.9520267844e-01,1.8505197763e-01,4.0420275927e-01,3.3542677760e-01,5.2979510278e-02,-2.9042111710e-03,3.5683590919e-02,-7.9059362411e-02,-4.5734494925e-02,-1.5209837258e-01,-1.1101438105e-01,-3.9377558231e-01,-5.2385587245e-02,3.5335753113e-02,-9.7688488662e-02,-1.0151899606e-01,1.1442653090e-01,2.9410266876e-01,2.0567061007e-01,1.8799857795e-01,-3.3321525902e-02,3.2136026770e-02,2.4404506385e-01,2.0148728788e-01,1.0559649765e-01,1.0027211905e-01,1.6077718139e-01,2.5668430328e-01,3.8220021874e-02,9.5671387389e-03,2.3827634752e-01,3.0586996675e-01,3.8276425004e-01,4.7042605281e-01,4.5667445660e-01,3.2015818357e-01,5.5141347647e-01,5.9665459394e-01,4.6822699904e-01,5.0065773726e-01,4.5153933764e-01,4.1156023741e-01,3.9357414842e-01,3.2903301716e-01,1.6622141004e-01,9.2605166137e-02,1.0040144436e-02,1.5799755231e-02,-7.9756677151e-02,-3.0803644657e-01,-3.9670649171e-01,-3.0657830834e-01,7.0605329238e-03,6.4432621002e-02,-1.9957069308e-02,6.0360122472e-02,-2.1707694978e-02,2.2488987446e-01,1.0820897669e-01,1.2075094879e-01,1.4680922031e-01,4.9609631300e-02,1.1594089121e-01,1.0266712308e-01,6.5823212266e-02,9.9271230400e-02,1.6531772912e-02,-1.3432385027e-01,5.9413012117e-02,1.4110320807e-01,3.1943216920e-01,2.2734862566e-01,2.8038823605e-01,9.1622471809e-02,1.2310462445e-01,3.2552415133e-01,5.0185042620e-01,5.8547341824e-01,5.9410774708e-01,4.0631249547e-01,3.8101494312e-01,3.9270403981e-01,5.5611181259e-01,4.0561163425e-01,2.6725438237e-01,2.6351219416e-01,3.9341427386e-02,2.2945752367e-02,-1.6093814373e-01,-2.4072763324e-01,-2.2428947687e-01,-4.7769552469e-01},
