// Trained NN with pyneural
#define NN_INPUT_NODES 1600
#define NN_HIDDEN_NODES 100
#define NN_OUTPUT_NODES 26

const float NN_HIDDEN_BIAS[NN_HIDDEN_NODES] = {-5.3493726254e-01,-7.5450181961e-01,-4.2451582849e-02,1.0392926633e-02,-9.8589092493e-01,3.1561970711e-01,4.8864325881e-01,-6.8738770485e-01,-9.3628332019e-02,-2.3601034284e-01,2.4019598961e-02,1.1016255617e+00,2.2833704948e-01,5.2338725328e-01,-7.3540955782e-02,4.0029868484e-01,-2.0799718797e-01,1.8256111443e-01,-3.5126641393e-01,4.5234072208e-01,4.6036991477e-01,-4.0558362007e-01,3.9387410879e-01,-1.1088972092e+00,1.4159421623e-01,-1.5752780437e-01,-8.9607387781e-02,6.4585763216e-01,-1.0737098455e+00,2.9337969422e-01,5.5616432428e-01,-2.8634718060e-01,4.3324241042e-01,5.9184223413e-01,2.2293239832e-01,-5.7933002710e-01,-6.5271824598e-01,1.6614690423e-01,3.4467000514e-02,2.6280838251e-01,-4.9356955290e-01,5.3564882278e-01,1.8420383334e-01,-2.3127418756e-01,8.9253447950e-02,8.0044120550e-02,-1.4422076941e-01,-1.5327723324e-01,-2.9185011983e-01,-5.2087563276e-01,6.4587526023e-02,-4.8215010762e-01,1.5404033661e-01,-7.1925371885e-01,-6.5196084976e-01,4.2828065157e-01,6.9720780849e-01,-2.1021249890e-01,1.9175097346e-02,7.8511947393e-01,-5.8973950148e-01,-1.2080553174e-01,-5.9153711796e-01,-1.3368061781e+00,2.2932423651e-01,-1.3587756455e-01,9.7464211285e-02,-4.3907389045e-01,6.3226290047e-02,8.2287269831e-01,-5.5973094702e-01,-7.6105579734e-02,5.7241064310e-01,-5.9961879253e-01,-8.5918925703e-02,-7.2249490023e-01,-3.7459895015e-01,8.4154963493e-01,4.5431146026e-01,-8.2379454374e-01,1.6683092713e-01,-1.8578885496e-01,3.7184053659e-01,4.6148756146e-01,3.5488027334e-01,1.0008784384e-01,-5.3580957651e-01,-3.3989593387e-01,1.5990409255e-01,-1.9880140200e-02,5.1765042543e-01,-4.5223265886e-01,-7.0174777508e-01,-3.0214893818e-01,-6.3300207257e-02,-9.7559750080e-02,-1.1282576323e+00,-6.9219630957e-01,5.6108903885e-01,1.4478105307e-01};
const float NN_HIDDEN_WEIGHTS[NN_HIDDEN_NODES][NN_INPUT_NODES] = {
	{3.9692290127e-02,4.3443515897e-02,1.0844157636e-01,1.7122939229e-02,-1.1187260039e-02,-4.1704466566e-03,2.1621891856e-01,2.1132355928e-01,6.3542790711e-02,7.9257465899e-02,6.2350578606e-02,-6.3951514661e-02,-6.9612085819e-02,-1.5237678587e-01,-1.0570420325e-01,-2.1193818748e-01,-9.5154434443e-02,-1.4047341049e-01,-1.4977891929e-02,2.4502482265e-02,-6.7117810249e-02,-6.6589755006e-03,-1.9754352048e-02,-1.5204261243e-01,-8.8698357344e-02,-8.4965206683e-02,-3.6944605410e-02,3.7135006860e-03,1.7314070463e-01,7.5163520873e-02,-6.7913287785e-04,-1.3570390642e-01,-1.0661529750e-01,1.5370413661e-02,-1.0688371211e-01,1.9416620489e-03,-2.9720172286e-02,-1.2078604847e-01,8.1831276417e-02,5.2651152015e-02,-1.0831417143e-01,1.0426225513e-01,-4.6939492226e-02,-3.1407114118e-02,6.9333575666e-02,9.4456054270e-02,7.4984438717e-02,1.5822632611e-01,9.9584773183e-02,-6.7442886531e-02,1.6679754853e-01,-1.0330156982e-01,-9.2497756705e-03,9.5846774057e-03,-1.0810930282e-01,1.3109928695e-03,-1.3151983917e-01,-1.3756601512e-01,-4.1677989066e-02,1.0485555977e-02,1.0648891330e-01,-1.3303875923e-01,-1.3755469024e-01,-3.9922609925e-02,1.1195473373e-01,5.8150500059e-02,1.2136440724e-01,4.3755110353e-02,1.2669177353e-01,-8.6814314127e-02,3.1067190692e-02,-2.9368149117e-02,-2.0317891240e-01,-1.1926079541e-01,-8.1913083792e-02,-6.6322587430e-02,1.1104607582e-01,6.2250196934e-03,-4.0231313556e-02,-9.0885549784e-02,2.8114289045e-02,-6.6524498165e-02,9.5040298998e-02,-8.1526666880e-02,6.6007543355e-03,1.3333004713e-01,7.4064381421e-02,4.9238082021e-02,9.2890761793e-02,6.8729139864e-02,2.3464702070e-01,1.0229371488e-02,-2.6726936921e-02,-2.6756814122e-01,-1.5356828272e-01,-1.3377597928e-01,-2.9788201209e-03,-7.5574807823e-02,-4.0992181748e-02,-5.3807005286e-02,-3.0303061008e-02,-2.7748500928e-02,-1.4529332519e-01,-8.3668008447e-02,4.4624149799e-02,-5.2450474352e-02,1.1067818105e-01,-7.2048217058e-02,-6.0959219933e-02,2.2317459807e-02,-1.7491443083e-02,-1.6341477633e-01,-1.0371711850e-01,-2.1978020668e-02,9.4830445945e-02,5.5030487478e-02,-3.4153584391e-02,-1.3396568596e-02,-1.7122553254e-04,4.2857471853e-02,9.2768326402e-02,4.9320597202e-02,-7.8245580196e-02,7.7707683668e-03,-4.8412658274e-02,-1.8431367353e-02,6.7680694163e-02,8.9878626168e-02,2.1801792085e-02,8.4681190550e-02,-1.8871979788e-02,1.4468370937e-02,-2.5843383744e-02,-1.5626807511e-01,-1.4096413553e-01,3.0299695209e-02,-1.0898117721e-01,2.6030950248e-02,-1.5758529305e-01,-3.4436922520e-02,-1.0755438358e-01,-6.8398416042e-02,-7.0776030421e-02,1.0250917822e-01,-4.1044645011e-02,2.3560856935e-03,1.3864876330e-01,9.9261239171e-02,-9.2367902398e-03,-1.1728008837e-01,-1.6341885924e-01,4.0773328394e-02,-7.8849606216e-02,-2.6329560205e-02,7.7525310218e-02,-3.7044540048e-02,1.1533927172e-01,5.6052159518e-02,1.0294309258e-01,6.3114620745e-02,-4.4974714518e-02,4.5147690922e-02,8.2248993218e-02,-4.5777250081e-02,-1.2749692798e-01,4.1327975690e-02,-4.5742187649e-02,1.3710455596e-01,1.2081947178e-01,1.5449658036e-01,1.3801333308e-01,-1.0149784386e-02,6.4079619944e-02,-6.4884394407e-02,2.4197483435e-02,9.6057496965e-02,-1.0962542892e-01,-3.7643291056e-02,-1.4870756865e-01,-1.9211781025e-01,-4.7163240612e-02,5.3390730172e-02,9.8956152797e-02,5.0252892077e-02,-1.0015471280e-01,-1.3441157341e-01,5.1529206336e-02,2.7814455330e-02,1.1006443202e-01,-9.8605968058e-02,-5.2220225334e-02,-1.0769006610e-01,6.7201614380e-02,4.8492897302e-02,-1.1078266799e-01,-6.1440329999e-02,-3.1034430489e-02,-8.1542413682e-03,-7.3399278335e-03,1.2180005014e-01,5.1742039621e-02,-2.6185233146e-02,-7.7978581190e-02,6.2768891454e-02,1.1786246672e-02,2.2216888145e-02,4.5955404639e-02,-6.8851746619e-02,5.3244218230e-02,1.4222647250e-01,8.1122376025e-02,1.1207236350e-01,6.0529060662e-02,4.5134127140e-02,8.8216900826e-02,3.9710465819e-02,-5.3100153804e-02,-3.0589466915e-02,-1.6181665659e-01,-1.6935881972e-01,-3.9368115366e-02,-2.1353182197e-01,-1.6075059772e-01,-1.9192279875e-01,-2.0698982477e-01,-9.0354867280e-02,1.1611820757e-01,-1.8122108653e-02,-3.6699771881e-02,-1.0538962483e-01,-1.3709887862e-01,-1.2265237421e-01,-1.1091440171e-01,1.9382651895e-02,-4.1192334145e-02,-2.4694126099e-02,-8.4940902889e-02,-1.0155197978e-01,1.1822398752e-01,7.2724670172e-02,1.1055665091e-03,1.1125825346e-01,5.0021916628e-02,-3.7380460650e-02,-1.2991422415e-01,-1.3290221989e-01,-1.4249795675e-01,-7.2730295360e-02,-6.2313493341e-02,-5.9502720833e-02,2.0385068655e-01,9.6429787576e-02,2.1005173028e-01,1.8967525661e-01,2.1523518860e-01,1.4951159060e-01,-3.9536230266e-02,3.6408435553e-02,-1.4653938822e-02,-1.1532651633e-01,-1.2778216600e-01,1.6964977980e-01,1.0543867201e-01,1.0274145752e-02,-2.0070848987e-02,1.0118541121e-01,-3.7993032485e-02,-1.1055196822e-01,-7.7614210546e-02,-1.7526743934e-02,-4.4228404760e-02,-6.4109854400e-02,-3.9925277233e-02,6.3318856061e-02,1.7759535462e-02,3.5402804613e-02,-4.9863360822e-02,-8.0899097025e-02,8.9952252805e-02,-1.6186298802e-02,8.7037064135e-02,7.2965048254e-02,6.8068586290e-02,-1.1697125435e-01,3.8894437253e-02,1.4321037568e-02,-6.0363531113e-02,-1.4831845462e-01,-2.1318539977e-02,-1.4608231187e-01,9.8255453631e-03,7.3901638389e-02,5.1487203687e-02,4.5540396124e-02,1.6716314852e-01,3.3128548414e-02,-4.3995227665e-02,-8.2191273570e-02,1.3038819656e-02,-8.5077226162e-02,-5.7484973222e-02,-3.2696727663e-02,1.3362737000e-01,-1.1432264000e-01,-7.0983991027e-02,-1.5159836411e-01,-1.7794702947e-01,-1.9200177491e-01,-6.3840568066e-02,-2.1421227604e-02,-1.0717120022e-01,-7.9707153141e-02,2.0878650248e-02,-1.3573719561e-01,-6.5573371947e-02,-1.7152642831e-02,4.9855452031e-02,-8.4398195148e-02,-5.3359925747e-02,9.7702600062e-02,-5.0660436973e-03,8.0351091921e-02,3.5625908058e-03,-1.0531497188e-02,-1.8780760467e-01,-8.4499493241e-02,-6.6731877625e-02,-2.7247101068e-01,-2.3775807023e-01,-7.5944639742e-02,-5.2866041660e-02,5.2808530629e-02,-1.9873119891e-03,1.6222251952e-01,1.6977821290e-01,-3.2385166734e-02,1.3270913064e-01,3.9653491229e-02,8.2508526742e-02,1.6808974743e-01,-1.7005899921e-02,2.3743776977e-01,1.4759419858e-01,-6.0720309615e-02,-8.4498085082e-02,-5.7207848877e-02,-1.6689234972e-01,-3.6139166355e-01,-2.4213670194e-01,-1.3587245345e-01,-3.2304361463e-01,-2.2594675422e-01,-4.8726122826e-02,-1.0844118148e-01,-2.4049349129e-02,-7.0291131735e-02,6.6417239606e-02,7.1410566568e-02,-1.1521919072e-01,8.7619647384e-02,-8.5054427385e-02,-1.3965207152e-02,-8.9944534004e-02,-6.2977746129e-03,8.1064872444e-02,7.4602379464e-03,-1.9093230367e-01,-1.9574189186e-01,-1.8368054926e-01,-2.1567358077e-01,-1.4242015779e-01,-1.9278410077e-01,-8.7841555476e-02,8.7827153504e-02,-1.1025425047e-01,3.3878408372e-02,1.2752030790e-01,1.5525250137e-01,-2.3978549987e-02,1.9899923354e-02,2.4165946245e-01,3.0186548829e-01,1.5156191587e-01,1.5607821941e-01,-1.3255177997e-02,-1.3897843659e-02,-2.5671863556e-01,-3.6392769217e-01,-3.8381002843e-02,-1.2173823267e-01,-1.7737063766e-01,-5.3083140403e-02,-1.5191000886e-02,-4.1167996824e-02,-9.4098672271e-02,6.3099056482e-02,-6.2867030501e-02,1.0244064778e-01,5.5546961725e-02,-1.2518647313e-01,-3.0852716882e-03,-1.1990407854e-01,-9.5004523173e-03,-7.5978912413e-02,-1.0453356057e-01,-1.7179211974e-01,-3.0370423198e-01,-2.8702679276e-01,-3.2411465049e-01,-2.3608976603e-01,-3.4711259604e-01,-5.0967734307e-02,-1.4284855127e-01,-1.9717594981e-01,-2.6874834299e-01,-8.9752964675e-02,2.7621522546e-02,1.8644310534e-01,2.1310833097e-01,2.3764908314e-01,2.5443768501e-01,2.4855674803e-01,2.9610624909e-01,2.2904454172e-01,-6.6475994885e-02,-2.0017699897e-01,-3.8512220979e-01,-3.5559377074e-01,-2.6473221183e-01,-8.6768500507e-02,-2.1727219224e-01,-1.7038901150e-01,-2.2463141009e-02,-1.6233545542e-01,-5.0770491362e-02,-9.3336045742e-02,-1.8697893247e-02,-9.8651640117e-02,-2.9586723074e-02,-1.0009212419e-03,-7.3052965105e-02,2.3360438645e-02,-1.5295724571e-01,-6.5740972757e-02,-1.4363962412e-01,-1.8419727683e-01,-6.2974013388e-02,-8.3657845855e-02,-3.5021415353e-01,-3.1980997324e-01,-7.0005744696e-02,-3.3688175678e-01,-2.0202201605e-01,-2.1487644315e-01,-1.0321614891e-01,-2.1492558718e-01,1.1247600615e-01,1.3029125333e-01,1.1822498590e-01,1.3098540716e-02,1.5335340798e-01,3.3350038528e-01,4.0117123723e-01,3.7540695071e-01,1.2750947475e-01,-3.1716352701e-01,-3.0581220984e-01,-3.4442755580e-01,-3.8975107670e-01,-1.3482385874e-01,-1.7225869000e-01,-8.7396636605e-02,-6.7241555371e-05,-7.5708672404e-02,-1.8566476181e-02,-1.2985818088e-01,-6.6702440381e-02,8.9612901211e-02,-3.1220033765e-02,3.2164238393e-02,-5.2296485752e-02,-2.9436739162e-02,-1.3190826774e-01,-6.9183439016e-02,-1.4083342254e-01,-2.6317790616e-03,-1.4255414903e-01,-1.2896710075e-02,-2.0490525663e-01,-1.4545248449e-01,-2.7719736099e-01,-3.2108315825e-01,-2.0763775706e-01,-1.3605883718e-01,-2.1794530749e-01,-1.2611183524e-01,3.2930321991e-02,4.0702123195e-02,1.1519910395e-01,2.9561793804e-01,1.9482722878e-01,2.3912027478e-01,1.0431584716e-01,4.0846410394e-01,2.8699791431e-01,-1.3479582267e-03,-3.1027534604e-01,-3.2521376014e-01,-2.3967848718e-01,-1.0920473374e-02,-1.8374627829e-01,-1.7102505267e-01,-1.5869094431e-01,-3.5390187055e-02,-1.0196750611e-01,-4.6442352235e-02,-2.4651358835e-03,2.3140687495e-02,3.8808643818e-02,-7.2449050844e-02,-6.3706092536e-02,-1.5450821817e-01,-9.9239014089e-02,-5.9194937348e-02,-1.4892692864e-01,-1.0518347844e-02,5.9593763202e-02,6.0694850981e-02,-1.1583536118e-01,-1.2712879479e-01,-1.7135027051e-01,-7.1442112327e-02,-1.4898860455e-01,-2.8012734652e-01,-9.6555620432e-02,-7.6649092138e-02,3.7077222019e-02,1.2593601644e-01,1.6585668921e-01,2.4597075582e-01,1.1682172120e-01,2.4731607735e-01,2.1314851940e-01,5.7205617428e-01,1.9608035684e-01,-9.0847708285e-02,-1.7065677047e-01,-3.9321166277e-01,-4.5719593763e-01,-3.2593277097e-01,-2.0839266479e-01,-3.7337169051e-01,-3.7046143413e-01,-2.0680575073e-01,-8.4239572287e-02,-1.4870601892e-01,-7.4410811067e-02,-7.3281630874e-02,1.6879867762e-02,-1.5950012021e-03,-6.3564270735e-02,-1.4390796423e-01,-1.8679891527e-01,-4.1353352368e-02,-5.2294813097e-02,6.4186275005e-02,7.2612658143e-02,-7.3990348028e-04,-1.1145783216e-01,-1.3693302870e-01,-2.5477522612e-01,-5.2045580000e-02,5.5683981627e-02,-7.4141137302e-02,-1.0423540324e-01,-3.1688768417e-02,1.1256380379e-01,1.1269906163e-01,2.0760233700e-01,2.5305697322e-01,1.3090549409e-01,1.0908047110e-01,1.6532796621e-01,5.1889729500e-01,2.0854963362e-01,3.8081217557e-02,-1.7394502461e-01,-4.3726667762e-01,-3.6216652393e-01,-1.8786190450e-01,-2.0435501635e-01,-3.7432870269e-01,-3.7967997789e-01,-3.1474956870e-01,-2.7579341549e-03,7.9410992563e-02,-3.0767606571e-02,4.9956861883e-02,-3.1255152076e-02,-2.5890711695e-02,-2.2507017478e-02,-1.8625807762e-01,-6.4424686134e-02,1.4470856637e-02,7.7872462571e-02,5.2803222090e-02,4.2459540069e-02,1.0698486120e-01,1.5588539839e-01,-2.5234434009e-01,-2.8783028945e-02,-6.5432861447e-02,-2.5134319067e-01,3.8232583553e-02,-3.0560407043e-01,-2.2155733407e-01,-5.7055905461e-02,-9.0933188796e-02,2.8119063377e-01,6.2703378499e-02,1.6617159545e-01,1.8976910412e-01,3.2336461544e-01,4.3061560392e-01,2.8610384464e-01,7.2977326810e-02,-1.0943287611e-01,-7.1569524705e-02,-3.5675522685e-01,1.2661382556e-01,-1.7897394300e-01,-2.3496240377e-01,-2.8247711062e-01,-1.4061313868e-01,-2.2206272185e-01,-1.9773350656e-01,-1.0519391298e-01,8.3506949246e-02,-9.3002483249e-02,1.1277340353e-01,-8.7676115334e-02,-8.7477341294e-03,-9.7252748907e-02,-2.0878184587e-02,-1.5366123617e-01,-1.1708782613e-01,1.9106468558e-01,1.0819263756e-01,1.4352905750e-01,9.7418434918e-02,-5.3570415825e-02,-5.9231355786e-02,-2.5077372789e-01,-1.0574272275e-01,-3.9799398184e-01,-3.9744597673e-01,-3.4748294950e-01,-2.7805647254e-01,5.7925760746e-02,9.4631975517e-03,-7.4479453266e-02,1.7184971273e-01,1.9376213849e-01,2.5585663319e-01,1.9664312899e-01,1.8698281050e-01,8.0676466227e-02,2.0269563794e-01,-1.8515716493e-01,-2.7146168053e-02,-2.6622125506e-01,-1.6685414314e-01,-1.8216210604e-01,-3.8422927260e-01,-1.5028505027e-01,-6.0984116048e-02,-7.5391940773e-02,5.2344445139e-02,-9.4752468169e-02,2.5934990495e-02,-2.2480243444e-01,-1.8537780643e-01,-1.6261231899e-01,3.6499124020e-02,-1.3496698439e-01,8.7926136330e-03,-8.8956162333e-02,-2.7648042887e-03,2.7659806609e-01,-2.1265205741e-01,-9.6520937979e-02,-1.4384797215e-01,-3.8142651320e-01,-1.4744921029e-01,-2.4962198734e-01,-4.6622547507e-01,-4.2523235083e-01,-9.7570613027e-02,8.0761916935e-02,-1.8240636587e-01,1.8281942606e-01,-1.5852471814e-02,1.2736816704e-01,4.9784243107e-01,2.5975450873e-01,2.1474309266e-01,-8.7282024324e-02,1.5220375359e-01,-3.9968028665e-02,-8.8294170797e-02,-3.2796761394e-01,-3.0325636268e-01,-4.2552021146e-01,-1.8477901816e-01,-2.0938279107e-02,-1.4260126650e-01,-6.3630938530e-02,-5.7029504329e-02,2.5080952793e-02,-9.6095308661e-02,-1.3547006249e-01,-1.6975662112e-01,-2.1405465901e-02,-1.8747370690e-02,-2.2613078356e-01,3.2965436578e-02,-1.1009290069e-01,-2.3473152518e-01,-6.5211772919e-02,-3.0682334304e-01,2.3011393845e-02,-2.1896030009e-01,-6.2104571611e-02,-2.4464386702e-01,-2.8481909633e-01,-2.1746061742e-01,-2.1660050750e-01,-1.3049705327e-01,-6.2418133020e-02,6.2505409122e-02,2.3767153919e-01,2.7836632729e-01,9.7706727684e-02,3.3278107643e-01,1.2878501415e-01,1.5898641944e-01,1.0692466050e-01,1.2138979137e-01,6.7217499018e-03,-1.0583637655e-01,-3.8436758518e-01,-2.6622763276e-01,-2.4495962262e-01,-1.0522744805e-01,-2.2689040750e-02,-1.3645192981e-01,-9.1001398861e-02,-3.3628918231e-02,5.3259242326e-02,-1.0352011025e-01,-6.6435359418e-02,4.6976260841e-02,-2.0686343312e-01,1.1267067492e-01,-1.6971966624e-01,-1.5920031071e-01,-2.4862825871e-01,-1.2476766109e-01,-1.7137694359e-01,-1.9097593427e-01,-1.6259698570e-01,-3.8237655163e-01,-1.9693814218e-01,-1.4588409662e-01,-2.1234105527e-01,-3.3320492506e-01,-3.4251543880e-01,-1.1972776055e-01,-1.6313061118e-01,1.1698733270e-01,1.6249614954e-01,2.0101174712e-01,7.6922732405e-03,2.9414036870e-01,-1.1379688978e-02,4.4293820858e-02,-1.1382284760e-01,2.0521269739e-01,-3.0121016502e-01,7.9063259065e-02,-1.7694205046e-01,-3.4974470735e-01,-2.1434587240e-01,-3.8554929197e-02,-7.3640290648e-03,-1.3957645744e-02,6.7221976817e-02,-1.0645740479e-01,-3.2619945705e-02,-1.2808202207e-01,6.4276166260e-02,-1.6215026379e-01,-1.3349154592e-01,7.2234332561e-02,-1.2893716991e-01,-7.4290126562e-02,-1.5838083625e-01,-3.1214240193e-01,-1.8470181385e-03,-2.3759768903e-01,-9.9595226347e-02,-1.9147324562e-01,-1.2265962362e-01,-2.8135037422e-01,-3.3126860857e-01,-4.5864939690e-01,-4.2889034748e-01,-4.6099340916e-01,-1.8670684099e-01,1.1998179555e-01,9.5120474696e-02,1.7504613101e-01,6.6711097956e-02,3.9106321335e-01,7.8755922616e-02,-1.3036610186e-01,-3.4494932741e-02,2.0033574104e-01,-1.8296056986e-01,9.8833598197e-02,-1.5049001575e-01,-2.4933752418e-01,-2.4207581580e-01,1.0178968310e-01,8.2628224045e-03,-3.3995069563e-02,-1.4877406880e-02,-5.6375905871e-02,-1.2489648908e-01,2.2992521524e-02,-5.8330040425e-02,-1.0030363500e-01,-1.7824971676e-01,2.1373922005e-02,-8.5926048458e-02,-9.5539808273e-02,-3.6055755615e-01,-1.9727355242e-01,-1.8559984863e-01,-1.5374945477e-02,3.3476948738e-02,-3.2468721271e-01,-1.2093713135e-01,-3.3092990518e-01,-3.5904529691e-01,-3.6932569742e-01,-4.3586179614e-01,-2.8544476628e-01,-6.6342227161e-02,-3.4718129784e-02,1.0264200717e-01,1.6915853322e-01,2.3738065362e-01,1.5108747780e-01,2.8099492192e-01,2.5785678625e-01,-7.2979400866e-03,1.0276927054e-01,8.7922073901e-02,2.7669599280e-02,5.3135710768e-03,-2.6868498325e-01,-5.0465012901e-03,-3.6626541987e-03,4.0790565312e-02,4.9872279167e-02,7.1598384529e-03,1.0037967563e-01,8.3092682064e-02,-5.9105497785e-03,-1.7745645344e-01,-1.5068517625e-01,-1.1309622973e-01,-1.7232935131e-01,-1.2409380823e-01,-1.0567882098e-02,-1.5285776556e-01,4.5637089759e-02,-2.4064470083e-02,-1.6966174543e-01,1.5028330684e-01,-1.1323462240e-02,-6.5785847604e-02,-3.0095750093e-01,-2.7207216620e-01,-2.5622633100e-01,-3.9835548401e-01,-2.4091228843e-01,-1.2662570179e-01,-5.0373438746e-02,-9.5813997090e-02,1.6813254356e-01,8.4889441729e-02,4.1104289889e-01,2.0746219158e-01,1.0032086074e-01,1.3319583237e-01,2.9323396087e-01,1.2563669123e-02,1.2071763724e-01,3.2808489632e-03,-2.4537559599e-02,2.3509282619e-02,1.8154222518e-02,-3.5078246146e-02,-6.0370612890e-02,2.8460131958e-02,6.8893246353e-02,8.0926027149e-03,-1.2102384120e-01,-1.5590333939e-01,-1.2661957182e-02,-3.0945820734e-02,5.3933877498e-02,-8.5742838681e-02,1.9405919313e-01,-2.3580020666e-01,-1.2120519578e-01,2.9124006629e-02,-4.3408349156e-02,6.0295529664e-02,-2.1578218043e-01,-9.8420381546e-03,-5.3305238485e-02,-2.1453900635e-01,-2.5954931974e-01,-1.7260296643e-01,-3.2815665007e-01,-4.4826105237e-01,-1.5916770697e-01,-4.1843873262e-01,-3.0392453074e-02,-1.0353124142e-01,3.2608771324e-01,1.1801636219e-01,-6.4546622336e-02,1.7437116802e-01,4.3041327596e-01,3.2588046044e-02,4.6177718788e-02,1.8021787703e-01,3.8773664832e-01,-5.4703917354e-02,8.1488817930e-02,1.4408892021e-02,8.2934144884e-03,-7.1539178491e-02,-9.2925652862e-02,9.2573642731e-02,-5.2301939577e-02,-1.1919604242e-01,-1.9859823585e-01,-2.1234621108e-01,6.4556360245e-02,8.1895187497e-02,2.6499340311e-02,-4.4282983989e-02,1.4569572173e-02,3.6211293191e-02,2.4171633646e-02,1.9742560387e-01,7.6915048994e-03,-7.4337564409e-02,-1.1054639518e-01,2.8383648023e-02,-6.1860170215e-02,-1.3524703681e-01,-2.8262177110e-01,-3.1980997324e-01,-8.4759995341e-02,-2.0557029545e-01,-2.8633382916e-01,-1.8632894754e-01,2.2797267139e-01,8.5198976099e-02,-1.2041606940e-02,3.9138746262e-01,1.1080111563e-01,1.2202594429e-01,4.4905599207e-02,2.2010533512e-01,2.4351261556e-01,2.1758149564e-01,2.1749199927e-01,-3.8097105920e-02,-4.7093383968e-02,-6.5708048642e-02,-6.6636480391e-02,-1.1028370820e-02,-1.0786098987e-01,-2.0071272552e-01,-1.0539010167e-01,-1.4382787049e-01,-8.0539658666e-02,1.1016699672e-01,9.9997386336e-02,2.3207564652e-01,2.3495350033e-02,2.3948822916e-01,5.2736286074e-02,2.4140624702e-01,2.4416983128e-01,4.3310336769e-03,-1.0289315879e-01,1.0987233371e-02,-8.2384988666e-02,-3.1627812982e-01,-3.2210719585e-01,-2.4999392033e-01,-3.4755903482e-01,-2.0172150433e-01,-1.3109739125e-01,7.5066424906e-02,1.2643241882e-01,1.1592696607e-01,-6.1446763575e-02,1.5155918896e-01,8.8055692613e-02,5.6698303670e-02,2.1707339585e-01,1.7017416656e-01,1.5626162291e-01,4.0936093777e-02,1.0169018060e-01,-1.1524450965e-02,1.5496428311e-01,-5.8369405568e-02,-9.7745254636e-02,4.0631595999e-02,-2.0342299715e-02,-5.1463115960e-02,2.8033398092e-02,-2.2621208802e-02,-7.0251628757e-02,1.9801874459e-01,5.9428505599e-02,9.5806317404e-03,-8.1127844751e-02,-4.9367267638e-02,2.6128771901e-01,2.0035794377e-01,4.7738250345e-02,2.5098025799e-01,2.0743015409e-01,1.9419435412e-02,1.5911304951e-01,1.1803001165e-02,-1.9131964445e-01,-3.9641961455e-01,-4.6758112311e-01,-4.6041929722e-01,-2.0308075845e-01,-1.5654011071e-01,-1.5317182243e-01,8.5566312075e-02,-1.0361563414e-01,-2.1664863825e-01,-1.5654279292e-01,1.6737692058e-02,1.9391694665e-01,2.1039767563e-01,2.1104001999e-01,2.7667176723e-01,7.1513459086e-02,1.5707643330e-01,-5.6316554546e-02,8.9733652771e-02,-2.0923720673e-02,5.1056449302e-03,2.1855339408e-02,-1.2811637484e-02,6.7206382751e-02,-1.0045469552e-01,-3.4991405904e-02,6.7750006914e-02,5.6224614382e-02,2.5473617017e-02,-1.1958669871e-01,5.2561547607e-02,6.6508710384e-02,2.8361371160e-01,1.2306049466e-01,1.6500966251e-01,5.5512357503e-02,1.8386977911e-01,-1.8504059315e-01,-1.6830188036e-01,-1.9813172519e-01,-3.9842003584e-01,-4.0950387716e-01,-3.5823842883e-01,-3.2351371646e-01,-1.6166450083e-01,-1.2723696232e-01,-1.3807664812e-01,-2.2146233916e-01,-8.8098384440e-02,-1.1988543719e-01,1.9575033337e-02,1.4530357718e-01,2.1630971134e-01,6.7718043923e-02,2.1312244236e-01,8.2022517920e-02,2.0957222208e-02,2.3926796857e-03,-1.1657614261e-01,-1.2694723904e-01,5.4528858513e-02,3.8107324392e-02,-1.0660427809e-01,-1.0939240456e-01,-1.2845899165e-01,4.2053785175e-02,4.2712464929e-02,1.3891771436e-01,-9.0825669467e-02,2.5987876579e-02,1.5442325175e-01,-1.4684189856e-01,9.7490444779e-02,2.7918624878e-01,4.1611215472e-01,8.8730834424e-02,-5.8874525130e-02,-2.9662269354e-01,-1.3225045800e-01,-2.1576714516e-01,-2.9013594985e-01,-3.0556020141e-01,-3.7482458353e-01,-2.9152160883e-01,-8.2135327160e-02,9.2537337914e-03,-1.0233089328e-01,-1.0436020046e-01,-2.0478327572e-01,-3.3370882273e-01,2.0018875599e-02,9.6881344914e-02,3.1436482072e-01,1.9352871180e-01,-4.4350404292e-02,8.9616321027e-02,1.5260507166e-01,-7.9202704132e-02,-7.5244881213e-02,-6.1327390373e-02,7.2718754411e-02,-1.0563477129e-01,3.9063133299e-02,-4.3233752251e-02,7.9113796353e-02,7.2061279789e-03,7.4541635811e-02,1.4715260267e-01,1.3232772052e-01,-1.0735848546e-01,1.9285815954e-01,8.6521737278e-02,8.7971903384e-02,2.0940192044e-01,1.9914488494e-01,2.0895601809e-01,7.7619433403e-02,-1.3611091673e-01,-1.3211403787e-01,-2.1200585365e-01,-4.2170584202e-02,-3.1237921119e-01,-4.5653024316e-01,-2.3796975613e-01,-6.2813490629e-02,1.0908266157e-01,-2.8375092149e-01,-2.6378563046e-01,-2.1792182326e-01,-1.7526259646e-02,-9.7805999219e-02,1.4532041736e-02,4.9847371876e-02,-7.8172832727e-02,1.1361637712e-01,9.1076819226e-03,8.0710045993e-02,-6.9189406931e-02,-2.9841722921e-02,7.9853363335e-02,-5.3216900676e-02,4.9181304872e-02,-1.4453336596e-01,-2.2886337712e-02,5.6736487895e-02,-4.4755492359e-02,-1.1309591681e-01,-5.2398245782e-02,-1.4380435646e-01,-1.8870124221e-01,-1.8277816474e-02,-4.4903442264e-02,-6.0114461929e-02,1.9004671276e-01,2.6037919521e-01,1.9786962867e-01,2.5469148532e-02,7.1990124881e-02,-5.6006846717e-04,-2.4857914448e-01,-2.1044436097e-01,-3.4990507364e-01,-2.7562943101e-01,-2.2300669551e-01,-1.9640682638e-01,1.0598511994e-01,5.8405894786e-02,2.3845065385e-02,5.0369374454e-02,2.9286625981e-01,-8.5147432983e-02,-3.4731213003e-02,-3.8371309638e-02,-5.6102620438e-03,-8.3840154111e-02,-1.0030066222e-01,1.3030605018e-01,-1.9036324322e-01,-1.0460807383e-01,4.8571795225e-02,-6.6714249551e-02,-8.6597286165e-02,-1.1172975414e-02,-3.4798610955e-02,7.0925392210e-02,-4.3930686079e-03,3.7143599242e-02,1.0091490299e-01,-4.8273868859e-02,-1.7386923730e-01,8.8975764811e-03,1.1301369965e-01,6.9227442145e-02,2.7667024732e-01,3.8048207760e-01,1.0655298084e-01,1.4332465827e-01,2.8532380238e-02,-1.3893669844e-01,-1.0162893683e-01,-1.2494891882e-01,-3.5051122308e-01,-1.2743884325e-01,-3.2751104236e-01,-1.0827587545e-01,-1.4046478271e-01,1.4434069395e-01,1.8735525012e-01,7.8713953495e-02,-2.8926284984e-02,-2.8112938628e-02,-1.3289174065e-02,4.7176618129e-02,6.6498969682e-03,-5.1648765802e-02,3.8597647101e-02,-5.2742090076e-02,-4.7030825168e-02,6.8618074059e-02,-6.0300603509e-02,7.8284732997e-02,9.7132384777e-02,3.9545111358e-02,-8.2013040781e-02,-1.0157728940e-01,-1.2029014528e-01,-1.1784230173e-01,-1.5071414411e-02,1.7703425139e-02,2.4515807629e-02,5.7320248336e-02,-2.5651124120e-01,1.5461941063e-01,2.7088519931e-01,5.6605022401e-02,1.1205171049e-01,4.4984108536e-04,6.8685151637e-02,-8.9202925563e-02,-8.8235400617e-02,-2.1344099939e-01,-1.2055897713e-01,-1.2207201123e-01,-1.8150587380e-01,-2.8216227889e-01,9.6831191331e-03,2.6470059529e-02,-2.9149286449e-02,3.2382211089e-01,3.2891127467e-01,7.2706237435e-02,-7.9993039370e-02,-1.8766582012e-01,1.0175617784e-01,-1.4516729116e-01,-1.3960886002e-01,-7.4669368565e-02,-7.3657289147e-02,3.1786303967e-02,-8.6925275624e-02,9.4274997711e-02,1.4383056201e-02,1.6304966062e-02,-1.2127657980e-01,-1.2219990045e-01,4.2345705442e-03,3.0415279791e-02,-6.4827531576e-02,-2.3459715769e-02,1.1399857700e-01,4.1558269411e-02,1.2484230846e-01,1.5570914745e-01,1.1103780568e-01,1.2355414778e-01,2.3579387367e-01,2.2022952139e-01,1.4002375305e-01,5.4492857307e-02,-8.2710653078e-04,-3.1343158334e-02,-2.9789203405e-01,-2.5137239695e-01,-1.7645509541e-01,5.8806750923e-02,-1.9659595191e-01,7.5641416013e-02,1.4568489790e-01,1.5458641946e-01,-3.1020095572e-02,9.4346046448e-02,3.9755526930e-02,-3.9219982922e-02,7.7531367540e-02,5.7172272354e-02,-1.1762677133e-01,-1.0866596550e-01,-1.3660109043e-01,-1.0918480344e-02,-8.2963621244e-03,-3.0679481104e-02,-2.8966497630e-02,-1.2852768414e-02,-7.2524778545e-02,1.0690193623e-01,-7.1687586606e-02,-1.1067121476e-01,-2.3645525798e-02,1.2679491937e-01,1.0668788850e-01,1.4219386876e-01,-8.5701054195e-04,2.4707388878e-01,2.8272756934e-01,1.5469191968e-01,2.4316105247e-01,2.9417030513e-02,1.3340893388e-01,1.9145318866e-01,7.6811484993e-02,2.0072111487e-01,-3.6531470250e-03,6.2370274216e-02,-1.3746127486e-01,-9.6104495227e-02,-1.0566743463e-01,-1.0863321833e-02,1.1517204344e-02,1.6857025027e-01,1.7886275053e-01,1.4149552584e-01,1.3070675731e-01,7.1173608303e-02,1.8671073020e-01,-3.4188903868e-02,-4.9489747733e-02,-2.2013478447e-03,-8.5176259279e-02,-2.0224701613e-02,-1.4491260052e-02,-3.7561237812e-02,-2.2802872583e-02,3.3507667482e-02,-9.4058834016e-02,-7.6898008585e-02,-1.2653864920e-02,-4.8795513809e-02,1.3902692497e-01,2.2684311494e-02,-2.7307877317e-03,-3.7307318300e-02,6.8178124726e-02,1.1043885723e-02,2.7438290417e-02,1.2248285115e-02,1.1666196585e-01,-1.1779216118e-02,1.1284905672e-01,1.1673943698e-01,-3.1772863120e-02,1.1360785365e-01,1.2470999360e-01,-6.0750726610e-02,9.5406956971e-02,6.0252606869e-02,8.7491706014e-02,-1.2312170118e-01,-9.7831256688e-02,-6.1506066471e-02,1.5464930236e-01,1.7011238635e-01,1.8696543574e-01,-3.8143482059e-02,1.0896932334e-01,-6.7219302058e-02,-8.0051337136e-04,-9.0101137757e-02,-5.5165473372e-02,7.1889348328e-02,-8.2652948797e-02,1.0396213830e-01,-9.9684111774e-02,-4.9660131335e-02,-2.5068921968e-02,-9.8479531705e-02,-6.7762436811e-04,-1.1284295470e-01,-4.7297861427e-02,-6.1814181507e-02,-7.9282000661e-02,7.3203511536e-02,1.2221781164e-01,-5.0159409642e-02,-1.0485927574e-02,3.7500794977e-02,3.6147739738e-02,-1.1438626098e-03,1.2829230726e-01,-1.8086964265e-02,1.0297597200e-01,1.1143957824e-01,-6.3499957323e-02,-5.4373368621e-02,5.6330550462e-02,-5.3799815476e-02,-4.6577181667e-02,-1.3190451264e-01,-1.0993766040e-01,5.2133623511e-02,2.3522390053e-02,7.1812704206e-02,-7.4336733669e-03,9.4308257103e-02,1.6685628891e-01,-1.0746750981e-01,-5.4095529020e-02,-3.1701222179e-04,-1.4001001604e-02,5.0872802734e-02,2.3044792935e-02,9.7082182765e-02,4.2317513376e-02,-3.4953128546e-02,-7.2532042861e-02,3.3458940685e-02,5.6577958167e-02,1.0024552792e-01,1.0154423118e-01,5.4884016514e-02,-5.0793059170e-02,6.9482602179e-02,-1.0235513002e-01,-2.1340750158e-02,-4.3680366129e-02,8.9859902859e-02,2.8136299923e-02,1.0837635398e-01,1.0455438495e-01,9.6677346155e-03,3.1604059041e-02,6.8932347000e-02,-8.8514089584e-02,-6.6898286343e-02,-7.0888638496e-02,8.9349016547e-02,1.7701637000e-02,3.2069254667e-02,-9.7433455288e-02,-9.7608178854e-02,1.0839997232e-01,7.1162268519e-02,-6.7001655698e-02,4.9764988944e-03,-2.5073718280e-02,-4.0490524843e-03,4.6784836799e-02,4.4885102659e-02,2.3013768718e-02,-2.4652553722e-02,1.1881681532e-01,9.5139592886e-02,-9.7149208188e-02,-1.5068233944e-02,-2.8883526102e-02,6.6030792892e-02,2.9008744285e-02,-8.8177904487e-02,-4.0862791240e-02,2.4892697111e-02,4.5599158853e-02,-1.0023731738e-01,-4.2420353740e-02,-5.6724496186e-02,-7.0123985410e-02,-1.0671638697e-01,-3.7832170725e-02,-4.9876846373e-02,1.1556620151e-01,-5.4675690830e-02,3.7406299263e-02,7.2894662619e-02,5.4168052971e-02,8.2891210914e-02,-1.1484733224e-01,-1.0265644640e-01,4.1768912226e-02,6.8368128268e-04,-1.0948311538e-01,1.2646750547e-02,-9.1655321419e-02,3.6020282656e-02,4.2535979301e-02,-1.9960720092e-02,-3.8788828999e-02,2.0684795454e-02,8.7534599006e-02,4.5164518058e-02,9.1502189636e-02,-7.9928301275e-03,1.6947166994e-02,-7.4222490191e-02,-1.1705410480e-01,1.1216724664e-01,-4.3273724616e-02,7.3394022882e-02,2.6363745332e-02,-6.2213260680e-02,6.8952232599e-02,8.4500849247e-02,-1.2884256430e-02,5.2022866905e-02,1.1809684336e-02,4.9593169242e-02,8.1325404346e-02,-7.7357314527e-02,-9.2249833047e-02,-1.0213496536e-01,9.3119986355e-02,8.1015108153e-03,8.7352015078e-02,1.1595407501e-02,-1.7495755106e-02,1.3855241239e-01,1.1835273355e-01,2.0522886515e-01,1.3038536906e-01,1.7898803949e-01,4.5066334307e-02,1.6903243959e-01,1.1202552170e-01,1.6328832507e-01,5.4284971207e-02,1.6309997067e-02,2.9390021227e-03,-6.5007314086e-02,-2.3195838556e-02,-1.5775546432e-02,7.1492977440e-02,6.0781165957e-02,2.5982582942e-02,4.8799943179e-02,-4.8157583922e-02},
	{4.4879801571e-02,-1.4717990160e-01,5.1850397140e-02,-4.1289497167e-02,-8.6287699640e-02,-6.5393694676e-03,5.3548548371e-02,6.3603430986e-02,1.0157454014e-01,1.0478010774e-01,7.7576830983e-02,-1.2644430995e-01,-2.5511286221e-03,2.9438911006e-02,3.2009221613e-02,-5.7622708380e-02,-7.3601320386e-02,1.3651588559e-01,4.8229407519e-02,4.7235354781e-02,7.7023737133e-02,4.7253005207e-02,-1.2467600405e-01,7.2817355394e-02,-1.6001151875e-02,-1.3556729257e-01,-6.8589232862e-02,-1.3312982023e-01,-1.5840288997e-01,2.5726525113e-02,9.0824970976e-03,-9.8936565220e-02,4.5768044889e-02,-5.5821537971e-02,4.8841044307e-02,8.9382668957e-03,-9.2124771327e-03,-8.2441873848e-02,6.5632782876e-02,8.1061854959e-02,-1.6182281077e-02,9.8060861230e-02,3.3881589770e-02,8.0122940242e-02,4.9307882786e-02,5.1443781704e-02,8.0774493515e-02,1.4550481737e-01,1.7144596577e-01,5.7563565671e-02,3.9046745747e-02,3.7455845624e-02,-3.9490871131e-02,3.9337165654e-02,4.8700556159e-02,1.2138007581e-01,-8.2942306995e-02,-5.8279048651e-02,-7.6456263661e-02,5.5722251534e-02,-2.5771304965e-02,-6.1170753092e-02,6.4195908606e-02,8.1267535686e-02,7.9888571054e-03,-1.9698768854e-01,4.8421952873e-02,1.8505169079e-02,-1.0281670839e-01,-9.1121554375e-02,-2.7875119820e-02,-7.4693880975e-02,5.0278082490e-02,-9.8961651325e-02,3.5984277725e-02,3.6214233842e-03,-1.3887529075e-01,-1.1279950850e-02,-1.0856273025e-01,-1.1878214031e-01,5.4165914655e-02,-4.1290860623e-02,7.7511034906e-02,5.5026508868e-02,-8.4426559508e-02,2.7500145137e-02,-2.0644273609e-02,7.7138490975e-02,1.4696606994e-01,7.5781382620e-02,-1.4162476175e-02,6.9078415632e-02,4.8302076757e-02,5.5071573704e-02,8.3365544677e-02,-1.8660297617e-02,1.6266922653e-01,3.9936829358e-02,8.7783187628e-02,-1.7508156598e-01,-3.0167380348e-02,-9.0464860201e-02,6.0107387602e-02,-2.4490401149e-02,-1.4936552942e-01,-1.0042855889e-01,-1.0003402084e-01,-9.8629012704e-02,-2.0128688216e-01,-1.1386373639e-01,-1.6320492327e-01,2.0305596292e-02,-3.5303797573e-02,2.8806446120e-02,-5.4729795083e-03,-7.5450301170e-02,-6.9838106632e-02,1.8320774660e-02,-9.3879677355e-02,8.5784323514e-02,8.3947941661e-02,-3.2498352230e-02,2.3052109405e-02,1.2491238117e-01,5.2552081645e-02,1.5999485552e-01,1.6643643379e-01,1.6258467734e-01,1.9352297485e-01,5.6016646326e-02,2.8783805668e-02,-1.1116886884e-01,-1.5062277205e-02,-1.4607752860e-01,-2.3954009637e-02,-3.5154819489e-02,2.1260619164e-02,1.0324639082e-01,-7.6786376536e-02,-1.7318800092e-01,-1.4521537721e-01,-8.7324529886e-02,-1.0940101743e-01,-9.3894802034e-02,-1.3724565506e-01,-9.5694720745e-02,-1.5320864320e-01,-2.5823805481e-02,-1.1354944110e-01,-1.1614581198e-01,-1.3435018063e-01,-1.8985530734e-01,-1.6125360131e-01,-2.2979767993e-02,-4.8949219286e-02,-4.3877817690e-02,-5.9228803962e-02,7.5295455754e-02,-1.0363648832e-01,3.6172438413e-02,-5.8594405651e-02,9.5534823835e-02,-6.7313097417e-02,-8.2872681320e-02,-4.9047302455e-03,9.4741843641e-02,-1.9446186721e-02,2.9953034595e-02,1.4499177039e-01,-5.3963981569e-02,-6.6789440811e-02,-1.6891403496e-01,-1.5964095294e-01,-1.2148185819e-01,-2.5941073895e-01,1.7372092605e-01,1.0469094664e-01,1.2669070065e-01,-2.1147204563e-02,9.4078242779e-02,-8.6787037551e-02,-1.4329363406e-01,-1.2743183970e-01,-8.0252416432e-02,-1.4204393327e-01,-1.3313858211e-01,2.2015182767e-03,-7.6837815344e-02,-2.1713617444e-01,-3.3031404018e-02,-6.5181449056e-02,-1.4283049107e-01,-9.2286765575e-02,-1.1156300455e-01,-9.8347574472e-02,-1.2425835244e-02,2.3942958564e-02,3.0747652054e-02,-4.7915466130e-02,8.0788068473e-02,-3.1421873719e-02,-6.0441428795e-03,-5.2343532443e-02,-5.3478501737e-02,-1.4948833734e-02,1.9768193364e-02,7.8024819493e-02,2.4056059122e-01,1.3208432496e-01,1.3635095954e-01,1.1989885941e-02,-9.4962373376e-02,-7.5481213629e-02,-4.5016229153e-02,2.8138505295e-02,-5.0663903356e-02,3.2986219972e-02,-1.1716103554e-01,-3.4421224147e-02,-2.1448117495e-01,-2.5988057256e-01,-1.4003805816e-01,-2.0111444592e-01,-2.8890955448e-01,-1.8244256079e-01,-7.0756696165e-02,3.1291592866e-02,-7.4624463916e-02,-1.8283998966e-01,-9.1235861182e-02,-2.5225025415e-01,-1.6814988852e-01,-1.5429314971e-01,-1.7405597866e-01,-7.6819071546e-03,-3.4167483449e-02,-1.2503059208e-01,-2.0673364401e-01,-1.5229459852e-02,-6.2206637114e-02,-2.2352736443e-02,1.0771153122e-01,4.1056968272e-02,1.1544397473e-01,6.1007235199e-02,1.3130219281e-01,4.0630221367e-02,2.7908604592e-02,8.3336949348e-02,-5.3685937077e-02,-9.4685345888e-02,-3.0355010182e-02,-8.4077022970e-02,-1.4080564678e-01,-3.1308987737e-01,-1.9382384419e-01,-1.7958713695e-02,-1.2156763114e-02,3.5204775631e-02,-1.0276649147e-01,6.3757158816e-02,-1.4319419861e-01,-1.4431984723e-01,-1.9774837792e-01,-8.9995525777e-02,-1.1479931325e-01,-1.9872222841e-01,6.7329206504e-03,-2.5241959095e-01,-1.9020126760e-01,-6.0047481209e-02,-3.9404682815e-02,-6.2499991618e-03,2.3898646235e-02,1.1423463002e-02,-8.7460748851e-02,-3.6002680659e-02,5.7583558373e-03,-1.5558512509e-01,-9.0136237442e-02,6.6389054060e-02,6.3484966755e-02,-2.5004572235e-03,-4.8404131085e-03,5.5378548801e-02,-3.4149680287e-02,7.4271738529e-02,1.8078456819e-01,-5.4003346711e-02,-1.2635489926e-02,-1.9686354324e-02,-6.4964570105e-02,1.6877850518e-02,-9.9132753909e-02,-2.6757869124e-01,-9.6988976002e-02,-5.1664441824e-02,2.1583786234e-02,-9.5535770059e-02,-1.9080273807e-01,-1.3223425485e-02,-1.9896917045e-01,5.0460275263e-02,4.3007481843e-02,-2.3802383244e-01,-2.2554652765e-02,2.2838506848e-02,-2.3108111322e-01,-2.4878476560e-01,-1.3784477115e-01,-1.6628050804e-01,-1.5450343490e-02,-1.5538892150e-01,-1.9093418121e-01,-1.1872199178e-01,-1.0095464438e-01,-4.1964993579e-04,-9.7115315497e-02,-2.0314747095e-01,-1.5449036658e-01,-8.6944170296e-02,7.1372181177e-02,5.5296558887e-02,7.3056250811e-02,4.1223820299e-02,9.9497996271e-02,3.5306431353e-02,3.3214592841e-03,1.1507288367e-01,8.7602704763e-02,-9.7861476243e-02,-2.9192604125e-02,-1.3046392798e-01,-1.2436459213e-01,-8.1795677543e-02,7.2566010058e-02,-1.2864807248e-01,7.3275171220e-02,1.0080361366e-01,5.8518391103e-02,-1.1115424568e-03,2.4923460186e-01,2.1032132208e-02,-1.1810763925e-01,4.2568431236e-03,-7.7476300299e-02,-5.9584438801e-02,-1.5804456174e-01,-2.9698076844e-01,-9.5619678497e-02,-1.4003527164e-01,-4.1480373591e-02,-2.1501944959e-01,2.8136642650e-02,-1.0859288275e-01,-9.6163071692e-02,-1.0535608046e-02,1.0109711438e-01,-6.2993682921e-02,-1.4331920445e-01,-8.2633726299e-02,5.9196054935e-02,-1.5832202509e-02,-1.3247296214e-01,-3.4832041711e-02,2.1014298499e-01,4.3592851609e-02,-6.2084574252e-02,-1.1220089346e-01,-2.7871721983e-01,-1.2351181358e-01,-6.4033150673e-02,-4.0042329580e-02,-9.7048103809e-02,-3.3994652331e-02,1.0334229469e-01,3.3857920766e-01,3.0706039071e-01,1.8333917856e-01,2.4069795385e-02,3.7205278873e-01,2.4983738363e-01,3.2240545750e-01,2.0699363947e-01,1.1422243901e-02,-5.2667349577e-02,-2.8531245887e-02,-1.4624798298e-01,-1.3899858296e-01,-1.2820881605e-01,-1.4291964471e-01,-1.2830640376e-01,-1.2889873981e-01,-1.3127586804e-02,-5.2863489836e-03,8.8303059340e-02,-2.6641720906e-03,4.2197924107e-02,-2.7565609198e-03,-3.5846026149e-03,-7.5568142347e-03,5.3706292063e-02,2.5810504332e-02,-2.1110972390e-02,1.6913315654e-01,6.2254734337e-02,-1.8129397929e-01,-5.7417102158e-02,-2.0928068459e-01,-2.6481321454e-01,-1.7099064589e-01,-5.0002217293e-02,-3.3127921820e-01,-8.3323411644e-02,2.1115945280e-01,5.2469342947e-02,4.7510024905e-01,3.5039165616e-01,1.6772188246e-01,1.5638005733e-01,4.0021747351e-01,9.0245150030e-02,2.2765730321e-01,2.3232491314e-01,1.1215322465e-01,6.3379749656e-02,-3.2009489834e-02,-9.8280729726e-03,-2.2888877988e-01,-3.2955110073e-01,5.9766359627e-02,-2.8899503872e-02,-1.2259496748e-01,1.2854789197e-01,-5.5388472974e-02,1.7443461716e-01,-5.9596315026e-02,-1.8606020138e-02,-1.8784698844e-01,-1.7363834381e-01,6.6916336073e-04,4.0042642504e-02,-4.4096183032e-02,7.0002734661e-02,2.2031396627e-02,1.1425811797e-02,-6.2061473727e-03,-3.5738151520e-02,-9.8863817751e-02,-4.1091199964e-02,2.0847233012e-02,-1.5929330140e-02,-5.3905569017e-02,7.6281368732e-02,1.2519305944e-01,7.9184137285e-02,2.6302009821e-01,2.7092796564e-01,2.0944900811e-01,-8.7991550565e-02,2.2349235415e-01,3.3598151803e-01,2.9653275013e-01,1.4678998291e-01,2.3714700341e-01,1.3902164996e-01,6.2651000917e-02,1.2532041967e-01,-2.9378879070e-01,-1.7255137861e-01,-1.4095409214e-01,1.1972059496e-02,9.2704318464e-02,1.3170623221e-02,1.2877020240e-01,1.0866946727e-01,-1.9071637653e-03,-5.7700376958e-02,6.0425706208e-02,-6.0690216720e-02,8.3019107580e-02,9.0634442866e-02,-6.6017642617e-02,-1.6142625827e-03,4.9244273454e-02,-2.8079735115e-02,-4.2766898870e-02,9.3030318618e-02,-4.9429610372e-02,-3.4007873386e-02,7.5666442513e-02,1.6996886581e-02,2.8095856309e-02,1.8691430986e-01,1.3244409859e-01,1.0422948003e-01,2.9492360353e-01,1.2775173783e-01,2.6544186473e-01,-6.1217524111e-02,2.3899267614e-01,4.9467802048e-02,-9.5675259829e-02,9.2099167407e-02,1.8814714253e-01,1.0522668809e-01,-9.2673553154e-03,-2.8512026183e-03,-8.3813898265e-02,-1.6539229453e-01,-7.1619369090e-02,-2.2210551426e-02,-5.0245158374e-02,9.7328223288e-02,7.2666808963e-02,9.7561687231e-02,9.0782463551e-02,1.2135861069e-01,-6.0523174703e-02,-1.1981145293e-01,-4.0910843760e-02,2.7943234891e-02,8.9075990021e-02,-6.2941521406e-02,-8.5336543620e-02,-5.5943071842e-02,8.4335431457e-02,5.9848763049e-02,-1.2584833801e-01,-1.7529945821e-02,1.1966998875e-01,-1.0948457569e-01,-7.0608884096e-02,-1.5628075600e-01,-1.2386055291e-01,2.2683334351e-01,2.4022260308e-01,-1.4480040967e-01,4.3730661273e-02,-1.2541458011e-01,4.0036208928e-02,-3.0284849927e-02,-8.9801266789e-02,-1.2169960886e-01,-1.0415872186e-01,7.4827089906e-02,3.7770465016e-02,7.5249291956e-02,-1.2430137396e-01,-1.9070260227e-01,-1.7037637532e-01,-5.7481527328e-02,8.3393439651e-02,2.9044268653e-02,-1.4337734878e-01,5.1018446684e-02,1.1298446357e-01,9.7387835383e-02,-7.4882149696e-02,-1.2512050569e-01,-6.5762348473e-02,-5.6830178946e-02,-2.9502725229e-02,-9.0322941542e-02,-1.2678465247e-01,8.2747817039e-02,8.0391794443e-02,1.5258925967e-02,1.1856258661e-01,-3.2228805125e-02,-1.6948691010e-01,-1.3549980521e-01,-2.3315612972e-01,-1.6213051975e-01,-3.1038868427e-01,1.0206943750e-01,1.9561314955e-02,-8.8622733951e-02,-1.5840980411e-01,-7.8901380301e-02,5.7772099972e-03,9.2996425927e-02,7.8850775957e-02,-9.4983048737e-02,-3.4329206683e-03,-2.7382779866e-02,-1.8598269671e-03,9.0275764465e-02,-2.3336975276e-01,-4.3379317969e-02,-1.0560475290e-01,7.2962194681e-02,3.5658765584e-02,-3.1231494620e-02,9.1832038015e-03,3.1835189462e-01,8.5875093937e-02,4.4401329011e-02,6.2734685838e-02,-8.5209727287e-02,7.4617020786e-02,-4.5949298888e-02,-1.8574662507e-01,7.9766726121e-03,-1.2961258180e-02,7.3493868113e-02,1.4713321626e-01,6.1684351414e-02,1.3883641921e-02,-9.7070850432e-02,-2.4049535394e-01,-1.3119231164e-01,-1.1468516290e-01,-8.5428841412e-02,5.1571872085e-02,4.5453127474e-02,9.0675555170e-02,-8.1659361720e-02,4.4315792620e-02,4.4363611378e-03,-2.3409391940e-01,-1.3738341630e-01,6.4389663748e-03,-5.7814095169e-02,-1.9150803983e-01,-7.7570639551e-02,-2.0438675582e-01,1.5332167037e-02,-9.6589982510e-02,-5.4209999740e-02,-1.1385490187e-02,-3.2928898931e-02,-7.4114255607e-02,7.3324218392e-02,-2.6299592573e-03,1.5286394954e-01,-7.7592261136e-02,5.2332762629e-02,1.0842473805e-01,-2.6656094193e-01,-1.1450838298e-02,-8.6045050994e-03,-2.3763260245e-01,-4.5707132667e-02,-5.5698327720e-02,3.4155178815e-02,5.9696577489e-02,3.6154150963e-02,-5.7873656042e-03,-2.4396926165e-01,-2.1753138304e-01,-9.1846451163e-02,-1.4829039574e-01,2.4220703542e-01,1.1675354093e-01,5.1117591560e-02,1.9442559779e-01,1.4120759070e-01,1.3432374690e-03,1.8086291850e-02,9.5843836665e-02,-8.5082165897e-02,-6.4536362886e-02,2.5289902091e-01,-1.1581122130e-01,-1.1358471215e-01,-1.4775890112e-01,8.3600878716e-02,-2.3503911495e-01,-2.0885480940e-01,-2.3620446026e-01,-2.0540857315e-01,-2.9475206509e-02,5.7696845382e-02,-4.8323351890e-02,1.8761488795e-01,-1.0532744974e-01,6.9131955504e-02,6.5286733210e-02,-7.8414626420e-02,-1.0510088503e-01,-1.8085675314e-02,-4.5807741582e-02,-7.5173894875e-03,-1.8989692628e-01,-3.3005487174e-02,4.2254481465e-02,-1.0576613247e-01,7.3283486068e-02,4.4152983464e-03,7.2390913963e-02,1.3348671794e-01,-1.2152486295e-01,1.0313624889e-01,2.3770482838e-01,3.2977402210e-01,2.1276007593e-01,2.2994329035e-01,2.0891897380e-01,3.1762536615e-02,8.1136636436e-03,3.8577418774e-02,7.2691321373e-02,2.2044593096e-01,1.7769400775e-01,2.9646396637e-02,-1.7137761414e-01,-1.6685192287e-01,-2.9394128919e-01,-1.1126826704e-01,-3.8752999902e-01,-3.8924511522e-02,7.9766623676e-02,-9.2341348529e-02,1.2076408416e-01,2.7891692519e-01,-5.8654844761e-02,1.1805301905e-01,-9.4505466521e-02,-2.2527524829e-01,-3.6191891879e-02,1.0254591703e-01,-3.1795740128e-02,-9.4032958150e-02,-7.0791289210e-02,-9.4897783129e-04,-2.2330024838e-01,-3.4369000793e-01,1.0204315931e-01,-4.9996379763e-02,6.7021615803e-02,-1.0530248284e-01,1.1639176309e-01,1.4360350370e-01,4.1164228320e-01,2.0701035857e-01,4.1052159667e-01,2.8555202484e-01,2.3166440427e-01,1.2080606073e-02,1.5387304127e-02,1.1188463867e-01,3.8317778707e-01,3.6489731073e-01,7.1648038924e-02,-4.8057500273e-02,-2.5956249237e-01,-2.7187725902e-01,-3.1926631927e-01,-2.0421966910e-01,-2.8840550780e-01,-5.5264435709e-02,-7.9599827528e-02,-4.7050755471e-02,-1.3458517380e-02,2.9446375370e-01,-1.7336298525e-01,-8.5909694433e-02,-7.2039067745e-02,-2.8426957130e-01,-5.7880796492e-02,-8.4071055055e-02,1.1664858088e-02,1.7502540350e-01,-1.0616608709e-01,-2.6721036434e-01,-1.6714195907e-01,-2.9594030976e-01,8.5924446583e-02,3.8777526468e-02,1.0488577932e-01,-5.8641672134e-02,-2.7296055108e-02,1.3225136697e-01,2.1670429409e-01,3.2736811042e-01,2.7729055285e-01,1.2743194401e-01,-9.0507894754e-02,2.7964135632e-02,-6.3569061458e-02,3.3753033727e-02,2.4016676843e-01,2.8392487764e-01,2.6856669784e-01,1.6141805798e-02,-1.3665634394e-01,-1.5632355213e-01,-2.5917693973e-01,-5.2973568439e-01,-5.9680223465e-01,-9.5498561859e-02,-1.8632283807e-01,-2.1439716220e-02,1.6476850957e-02,2.7594366670e-01,3.0742818490e-02,-2.3955170065e-02,1.8028144538e-01,-6.2179207802e-02,-4.8447970301e-02,-1.0315954685e-01,3.1967237592e-02,-1.2096987106e-02,-2.7531102300e-02,-1.5348391235e-01,-4.4194616377e-02,-2.0816095173e-01,1.4003263786e-02,-3.0137281865e-02,-5.6774649769e-02,-3.8218855858e-02,1.1508855224e-01,1.1990083009e-01,2.1839899942e-02,2.7051302791e-01,3.0367615819e-01,1.5501470864e-01,-2.4305915833e-01,-1.7158094049e-01,-2.4598690867e-01,4.6693347394e-02,9.5895551145e-02,3.2731401920e-01,2.1006524563e-01,3.2842133194e-02,-1.4031986892e-01,2.2423503920e-02,-4.1009065509e-01,-5.6244182587e-01,-6.0854327679e-01,-1.2523849308e-01,-2.5434589386e-01,1.1148644984e-01,-4.2806059122e-02,1.5985366702e-01,3.6864015274e-03,1.4429359138e-01,7.7000312507e-02,-2.5383206084e-02,8.4950804710e-02,5.5254057050e-02,2.6748310775e-02,3.1211280730e-03,-1.2841470540e-01,3.5879842937e-02,-2.5206312537e-01,3.7802807987e-02,-4.6620044857e-02,-4.0214855224e-02,-3.5247541964e-02,-2.5136254728e-02,5.0611890852e-02,-3.9699226618e-02,-1.6464611888e-01,-5.4413676262e-02,1.2668725848e-01,1.0288057849e-02,-3.1422283500e-02,-8.4584452212e-02,8.7596073747e-02,-4.8921585083e-02,6.3881755341e-04,3.2825028896e-01,3.3323523402e-01,-3.5634849221e-02,-2.0914063789e-03,-1.6250067949e-01,-5.4643791914e-01,-6.4151990414e-01,-5.7325160503e-01,-2.8207033873e-01,-3.1648024917e-01,-6.3722267747e-02,-1.0260816664e-01,3.4344592690e-01,-1.8553481996e-01,1.1906898767e-01,1.3064041734e-01,-2.3744302988e-01,3.8398291916e-02,2.3960580584e-03,1.8242651597e-02,-9.7858116031e-02,6.6901847720e-02,3.2154342625e-03,-9.9736981094e-02,-9.5127053559e-02,-9.7057819366e-02,-1.7615576088e-01,2.0732341707e-01,2.0739035308e-01,2.8969101608e-02,-1.4940468967e-01,-2.1036162972e-01,-2.3835086823e-01,4.9358304590e-02,-7.8724987805e-02,-1.9326646626e-01,-1.8248993158e-01,4.7257963568e-02,-1.7176353931e-01,6.6235281527e-02,3.9996364713e-01,2.3721426725e-01,1.9015385211e-01,-3.6395320296e-01,-2.3588043451e-01,-4.5508173108e-01,-4.4371432066e-01,-4.3776938319e-01,-3.0919271708e-01,-1.4593435824e-01,-1.8359087408e-01,-9.9465595558e-03,2.3039111495e-01,-3.7723414600e-02,-5.9812862426e-02,-6.6031023860e-02,-1.4647980034e-01,-1.1523479223e-01,6.6339038312e-02,3.4983068705e-02,-9.7978115082e-04,7.8085169196e-02,2.0244528353e-01,-2.0390339196e-01,-1.8655820191e-01,2.0248131827e-02,4.0082335472e-02,8.1814322621e-03,6.0703780502e-02,-3.3123806119e-02,-6.5225236118e-02,-3.2957594842e-02,-1.5561698377e-01,1.8057467043e-01,-5.9155661613e-02,-3.3976179361e-01,-2.1032169461e-01,-1.1604345590e-01,-2.8475157451e-03,2.4680753052e-01,6.2499868870e-01,1.6310121119e-01,7.2693005204e-02,-1.2663890421e-01,-1.7989461124e-01,-5.3650999069e-01,-4.6381005645e-01,-5.8912670612e-01,-2.8221344948e-01,-3.1508147717e-01,-1.3745237887e-01,-1.1445124447e-01,2.8031525016e-01,1.9264984876e-02,-7.3860652745e-02,-1.3460794091e-01,-2.6833230257e-01,-1.3332007825e-01,8.5012037307e-03,-1.3632216491e-02,4.5340232551e-02,3.8261517882e-02,1.4378640056e-01,-7.3344022036e-02,-1.6855624318e-01,-9.5177866518e-02,1.4266246557e-01,-9.1426946223e-02,-6.5482673235e-03,2.1029850841e-01,9.6723496914e-02,-6.3226777129e-03,-5.0012677908e-02,1.8832069635e-01,7.0973425172e-03,-1.8587155640e-01,-1.3522142172e-01,-1.8223381042e-01,1.3367606699e-01,1.4581745863e-01,3.6427128315e-01,1.9327725470e-01,3.3007270098e-01,-1.0066682100e-01,-1.0004340112e-01,-5.8110874891e-01,-6.3689237833e-01,-6.1776489019e-01,-1.6986404359e-01,-1.9742462039e-01,-6.2630593777e-02,1.1629267782e-01,2.9561100528e-02,7.1521513164e-02,-4.7736100852e-02,-1.3022215664e-01,-2.6685681939e-01,5.6861177087e-02,-1.0834840685e-01,7.2704632767e-03,-1.2102486193e-01,9.3474939466e-02,1.0846062750e-01,-1.9549989700e-01,-6.1592645943e-02,-1.5096289106e-02,1.4115944505e-01,1.1245366186e-01,-1.9770525396e-01,-4.5108120888e-02,1.2992586195e-01,-6.7058309913e-02,-5.8756664395e-02,1.7155990005e-01,-3.1000625342e-02,-9.4142608345e-02,-2.8041362762e-01,-3.3653274179e-01,-1.0470133275e-01,1.2747989595e-01,1.6082663834e-01,9.2528887093e-02,3.0870249867e-01,1.4632733539e-02,-2.7044191957e-01,-3.5411962867e-01,-5.8190566301e-01,-4.2668032646e-01,-2.2669577599e-01,2.3602327332e-02,1.4877620339e-01,-7.2324544191e-02,3.6493417621e-01,-9.4210334122e-02,-1.8358381093e-01,-1.7523388565e-01,-3.4708392620e-01,-1.5863314271e-01,9.7703188658e-02,-7.4079558253e-02,-2.7037534863e-02,-5.3722232580e-02,-1.7652021348e-01,-1.4173142612e-01,-8.3336316049e-02,-1.3381154835e-01,-2.8063321952e-04,-8.0948844552e-02,-6.5657966770e-03,2.3078216612e-01,-2.1248381585e-02,-1.6371112317e-02,2.4317151308e-01,9.8045580089e-03,2.4818686768e-02,-1.8403270841e-01,-1.5376894176e-01,-2.2724179924e-01,7.6720520854e-02,-1.5417665243e-01,-8.5374981165e-02,2.3387891054e-01,3.9463719726e-01,8.9644029737e-02,-2.4259459972e-01,-4.2646947503e-01,-5.6765991449e-01,-3.3325204253e-01,-9.3955442309e-02,5.3674172610e-02,1.3873119652e-01,-1.1704767495e-01,1.1726149917e-01,7.2952881455e-02,-9.8686777055e-02,-3.5934910178e-02,-2.9260775447e-01,-1.1464872211e-01,-8.3422243595e-02,6.6065113060e-03,1.3582497835e-01,-4.4866837561e-02,2.3051876575e-02,-1.5468966961e-01,-6.1782240868e-02,4.0428344160e-02,1.1844907887e-02,-1.1450103484e-02,-1.0012654960e-01,2.7601579204e-02,2.5909667835e-02,-1.9665696527e-05,1.2677666545e-01,4.7187055461e-03,1.1003368348e-01,-4.8036850989e-02,-7.4801690876e-02,-3.2148677111e-01,5.8168247342e-02,1.0134548694e-01,1.8981218338e-01,1.4130106568e-01,3.1944745779e-01,1.5187755227e-02,-2.3267005384e-01,-3.2731476426e-01,-3.1051820517e-01,-3.5152757168e-01,-2.2253060341e-01,-2.7732926607e-01,-1.4965881407e-01,2.3104666173e-01,7.1284212172e-02,6.8940855563e-02,-6.2659062445e-02,-1.5072055161e-01,-2.6330217719e-01,-7.5052641332e-02,8.7117262185e-02,9.4241276383e-03,2.1235534549e-01,-4.9594704062e-02,2.6408391073e-02,-2.0185962319e-01,-3.7862889469e-02,-2.4321973324e-01,-1.3303013146e-01,-1.1137965322e-01,1.5844416618e-01,7.8947208822e-02,1.7921952903e-01,-9.0835146606e-02,-5.7715699077e-02,-3.9984989911e-02,-2.1706205606e-01,-9.4513237476e-02,-1.2405093014e-01,-3.2683152705e-02,7.6652094722e-02,2.6777619123e-01,3.7698003650e-01,1.6274973750e-01,2.1205464005e-01,-6.9032512605e-02,-1.1341905594e-01,-3.2115355134e-01,-4.2986083031e-01,-3.1570747495e-01,-3.0476415157e-01,-1.1681296676e-01,-1.6983542591e-02,-8.6332850158e-02,6.6492795944e-02,-3.3494882286e-02,-1.8966317177e-02,-7.8620187938e-02,-2.4005133659e-02,4.2673390359e-02,-9.1339573264e-03,-8.6137384176e-02,5.7145029306e-02,5.1324509084e-02,-1.0489621013e-01,-7.1828685701e-02,-9.4015955925e-02,-7.0798330009e-02,-1.0813236237e-01,-3.3405132592e-02,-1.4059661329e-01,1.3443709910e-01,6.4485378563e-02,-5.9762511402e-02,-1.1818372458e-01,5.7936333120e-02,6.3407763839e-02,-2.5231325626e-01,1.6384696960e-01,-3.1003233045e-02,1.8346534669e-01,1.0848711431e-01,3.1034854054e-01,2.0196017623e-01,1.1627541482e-01,-9.9625580013e-02,-1.2165795267e-01,-3.1821385026e-01,-2.3146207631e-01,-3.5927307606e-01,-1.8754760921e-01,-5.0988872536e-03,4.2258840404e-04,9.5474898815e-02,1.7244069278e-01,-1.0710970312e-01,-1.6924980283e-01,-8.9932978153e-02,-1.6685840487e-01,-8.7611868978e-02,-2.2726293537e-04,-1.0964738578e-01,-2.0739777014e-02,3.6092162132e-02,-5.4257933050e-02,-2.0585194230e-01,-1.9442047924e-03,-1.2843568809e-02,-9.4590231776e-02,4.6385351568e-02,-1.3318913989e-02,-4.4149053283e-03,-9.0387612581e-02,1.1309161037e-01,5.5281184614e-02,1.3429637253e-01,1.5443891287e-01,8.8353149593e-02,2.5114876032e-01,8.1288434565e-02,2.2488740087e-01,1.2470115721e-01,3.1397518516e-01,1.0260982066e-01,1.6230514273e-02,-2.0260545611e-01,-1.5669479966e-01,-1.3814723492e-01,-1.8842650950e-01,-2.1242387593e-01,-2.1416332573e-02,-6.8492583930e-02,-3.9219662547e-02,1.6532137990e-01,2.7362018824e-01,4.0406640619e-02,2.8987754136e-02,5.9407949448e-02,-9.7357437015e-02,-5.5547066033e-02,-4.9098476768e-02,2.5714626536e-02,-2.4527927861e-02,1.5816570818e-01,-1.2796249986e-01,7.3142804205e-02,1.1343070865e-01,6.8848812953e-03,2.8775516897e-02,1.3229598105e-01,3.5047650337e-02,1.7782816291e-01,-3.2312408090e-02,5.8673329651e-02,9.8639458418e-02,1.4607934654e-01,-5.2764397115e-02,2.5175955892e-01,2.5465881824e-01,1.2372299097e-03,2.0334267616e-01,1.8502768874e-01,2.6505184174e-01,2.7703705430e-01,4.7611419111e-02,-1.9880035520e-01,1.0862553492e-02,-3.2367953658e-01,-3.1468853354e-01,-1.8576857448e-01,3.5564161837e-02,1.4334897697e-01,3.1824114919e-01,1.2745729089e-01,1.0442566872e-01,-1.1263014376e-01,1.4081060886e-02,-6.3745245337e-02,-5.0077579916e-02,-2.1950596943e-02,3.7098117173e-02,8.5504442453e-02,1.0849537700e-01,9.5426186919e-02,1.6222675145e-01,1.4686597884e-01,5.7124942541e-02,6.0525238514e-02,5.6714015082e-03,2.8577726334e-02,9.1538354754e-02,1.1310186982e-01,-9.6863254905e-02,-9.1840751469e-02,-3.3008016646e-02,-5.8077171445e-02,-1.8492020667e-02,6.2470082194e-02,2.6305165887e-01,3.6652579904e-02,1.8082042038e-01,9.7329914570e-02,1.2800410390e-01,1.3240894675e-01,-4.6230349690e-02,3.9936721325e-02,6.5482064383e-04,-6.5176703036e-02,-2.8347426653e-01,-1.3033683598e-01,-1.9086857140e-01,-1.7539550364e-01,3.0100900680e-02,1.6313304007e-01,-3.7880633026e-02,-4.4154003263e-02,-1.6035284102e-01,2.5465495884e-02,-4.1877832264e-02,-1.0779643059e-01,-1.4443911612e-01,4.6657435596e-02,-3.2941319048e-02,-3.1192855909e-02,1.3043299317e-01,3.2534833997e-02,1.8818347156e-01,2.6429060102e-01,1.7215533182e-02,-6.9394715130e-02,-1.2130643427e-01,-1.0661334544e-01,-2.1206857637e-02,-7.7605415136e-03,1.1562834680e-01,4.8605695367e-02,2.0942831039e-01,7.1800090373e-02,9.8976932466e-02,3.0738466885e-03,5.9744350612e-02,5.6054256856e-02,5.8657382615e-03,8.0297559500e-02,-1.6395933926e-02,1.3393162191e-01,-1.5306270123e-01,-2.5078980252e-02,-1.8611672521e-01,-4.7026656568e-02,-1.7293651402e-01,-1.4448416233e-01,5.7001300156e-03,1.1003561318e-01,-1.5677653253e-02,8.7957330048e-02,-1.0231977329e-02,2.4020442739e-02,-1.0527573526e-01,3.6691311747e-02,-3.4677777439e-02,9.0986769646e-03,-9.8622879013e-03,3.8893058896e-02,1.3827796280e-01,-1.2257824652e-02,-5.3961005062e-02,1.0834190063e-02,1.1763321608e-01,-5.6804094464e-02,-8.2570295781e-03,-3.6458753049e-02,-7.6701350510e-02,3.2375875860e-02,1.0442993790e-01,1.3504928350e-01,1.0754033923e-02,-9.5973029733e-02,-8.6870357394e-02,2.0254136622e-01,-1.5039952099e-01,2.2346572950e-02,6.0890130699e-03,-4.1119139642e-02,1.5340846777e-01,-7.6922908425e-02,3.1422186643e-02,-1.0577133857e-02,-1.7311995849e-02,2.4369947612e-02,-6.4525917172e-02,-3.8616772741e-02,2.6758763939e-02,1.9015336037e-01,8.0753035843e-02,-3.3391546458e-02,1.6700895131e-01,3.2842945307e-02,7.0796819637e-04,1.6667047748e-03,-1.3387356699e-01,-5.7419713587e-02,-1.3367711799e-03,1.0128203034e-01,-4.9052640796e-02,4.7247342765e-02,1.4023068361e-02,-8.5758648813e-02,4.1124885902e-03,9.1745913029e-02,-3.4087371081e-02,-8.8328801095e-02,-2.3665802181e-01,-1.8525287509e-01,-1.0248555988e-01,-6.7571818829e-02,2.3210563231e-03,-9.4019934535e-02,-1.5814104676e-01,-2.0186865702e-02,-2.4912884459e-02,-1.9183364511e-01,-2.6289686561e-01,-6.0665309429e-02,-1.1567207426e-01,-1.7207619548e-01,-5.3481791168e-02,-1.0664370656e-01,-7.1175321937e-02,-4.4978275895e-02,-7.7162265778e-02,5.4832994938e-02,1.8632797524e-02,-9.2257410288e-03,-3.8738850504e-02,-1.3232977688e-01,3.3904090524e-02,3.8734022528e-02,-4.1236981750e-02,-8.1306859851e-02,4.5408099890e-02,-2.3640861735e-02,1.4769113623e-02,-7.8091815114e-02,1.0670495033e-01,4.5565947890e-02,-3.0169572681e-02,-4.1086342186e-02,-1.1279693991e-01,-1.1373651028e-01,-1.8072636425e-01,1.7398835625e-03,-8.3573117852e-02,-4.8257365823e-02,-8.1656232476e-02,-6.0047246516e-02,1.1620710045e-01,-1.4144796133e-01,4.5558225363e-02,-1.1152871698e-01,9.7742952406e-02,-9.7362570465e-02,1.1534046644e-04,-1.4191132784e-01,-2.2811098397e-01,-5.0749033689e-02,-1.6364388168e-02,-6.5536171198e-02,1.2264137715e-01,7.2400560603e-03,-1.1489884555e-01,-7.1277134120e-02,-4.9971904606e-02,-8.4712170064e-02,8.1856898963e-02,4.1185063310e-03,6.8527743220e-02,9.0672127903e-02,3.6760352552e-02,5.3078498691e-02,-4.5844223350e-03,8.3617329597e-02,1.0526448488e-01,-5.7686343789e-02,-2.0995507948e-03,-6.5594308078e-02,-6.5854325891e-02,5.7205088437e-02,5.0717879087e-02,7.8561462462e-02,-1.2801668048e-01,2.3232840002e-02,4.9529213458e-02,-3.5215504467e-02,3.4249946475e-02,6.7443639040e-02,-7.0341810584e-02,-7.6651841402e-02,-3.7800002843e-02,-9.4497449696e-02,1.0073447973e-01,-8.4456555545e-02,-1.3761697710e-01,-2.1377272904e-01,-1.7728707194e-01,-1.5286354721e-01,1.1541819200e-02,6.9636382163e-02,-5.3692478687e-02,4.5705202967e-02,7.3903940618e-02,-2.7343811467e-02,4.7954558395e-03,-1.0919450223e-01,2.4348568171e-02,4.6155579388e-02,-6.6945731640e-02,-6.9532334805e-02,6.3665121794e-02,3.3393640071e-02,5.6818854064e-02,-5.6530717760e-02,-8.8401712477e-02,-3.6677357275e-03,-1.0972076654e-01,1.0611210018e-02,-1.1125203222e-01,9.3197233975e-02,-1.2654784322e-01,1.7900321633e-02,-4.8733418807e-03,-9.5683850348e-02,-5.4644653574e-03,-4.6882707626e-02,-5.5264250841e-04,8.9972309768e-02,-7.8332506120e-02,-1.8399043009e-02,2.0729875192e-02,6.2411082909e-03,4.5637629926e-02,4.9845606089e-02,-3.6337576807e-02,-7.9031825066e-02,-8.4736540914e-02,-2.8658464551e-02,-5.7640094310e-02,1.2858091295e-01,1.1787631363e-01,-7.1109533310e-02,-5.1407370716e-02,8.8469170034e-02,2.1407224238e-02,9.7507797182e-02,7.6060302556e-02,6.7487075925e-02,8.8132537901e-02,-4.0741484612e-02,4.2463019490e-02,-1.0033744574e-01,-9.7019359469e-02,3.2317418605e-02,5.6155711412e-02,4.8971932381e-02,9.2685639858e-02,-1.2236596644e-01,3.8941431791e-02,-2.4336269125e-02,-1.1192395538e-01,-1.0412298888e-01,1.1257231981e-01,1.1376998574e-01,1.6205811501e-01,9.1280564666e-02,1.7389641702e-01,2.1504158154e-02,8.7071709335e-02,-5.0920564681e-02,-6.5180905163e-02,3.2024029642e-02,-9.8438203335e-02,-5.6797075085e-03,-1.3455913961e-01,-9.3133542687e-03,-1.3024558127e-01,-4.4680118561e-02,-2.6676949114e-02,5.0282247365e-02,1.0322499275e-01,-9.4303004444e-03,4.7166356817e-03,-1.5637628734e-02,-5.3497776389e-02,-9.8008252680e-02,1.1310864985e-01,2.8959406540e-02,-1.0671823472e-01,-5.2996244282e-02,-5.8814901859e-02},
	{-1.3864982128e-01,7.0270873606e-02,-8.5423201323e-02,2.7923558373e-03,8.0857701600e-02,2.0443950593e-01,6.7629806697e-02,1.2560613453e-01,3.6058116704e-02,1.5354055911e-02,1.3376188278e-01,3.4930232912e-02,-1.9043768942e-01,-2.5909127668e-02,-7.4601769447e-02,1.7339371145e-01,2.3553231359e-01,2.6440766454e-01,8.7616764009e-02,-6.4255081117e-02,1.7747823894e-01,1.4623534679e-01,1.9775079191e-01,-9.0882904828e-02,-5.2067968994e-02,-2.0788465440e-01,-3.8600704074e-01,-1.8132595718e-01,-1.6368332505e-01,-1.6754026711e-01,-7.8360065818e-02,-1.6375105083e-01,-6.4808361232e-02,-1.3819607906e-02,-2.4754238129e-01,-1.4034532011e-01,-1.0213302076e-01,9.4688773155e-02,-9.3460753560e-02,1.6510009766e-02,-1.5240404010e-01,3.5053882748e-02,7.7993914485e-02,2.5155767798e-02,-1.0978507251e-01,4.2125549167e-02,-3.5993687809e-02,2.2113418672e-03,9.4608262181e-02,-1.3595748693e-02,-5.9874255210e-02,-8.5726805031e-02,2.1688250825e-02,-7.9113371670e-02,-3.3043749630e-02,-4.2865272611e-02,1.5830296278e-01,6.0170240700e-02,9.1960527003e-02,1.0932923108e-01,3.6833230406e-02,-7.3702202644e-04,4.3660663068e-02,6.5227448940e-02,-1.4359140769e-02,-1.9122263789e-01,-2.2138647735e-01,-3.3000177145e-01,-8.2476668060e-02,-9.8296694458e-02,-1.3552883267e-01,2.7353845537e-02,9.6157595515e-02,-4.5128662139e-02,-4.7109150328e-03,-7.3946379125e-02,6.1846952885e-02,1.0618864559e-02,-7.2155989707e-02,-7.7922381461e-03,5.3064256907e-02,4.6535406262e-02,-7.3219478130e-02,1.1725989170e-03,-8.2712568343e-02,-4.0779758245e-02,2.7909930795e-02,-3.2005961984e-02,1.5738438815e-02,3.8147419691e-02,4.5974716544e-02,-9.9480815232e-02,2.7416178957e-02,-5.3425583988e-02,3.9217308164e-02,-1.1508043855e-01,1.0624695569e-01,1.1939883977e-01,9.5826156437e-02,1.8904522061e-01,3.0127072334e-01,2.3424674571e-01,4.5071568340e-02,1.0079786927e-01,-8.4780514240e-02,-8.5548140109e-02,-2.1805463731e-01,-1.7623116076e-01,-1.4615469612e-02,-6.9087810814e-02,1.5819930704e-03,-6.7970737815e-02,-1.8429474533e-01,-7.5663998723e-04,-1.2616871297e-01,-3.7921302021e-02,9.5107428730e-02,-6.1659321189e-02,-1.0941584408e-01,-8.8248372078e-02,-1.2935779989e-01,1.0873841494e-01,-6.4708918333e-02,-5.1982749254e-02,6.4692758024e-02,1.3683399558e-01,5.7546077296e-03,6.5312138759e-03,1.0287272930e-01,-9.8227523267e-02,-7.6946385205e-02,-7.0873923600e-02,-1.3364219666e-01,2.7425626293e-02,-1.2071134150e-01,-5.2159138024e-02,-1.6028881073e-01,-1.0712875053e-02,1.9504973292e-01,1.6379697621e-01,2.2247806191e-01,1.8374446034e-01,2.8697326779e-01,1.2606342137e-01,6.5571623854e-03,-1.5169622004e-01,-9.6201710403e-02,-2.4026654661e-01,-4.9325022846e-02,3.6401566118e-02,-2.9131086543e-02,-4.9862142652e-02,-2.6451740414e-02,1.2758597732e-01,-1.0724117607e-01,-7.1339510381e-02,-6.8812496960e-02,-5.8378778398e-02,-3.3258795738e-02,-2.9840152711e-02,-9.3965902925e-02,1.3118530810e-01,-2.1424613893e-02,2.9268966988e-02,1.0305728763e-01,1.9878034294e-01,-1.6281882301e-02,1.4961662889e-01,-9.2345267534e-02,-1.0296722502e-01,-1.1414484680e-01,-3.1696908176e-02,-6.7110568285e-02,-5.9913261794e-03,5.8042826131e-03,3.7094395608e-02,1.8162663036e-04,-1.1482752115e-01,-7.6881229877e-02,3.0427116901e-02,1.0504499078e-01,-4.7118186951e-02,1.3952009380e-01,1.1599022150e-01,9.5557877794e-03,-2.7969663963e-02,1.0443438590e-01,-1.2504482642e-02,-5.3430274129e-02,-4.6061519533e-02,-1.5855362639e-02,-9.4579666853e-02,-1.1186009645e-01,-5.2629861981e-02,4.4707775116e-02,1.3912746683e-02,-8.8256306946e-02,-2.1889245138e-02,7.6693505049e-02,-9.8731741309e-02,-5.1578003913e-02,1.1012762040e-01,4.8171110451e-02,1.9237236679e-01,-2.1688822657e-02,-1.5873778611e-02,1.6843126714e-01,-3.9923198521e-02,-5.3111400455e-02,-9.4956852496e-02,-4.5250657946e-02,8.4624677896e-02,9.8778996617e-03,4.9174405634e-02,1.5074190497e-01,-6.1964294873e-03,-1.7714992166e-01,-3.4823182970e-02,2.3962782696e-02,1.4583523571e-01,3.1122416258e-01,1.8134833872e-01,5.5369846523e-02,-3.6537639797e-02,1.5495841205e-01,5.3710598499e-02,1.8542580307e-01,-3.2183904201e-02,9.9995523691e-02,-3.7517439574e-02,-7.5026594102e-02,3.2446045429e-02,1.1357282847e-01,4.0385659784e-02,4.2574461550e-03,-2.6220716536e-02,-1.0441629589e-01,-3.6571998149e-02,3.6370307207e-02,-5.8526102453e-02,2.1790454164e-02,1.5159165859e-01,2.0013982058e-01,1.9628336653e-02,-3.5547338426e-02,-5.9549901634e-02,-1.0581947863e-01,-5.5295534432e-02,3.1882967800e-02,1.9168423116e-01,2.7147086337e-02,4.2918875813e-02,1.7392314970e-01,-5.0352569669e-02,8.2930289209e-02,1.2209202396e-03,1.0430642217e-01,5.4979816079e-02,1.3781237602e-01,9.7983360291e-02,-3.1428750604e-02,1.0610072315e-01,1.4185090363e-01,1.0270937532e-01,3.1233623624e-01,3.6437642574e-01,3.0739369988e-01,6.2164057046e-02,-3.7541206926e-02,-6.3298754394e-02,-1.0079537332e-01,-1.8282631412e-02,1.6004188359e-01,3.2437258959e-01,-9.4583220780e-02,-1.7393663526e-01,-4.9633052200e-02,1.7067877576e-02,1.7369253328e-04,4.9096569419e-02,7.9990535975e-02,1.1658688635e-01,1.2427598238e-01,-1.1460763216e-01,9.7515434027e-02,-1.6172102094e-01,-2.0811888576e-01,5.3510546684e-02,-4.0442541242e-02,4.7629501671e-02,2.0895884931e-01,-7.4240244925e-02,7.0827692747e-02,-9.7572997212e-02,2.0182733238e-01,4.6499338932e-03,1.5847778320e-01,6.8205050193e-03,8.7048839778e-03,-3.5705711693e-02,4.1302390397e-02,6.7365795374e-02,1.2241310626e-01,2.2438985109e-01,8.1745162606e-02,3.9185604453e-01,-7.2586230934e-02,3.9545204490e-02,3.7775527686e-02,-2.7801734209e-01,-1.8043650687e-01,7.4012338882e-04,9.3708314002e-02,2.7066147327e-01,-2.3623535526e-04,-1.5446753800e-01,-8.1381596625e-02,-4.7170538455e-02,1.3200253248e-01,7.4655652046e-02,-5.2426755428e-02,1.0920401663e-01,5.3765721619e-02,5.3812209517e-02,1.3213801384e-01,-1.0760887712e-01,9.5316834748e-02,-1.2377321720e-02,1.1028189212e-01,-4.5716296881e-02,2.9618879780e-02,-1.5725354850e-01,-2.1655477583e-01,-1.9529372454e-01,1.3194954395e-01,1.1782263219e-01,-8.1185698509e-02,6.1867246404e-03,2.0031338558e-02,8.2244202495e-02,1.9073961675e-01,2.4560229480e-01,3.0509948730e-01,3.9005917311e-01,9.6446827054e-02,3.5015696287e-01,2.4152450264e-01,3.2900458574e-01,4.6050408855e-03,-1.0975048691e-01,-1.4301590621e-01,1.2917710841e-01,3.2016780227e-02,-1.8106848001e-01,-2.0834921300e-01,-1.1555948853e-01,7.9708807170e-02,3.1455792487e-03,-6.2014512718e-02,-1.1825279146e-01,-5.2102827467e-03,-2.7109818533e-02,8.2484230399e-02,-4.1032876819e-02,1.0305711627e-01,-5.3603947163e-02,-1.0934953392e-01,-4.4281199574e-02,5.9879150242e-02,-1.0706140846e-01,-1.0083233565e-01,1.7009090632e-02,-1.4816778898e-01,-3.6416386720e-03,6.7119458690e-03,-1.4647361636e-01,-4.9781266600e-02,-6.8316180259e-03,-8.3914749324e-02,-8.6234785616e-02,1.7080724239e-01,8.6548909545e-02,-1.5893535316e-01,-5.8436006308e-02,9.3906894326e-02,2.1840520203e-01,2.3605656624e-01,-4.5641776174e-02,1.4665316045e-01,2.5225949287e-01,-1.0913788527e-01,-4.6513870358e-02,-1.0827831179e-01,-1.6231995821e-01,-2.7918753028e-01,9.1593913734e-02,1.0425251722e-01,6.9258145988e-02,-6.8461038172e-03,-5.7908566669e-03,-9.8819829524e-02,-5.7698696852e-02,-6.0447659343e-02,1.5679298341e-01,3.8981147110e-02,-1.1800520122e-01,-7.7041454613e-02,-1.7124900222e-01,3.3135330305e-03,-4.9805905670e-02,-1.4430186152e-01,-2.2797612846e-01,2.9134828597e-02,-1.2436124682e-01,-2.0685203373e-02,-1.0024497285e-02,-9.8094411194e-02,-1.5154825151e-01,-7.4726738036e-02,-2.0769754052e-01,-2.4532470107e-01,-1.9841420650e-01,-2.8930330276e-01,-6.2892390415e-03,2.5125688314e-01,2.4459461868e-01,2.3515300453e-01,1.5012823045e-01,2.9029336572e-01,1.0644708574e-01,-5.8764435351e-02,-5.6906528771e-02,-1.5341874957e-01,-1.1701273918e-01,-3.0087968707e-01,-1.2725999951e-01,1.2769712508e-01,1.1536572874e-01,3.5549916327e-02,9.4363264740e-02,4.5744236559e-02,-2.8666781262e-02,-3.3619403839e-02,5.7359058410e-02,-5.3032875061e-02,-4.2098395526e-02,-1.5314467251e-02,-1.2263380736e-01,1.9837343693e-01,-9.4229325652e-02,5.2090335637e-02,-1.4070692658e-01,-2.4987267330e-02,-3.9025537670e-02,1.3615846401e-03,1.7435370386e-01,-3.3206507564e-01,-2.0690357685e-01,-8.8192515075e-02,-2.5769650936e-01,-2.0586733520e-01,-3.4543260932e-01,-3.5254570842e-01,-2.7078288794e-01,4.1075158864e-02,-5.5290810764e-02,-2.3484595120e-01,-1.0782785714e-01,2.7847316861e-01,3.6817744374e-01,1.3845945895e-01,-3.1585615128e-02,-1.0562005639e-01,-4.8541328311e-01,-3.7462741137e-01,-1.0285253078e-01,1.1385944486e-01,-7.7813893557e-02,1.5042369068e-01,1.3138581812e-01,1.9646514952e-01,7.8309260309e-02,-8.9064333588e-04,1.1763606220e-01,-4.8026401550e-02,-1.9942505658e-01,3.5621751100e-02,2.5885980576e-02,2.3109260201e-01,-2.4417169392e-02,2.5485079736e-02,-4.7546021640e-02,3.1295586377e-02,-1.5208929777e-01,-2.1497428417e-01,-2.7061225846e-02,-3.4654751420e-01,-2.1999181807e-01,-1.4648470283e-01,-3.2091334462e-01,-3.1050664186e-01,-2.5933361053e-01,-3.9391326904e-01,-5.1820248365e-01,-9.1287001967e-02,-2.3205175996e-02,-1.5767651796e-01,1.3975769281e-01,1.0418859124e-01,2.2270593047e-01,-1.7808732390e-01,-4.7050090507e-04,1.8205703795e-01,-4.5863792300e-01,-5.2831959724e-01,-5.5258844048e-02,1.4405115508e-02,8.3387233317e-02,-2.3136289790e-02,1.3276165724e-01,-3.0216749292e-04,1.0560128093e-01,7.3351241648e-02,9.3536332250e-02,-9.3173377216e-02,-9.6873482689e-03,1.7012904584e-01,-1.0171140730e-01,8.9565187693e-02,1.9732248783e-01,7.2596371174e-02,9.3011468649e-02,-7.7901564538e-02,-1.1943212897e-01,9.8444148898e-02,-2.1076224744e-01,-3.0377247930e-01,-1.7556980252e-01,-1.5942597389e-01,-2.7000123262e-01,-3.2630681992e-01,-2.6055231690e-01,-1.8241822720e-01,-6.1834967136e-01,-4.4613656402e-01,-2.7177748084e-01,1.6863548756e-01,2.5779947639e-01,5.7804811001e-01,6.5914809704e-01,2.6282909513e-01,-2.0024381578e-02,-2.2323776037e-02,-2.4572186172e-01,-4.1965162754e-01,-3.4239143133e-01,-3.6943146586e-01,5.4543849081e-02,1.0715586692e-01,6.4926773310e-02,1.1461751163e-01,1.1932769418e-01,-2.0439837128e-02,1.3947297633e-01,1.8098127842e-01,-9.3005001545e-02,1.3665641844e-01,2.2323738039e-01,-1.0449270904e-01,-2.8441898525e-02,-1.4816594124e-01,-7.9451814294e-02,1.5970347449e-02,-1.5610074997e-01,-1.0164424032e-01,-2.7589920163e-01,-2.3372383416e-01,-1.9635540247e-01,-3.9224784821e-02,-2.6404768229e-01,-4.6876060963e-01,-4.2232814431e-01,-2.1841603518e-01,-3.8424426317e-01,-4.1883456707e-01,-1.1932501197e-01,-3.6774847656e-02,1.1034941673e-01,3.7115341425e-01,3.2511383295e-01,3.8593286276e-01,-1.2183669955e-01,1.2362881005e-01,-1.4296925068e-01,-2.3043915629e-01,-5.2863907814e-01,-2.2075901926e-01,-1.1739701778e-01,-6.0350373387e-02,-4.4117622077e-02,-5.5206753314e-02,-8.6630195379e-02,1.5340828896e-01,1.5582965314e-01,2.2246401012e-01,1.0686070472e-01,-2.9597118497e-02,-1.0736643523e-01,-1.3390540145e-02,1.3799403608e-01,-2.5945147872e-01,7.5604833663e-02,-3.0023708940e-01,-4.8179846257e-02,6.0846060514e-02,-1.8716254830e-01,-6.5549179912e-02,-1.9935989380e-01,-1.9346596673e-02,-2.4133838713e-01,-5.5247020721e-01,-5.4648083448e-01,-4.2943984270e-01,-6.1622375250e-01,-6.0399055481e-01,-1.4866444468e-01,1.2688088417e-01,4.9185374379e-01,3.8430729508e-01,6.1157351732e-01,3.4027099609e-01,1.1046171933e-01,-1.0250877589e-02,7.8302301466e-02,-2.2814767063e-01,-2.4294252694e-01,-3.1816953421e-01,-4.7413969040e-01,-2.5331947207e-01,-1.2376491725e-01,1.0182680935e-01,-1.8506906927e-02,1.5061037242e-01,6.6376581788e-02,7.6393606141e-03,1.0181969404e-01,9.0147107840e-02,9.0677507222e-02,4.2363122106e-02,3.1745615602e-01,1.2385883182e-01,-2.0485585555e-02,7.0611000061e-02,5.4511692375e-02,1.6162672639e-01,-1.4767953753e-01,-4.6980716288e-02,-1.0378018022e-01,-2.4845500290e-01,-3.6777046323e-01,-4.1077467799e-01,-4.7413292527e-01,-5.6054490805e-01,-3.8269624114e-01,-5.7978367805e-01,6.8515054882e-02,-5.8294378221e-02,-4.9693688750e-02,3.5428363085e-01,4.9975183606e-01,3.2991757989e-01,5.1309060305e-02,1.7186746001e-01,-1.6378165781e-01,-1.3155697286e-01,-4.6307131648e-01,-4.3747228384e-01,-3.1924870610e-01,-1.6959734261e-01,-9.2502072453e-02,1.9148327410e-01,1.5459792316e-01,3.4403283149e-02,1.5733340383e-01,9.7511917353e-02,7.4437737465e-02,3.3025562763e-01,2.1747483313e-01,1.4834865928e-01,5.3963405080e-03,-8.0353230238e-02,-1.5938142315e-02,-1.7313507199e-01,4.5928306878e-02,-5.3745126352e-03,2.8839992359e-02,-4.1112927720e-03,-2.0608969033e-02,-1.6274112463e-01,-2.8413233161e-01,-5.8529758453e-01,-5.0624763966e-01,-4.7076734900e-01,-5.3253531456e-01,-5.8870232105e-01,-1.9783407450e-01,8.0302596092e-02,3.8559469581e-01,3.4635183215e-01,5.0446003675e-01,2.3821756244e-01,4.6187359840e-02,2.5745278597e-01,-2.4338606745e-02,-9.5765165985e-02,-4.1759806871e-01,-6.3331454992e-01,-3.7360993028e-01,-2.8379502892e-01,2.7083965018e-02,1.5182417631e-01,-2.9511263594e-02,-7.5840495527e-02,1.7726269364e-01,1.0436918586e-01,9.8991140723e-02,2.6227319241e-01,2.7710759640e-01,2.4497013539e-02,-3.4673314542e-02,-2.1637536585e-02,2.8425598517e-02,-1.6277150810e-01,1.7283691093e-02,-8.4047988057e-02,-2.7953252196e-01,7.6467856765e-02,-5.5865276605e-02,-1.7425616086e-01,-1.7155089974e-01,-5.5261081457e-01,-4.4991981983e-01,-9.1019821167e-01,-7.4076843262e-01,-5.9337639809e-01,-4.4252237678e-01,1.3793250918e-01,3.7397095561e-01,5.3536438942e-01,5.0154960155e-01,3.8169303536e-01,2.8666289523e-02,2.7813750505e-01,-2.1028958261e-01,-1.9098466635e-01,-5.7896429300e-01,-3.9790698886e-01,-4.6842545271e-01,-2.2120633721e-01,-1.1008966714e-01,-2.4201421067e-02,-2.9137618840e-02,9.4618014991e-02,-8.0663457513e-02,1.6018797457e-01,-5.5566217750e-02,-3.7657011300e-02,1.7332790792e-01,-2.7905723453e-01,-9.8364345729e-02,-5.4699551314e-02,-2.3257291317e-01,-9.7683131695e-02,-1.5889836848e-01,-2.1117669344e-01,1.0105167516e-02,-1.8188603222e-02,-2.3036426865e-03,1.1784429848e-01,4.8692528158e-02,-2.1241168678e-01,-4.3238222599e-01,-5.2775615454e-01,-7.3664778471e-01,-6.3946872950e-01,-2.3409453034e-01,-3.6846962571e-01,1.9539621472e-01,-4.9628377892e-03,2.6934048533e-01,3.3878248185e-02,2.1731705964e-01,3.5938426852e-02,1.2884336524e-02,-2.5432372093e-01,-6.6610264778e-01,-3.3291834593e-01,-4.0941065550e-01,-2.7857553959e-01,-1.4748758078e-01,1.3185748458e-01,-1.8380337954e-01,7.7347420156e-02,-3.4562934190e-02,7.4085824192e-02,4.7491453588e-02,7.3063276708e-02,-4.2374890298e-02,1.7420126498e-01,-9.8818592727e-02,-7.4817255139e-02,-1.5648968518e-01,6.4835540950e-02,-1.4256486297e-01,7.7339082956e-02,-1.8038941547e-02,-2.6599852368e-02,2.2975392640e-01,1.3974043727e-01,2.8335344791e-01,-3.2053530216e-01,-2.8570294380e-01,-5.3391486406e-01,-8.7129938602e-01,-3.2605430484e-01,-3.7271350622e-01,-4.1353642009e-03,1.0516064614e-01,1.0042364895e-01,3.6251753569e-01,7.5563281775e-02,2.8471526504e-01,1.2246721983e-01,4.0980707854e-02,-3.7264561653e-01,-4.6236824989e-01,-3.3316448331e-01,-2.0440234244e-01,-2.4512521923e-01,-2.6885971427e-01,-2.1783065051e-02,9.2179544270e-02,-2.4915626273e-02,-1.8473985791e-01,7.9650528729e-02,-1.3301837444e-01,-1.5098323114e-02,9.1072253883e-02,2.9664522037e-02,-3.7380136549e-02,7.3132388294e-02,5.8959171176e-02,-5.7735491544e-02,-3.7047471851e-02,2.8148485348e-02,2.4332016706e-02,1.8623934686e-01,1.6642755270e-01,2.5142121315e-01,2.7811160684e-01,-8.8441513479e-02,-3.4393858910e-01,-6.3505053520e-01,-6.2884277105e-01,-4.7766420245e-01,-6.9076128304e-02,-2.8949376941e-01,-6.5300591290e-02,1.4770667255e-01,6.8232172728e-01,3.7246817350e-01,1.3706436753e-01,-2.1675385535e-01,-1.3642269373e-01,9.0418726206e-02,-2.2984550893e-01,-4.5967543125e-01,-8.1097513437e-02,-1.6782109439e-01,-1.8187573552e-01,-4.2623568326e-02,9.5284625888e-02,-1.5559270978e-01,-7.8410491347e-02,-2.3612471297e-02,-6.1174109578e-02,8.9584372938e-02,-1.8689602613e-01,4.4133342803e-02,-1.7161276191e-02,1.5663817525e-01,-9.8239064217e-02,-5.3948823363e-02,1.4891745150e-01,-2.6242959499e-01,-4.9718745053e-02,1.4089456759e-02,6.2917217612e-02,-9.6302546561e-02,1.5208245814e-01,-3.3808525652e-02,-4.2148333788e-01,-4.4437438250e-01,-2.4635231495e-01,-4.3922647834e-01,-1.0720555484e-01,5.0116088241e-02,-1.9498632848e-01,-1.6805855930e-01,2.2050686181e-01,4.9327284098e-01,1.9311976433e-01,-8.0263540149e-03,-8.8818699121e-02,-7.8277848661e-02,-1.0099229962e-01,-1.1522310972e-01,-1.8089674413e-01,-7.2888009250e-02,-1.4372421801e-01,1.4629003592e-02,-5.5516034365e-02,-2.1115195751e-01,-1.0612913221e-01,-2.8708246350e-01,-2.1154761314e-01,-7.0870965719e-02,1.8898464739e-02,-3.5368081182e-02,1.0347956419e-01,2.1759168804e-01,1.3777771592e-01,1.6409514938e-03,1.6357252374e-02,-4.1603183746e-01,-2.1616120357e-03,1.0440149158e-01,6.1324149370e-02,1.5938541293e-01,2.2097834945e-01,-3.0647528172e-01,4.0991690010e-02,-2.4237331748e-01,-2.3362584412e-01,-2.8598976135e-01,1.1747656018e-01,-8.8340796530e-02,-5.0454920530e-01,-7.4377432466e-03,7.6942764223e-02,5.9452936053e-02,1.1021959782e-01,2.8370392323e-01,-6.0948751867e-02,-8.7220430374e-02,-3.2154983282e-01,-8.1780664623e-02,-1.9640974700e-01,-1.0903412849e-01,-7.8409887850e-02,-4.1782096960e-03,-9.7173620015e-03,-2.0182941854e-01,-2.8118970990e-01,-2.5847631693e-01,-2.2416074574e-01,-7.8105956316e-02,9.7656764090e-02,2.7548387647e-01,1.1039120704e-01,2.0718170330e-02,1.2091255747e-02,-1.5993647277e-02,-1.0492098331e-01,-2.7415150404e-01,-2.1576252580e-01,6.6237181425e-02,-3.5902455449e-01,8.4061831236e-02,1.2200717814e-02,2.1404403448e-01,-3.6468837410e-02,-2.5738820434e-01,1.1111743748e-02,-2.7500358224e-01,-1.9044390321e-01,-4.3370434642e-01,-4.8428076506e-01,-2.9777848721e-01,2.0794157684e-01,2.4396730587e-02,2.3440156877e-01,1.2712413073e-01,-3.1960152090e-02,1.2097776867e-02,-2.2753846645e-01,-2.7227235958e-02,-1.0145798326e-01,-2.0087508857e-01,-1.7599956691e-01,3.9315488189e-02,-2.6713600755e-01,-1.4131940901e-01,-2.2983694077e-01,-2.2621694207e-01,-2.4249130487e-01,-2.0331010222e-01,2.9282769188e-02,-1.0955668986e-01,2.1763619781e-01,1.7358259857e-01,2.3535859585e-01,1.1187600344e-01,8.8828012347e-02,-1.6629046202e-01,-1.2279948592e-01,1.4021474123e-01,2.6741726324e-02,4.8947777599e-02,1.2092303485e-01,2.5187397003e-01,1.1592006683e-01,5.3032588214e-02,-1.5282320976e-01,-9.9715143442e-02,-1.7135047913e-01,-4.3908745050e-01,-5.4032951593e-01,-9.7285844386e-02,1.8041367829e-01,2.3365119100e-01,4.3365803361e-01,1.5640647709e-01,2.7242010832e-01,2.5053227320e-02,1.9213691354e-02,1.0958077013e-01,4.6563033015e-02,-1.7060500383e-01,-9.2920958996e-02,-7.2777015157e-03,6.5431860276e-03,-1.5257390216e-02,-1.0890320688e-01,-2.0203435421e-01,-1.6977752745e-01,-9.3782916665e-02,-1.4661151171e-01,-6.4802020788e-02,1.6485501826e-01,2.1585093439e-01,1.4255087078e-01,3.3421912789e-01,3.0293911695e-01,-1.7456005514e-01,5.5592834949e-02,1.2027789652e-01,2.2183956578e-02,1.0220392048e-01,1.8653202057e-01,6.9176122546e-02,7.4572372250e-03,1.2893827260e-01,-1.4319042861e-01,-1.5221694112e-01,-1.6610774398e-01,-3.4071978182e-02,-5.9166789055e-01,-4.1051244736e-01,2.6508539915e-02,1.5005071647e-02,1.9369274378e-01,3.4072484821e-02,2.6061084867e-01,1.2794015929e-02,1.0655496269e-01,8.9899808168e-02,-2.5304540992e-01,-1.0616698116e-01,-2.1458061039e-01,3.2457549125e-02,-5.0871848362e-04,1.8942574039e-02,3.3541645855e-02,-1.7504926026e-01,-9.2648550868e-02,4.4475771487e-02,-3.1206551939e-02,-1.0690794140e-01,9.7460523248e-02,1.8853920698e-01,1.5481545031e-01,1.6146278381e-01,2.6370596886e-01,4.5933648944e-02,-1.2023989856e-01,-7.6698027551e-02,-7.4554786086e-02,1.2166768312e-01,3.0370938778e-01,3.7021208555e-03,-6.3355900347e-02,6.8298161030e-02,5.6950166821e-02,-5.8200165629e-02,-2.8465455398e-02,-3.0447396636e-01,2.7671439573e-02,-1.2399261445e-01,7.3680691421e-02,5.2246302366e-02,1.3637126982e-01,-1.4794680476e-01,-8.2625644282e-03,-3.9330143481e-02,-1.1769074947e-01,-4.8051256686e-02,-2.3080521822e-01,-2.8366842866e-01,-3.2907226682e-01,-9.5226243138e-02,1.2177753448e-01,-5.5372682400e-03,-1.5961013734e-01,-9.5444582403e-02,-9.9454872310e-02,-2.1869560704e-02,7.6400652528e-02,-1.2193047255e-01,8.9824862778e-02,1.6941733658e-01,1.6671180725e-02,1.1507662386e-01,2.5610601902e-01,1.5817675376e-05,9.5751434565e-02,1.4232063293e-01,1.1952234060e-01,1.3945794664e-02,-1.1777518690e-01,7.3811620474e-02,2.8135501780e-03,5.7790953666e-02,-1.0665241629e-01,7.2734847665e-02,-3.0864553526e-02,-2.8459465504e-01,-4.4931638986e-02,-1.6116075218e-01,-2.0399881899e-01,-2.3320730031e-01,-5.9905786067e-02,-1.5577868558e-02,1.2344254553e-01,6.5668620169e-02,2.2135141492e-01,1.0304394364e-01,-2.0435413718e-01,-1.5463519096e-01,-1.1711984128e-01,-5.1084540784e-02,-7.0071235299e-02,6.0296799988e-02,-8.5349708796e-02,7.8358612955e-03,-6.7950442433e-02,6.5050721169e-02,-1.2679156661e-01,-5.0953213125e-02,2.5727888569e-02,-3.3513475209e-02,-1.2178968638e-01,1.2019533664e-01,2.8187647462e-01,1.5315718949e-01,-5.5426053703e-02,1.1506305076e-02,-4.6027436852e-02,-9.0930871665e-02,-8.1816196442e-02,-1.0410963744e-01,5.6586809456e-02,5.3895097226e-02,-3.3089146018e-02,-1.5966778994e-01,1.9959211349e-01,-1.2208934128e-01,-3.5035905894e-03,1.8729974329e-01,1.5712630749e-01,-1.7080809176e-01,-2.6001098752e-01,-2.9700092971e-02,-9.4156637788e-02,-1.0284334421e-01,9.2432551086e-02,-1.8135981262e-01,-1.1391614377e-01,-1.1681123823e-01,-2.6999318600e-01,-7.3819227517e-02,-9.0926587582e-02,8.2334697247e-02,-3.4949883819e-02,-4.6576060355e-02,1.4777858555e-01,9.8199188709e-02,-1.7470452189e-01,-2.2388027981e-02,-8.0231681466e-02,7.2904367698e-04,2.6757689193e-02,3.6888718605e-02,1.9738124311e-01,2.3918183148e-01,2.2851687390e-03,2.7692621574e-02,5.9533447027e-02,6.0709882528e-02,-1.4786438644e-01,-1.6840513051e-01,-1.2354227901e-01,7.2207160294e-02,-1.2171598524e-01,-2.4480904639e-01,1.5694971383e-01,1.5546943247e-01,1.8623888493e-02,-1.3214606047e-01,-1.5777844936e-02,-6.7259833217e-02,9.0925760567e-02,-1.1591038853e-01,1.9845652580e-01,-3.9042193443e-02,7.4408866465e-02,-8.1557273865e-02,-2.9618674517e-01,-2.6605106890e-02,-5.4731111974e-02,1.8947172910e-02,-1.2686993182e-01,-8.8460050523e-02,-8.0406904221e-02,8.3472505212e-02,-2.5257833302e-02,7.7427364886e-02,5.0991799682e-02,-1.5167298913e-01,-1.0135463625e-01,-2.6368239522e-01,-4.9357142299e-02,7.7985934913e-02,-7.4424844934e-04,8.6197827477e-04,1.2137215817e-03,4.3604891747e-02,3.7749331445e-02,-9.9323794246e-02,-8.7336711586e-02,-1.7606137693e-01,-4.3634036556e-03,-1.1057670414e-01,-1.4635264874e-01,-1.4011403918e-01,-9.3289971352e-02,3.2539170235e-02,-4.8784863204e-02,3.7324752659e-02,-7.7815647237e-03,-1.4680097997e-01,-1.1194036901e-01,-3.7293780595e-02,6.8620257080e-02,-5.1155764610e-02,-2.0826142281e-02,-2.4146802723e-01,-9.3635052443e-02,-1.8004745245e-01,7.1800373495e-02,-3.8200642914e-02,-5.8222878724e-02,-4.6053037047e-02,3.1959895045e-02,-3.0129883438e-02,2.5434210896e-01,9.1350145638e-02,1.0292099416e-01,1.2775872648e-01,4.6898234636e-02,-8.3760716021e-02,7.0280812681e-02,1.3432037830e-01,8.9811809361e-02,1.8185767531e-01,4.2091920972e-02,-6.1674892902e-02,-8.7634392083e-02,-4.8240475357e-02,6.5042018890e-02,-4.1476324201e-02,-5.0851028413e-02,-8.3005622029e-02,-1.6052216291e-02,9.1723918915e-02,2.3588252068e-01,1.0027255863e-01,1.1786602437e-01,8.2539804280e-02,-1.1387314647e-01,5.7596389204e-02,2.5360465050e-02,-4.5635785908e-02,-4.1865210980e-02,1.5259629115e-02,-1.5151688457e-01,-1.2718877196e-01,-1.0041915625e-01,-8.6565732956e-02,-1.5325182676e-01,-2.0080937073e-02,2.7205906808e-02,5.4088439792e-02,-6.5765805542e-02,2.0667627454e-01,9.9418535829e-02,1.4840085804e-01,1.0357925296e-01,2.4648427498e-03,-7.5270123780e-03,1.5153653920e-01,1.7168386281e-01,9.4384327531e-02,6.6323287785e-02,7.4145026505e-02,-1.0218258202e-01,-6.5446600318e-02,-1.0762275010e-01,-1.5483103693e-01,-1.8899603188e-01,8.5947394371e-02,-5.0561334938e-02,-4.3874401599e-02,7.8611500561e-02,-5.2577480674e-02,2.5538222864e-02,1.1788974702e-01,1.3310194016e-01,1.7037841678e-01,7.1383833885e-02,3.5580243915e-02,2.7666905895e-02,4.3522544205e-02,-5.3925652057e-02,-2.0517215133e-01,-2.5826932862e-02,-1.7666457221e-02,3.9411978796e-03,3.0491283163e-02,-1.2556646764e-01,-7.8987061977e-02,-8.4459789097e-02,3.2970435917e-02,1.7090458423e-02,1.0365007445e-02,-1.1185554415e-01,-3.7046790123e-02,-1.5586558729e-02,2.9029589146e-02,8.5814341903e-02,6.9242790341e-02,3.5315155983e-03,-1.4361970127e-01,6.6195517778e-02,-8.8278420269e-02,-1.6297940910e-01,-1.9210653007e-01,-9.9384309724e-03,1.1944611557e-02,-2.4613296613e-02,7.0595987141e-02,-8.7503818795e-03,6.8955957890e-02,-1.1039853096e-02,8.8065370917e-02,5.4811283946e-02,1.0498277843e-01,1.3212607801e-01,1.1859551072e-02,4.4065836817e-02,7.7130772173e-02,4.6729013324e-02,-7.8042075038e-02,7.1486076340e-03,1.0313741118e-01,-6.1945393682e-02,-6.8100370467e-02,1.0494644195e-01,7.2797723114e-02,4.4413037598e-02,-1.3503131457e-02,9.7722843289e-02,6.4946003258e-02,-7.4425026774e-02,-8.6399734020e-02,-1.0530241579e-01,7.6846525073e-02,-1.3261350989e-01,-7.6374486089e-02,5.1522489637e-02,-9.7818396986e-02,4.0879838169e-02,4.3793294579e-02,6.6804960370e-02,-1.4466986060e-01,-1.6959065199e-01,-1.7366720736e-01,-7.7984988689e-02,-1.7208318412e-01,-5.4532002658e-02,-1.0952340066e-01,1.0804046690e-01,-1.2201573700e-01,-1.0916406661e-01,-1.5047041699e-02,4.9137240276e-03,-5.2223924547e-02,1.4697781205e-01,1.1346568912e-01,8.4277540445e-03,2.9231531080e-03,1.2821604311e-01,2.6356294751e-02,1.3129277527e-01,-8.4031544626e-02,-1.0820171796e-02,-1.0439120233e-01,-3.0903417617e-02,7.0799104869e-02,-9.8998136818e-02,-1.0556144267e-01,4.1847187094e-03,-1.0475445539e-02,8.6031235754e-02,6.7898951471e-02,-6.2527365983e-02,-8.7781049311e-02,-1.1103808135e-01,-1.3693612814e-01,-2.3805828765e-02,-9.7136110067e-02,-1.5918351710e-01,3.4569188952e-02,5.5457849056e-02,7.1726888418e-02,-1.5018928051e-01,-9.4000265002e-02,-1.0988839716e-01,5.3650330752e-02,-1.1365894973e-01,-7.4592225254e-02,6.4542964101e-02,-7.6719522476e-02,-3.6073308438e-02,5.0161000341e-02,1.3354549883e-03,-3.9540551603e-02,-1.4091772959e-02,-6.9149754941e-02,9.2945918441e-02,4.6853274107e-02,1.2130045146e-01,-2.8716249391e-02,-8.3807118237e-02,-8.7084263563e-02,4.2030909099e-03,6.3129305840e-02,8.1887632608e-02,1.0559205711e-01,-9.2087283731e-02,-1.1339332908e-01,7.8173920512e-02,-6.9258764386e-02,-6.5008498728e-02,3.3662188798e-02,-3.1698208302e-02,2.8219752014e-02,-5.2971061319e-02,-3.6668181419e-02,-8.3703875542e-02,1.9143721089e-02,6.9316700101e-02,-9.4409860671e-02,4.4243607670e-02,-1.2962074578e-01,-3.3581439406e-02,-1.0981497169e-01,-6.6441446543e-02,9.1773636639e-02,7.9311300069e-03,-1.0150970519e-01,7.6672144234e-02,7.1244679391e-02,1.0347475857e-01,8.5738576949e-02,8.8667437434e-02,1.0021092743e-01,6.2134131789e-02,-5.3895857185e-02,-6.9962300360e-02,1.3581410050e-01,8.7468180573e-04,7.0352874696e-02,1.4066916704e-01,-3.9264362305e-02,1.1039977521e-01,-8.1084564328e-02,-8.1809997559e-02,3.4912243485e-02,-5.9055157006e-02,4.1341897100e-02,-1.5023313463e-02,3.1937252730e-02,-1.7000842839e-02,6.6973981448e-03,-1.0966737568e-01,1.0968557745e-01,2.7114612982e-02,2.5759233162e-02,-9.4947561622e-02,8.9139834046e-02,3.2766059041e-02,-3.1545516104e-02,-7.1299672127e-02,-6.4567700028e-02,-8.1536971033e-02,-4.7483798116e-02,4.2311370373e-02,-4.4549014419e-02,5.7474412024e-02,4.7352917492e-02,-2.5335658342e-02,-7.1213521063e-02,-3.0390543863e-02,-9.8573537543e-03,9.8503880203e-02,8.4768302739e-02,1.0527917743e-01,1.2556870468e-02,9.0882308781e-02,9.7749963403e-02,-1.5775581822e-02,2.4663615040e-03,1.0345251113e-01,6.3843399286e-02,-3.2093271613e-02,-4.6902984381e-02,4.7075603157e-02,1.0441154987e-01,-5.1291044801e-02,-3.6057095975e-02,3.9338387549e-02,-9.0501077473e-02,2.1832488477e-02,7.1871697903e-02,4.2732015252e-02,-1.0595584661e-01,4.0982015431e-02,-1.1505121738e-01,-1.1101603508e-01,1.8173307180e-02,2.2611901164e-02,-9.8145172000e-02,4.0561255068e-02,1.1074551940e-01,5.3512539715e-02,-8.4119103849e-02,3.5728607327e-02,2.3960705847e-02,2.3553369567e-02,4.9339488149e-02,8.9707024395e-02,1.0047341883e-01,-9.4207733870e-02,-1.0695750266e-01,-5.8567617089e-03,7.8629821539e-02,2.6038814336e-02,3.3774182200e-02,7.8272476792e-02,-6.1028722674e-02,3.3179737628e-02,-7.2145938873e-02,1.5245139599e-02,1.0234225541e-01,-9.2998452485e-02,-6.9339983165e-02,-3.8939046208e-03,-2.3076485842e-02,1.1382113397e-01},
